{"learner":{"attributes":{"scikit_learn":"{\"_estimator_type\": \"classifier\"}"},"feature_names":["ret_1h","ret_4h","ret_24h","ema_spread","ema26_slope","breakout_pct","atr_pct","volume"],"feature_types":["float","float","float","float","float","float","float","float"],"gradient_booster":{"model":{"gbtree_model_param":{"num_parallel_tree":"1","num_trees":"300"},"iteration_indptr":[0,1,2,3,4,5,6,7,8,9,10,11,12,13,14,15,16,17,18,19,20,21,22,23,24,25,26,27,28,29,30,31,32,33,34,35,36,37,38,39,40,41,42,43,44,45,46,47,48,49,50,51,52,53,54,55,56,57,58,59,60,61,62,63,64,65,66,67,68,69,70,71,72,73,74,75,76,77,78,79,80,81,82,83,84,85,86,87,88,89,90,91,92,93,94,95,96,97,98,99,100,101,102,103,104,105,106,107,108,109,110,111,112,113,114,115,116,117,118,119,120,121,122,123,124,125,126,127,128,129,130,131,132,133,134,135,136,137,138,139,140,141,142,143,144,145,146,147,148,149,150,151,152,153,154,155,156,157,158,159,160,161,162,163,164,165,166,167,168,169,170,171,172,173,174,175,176,177,178,179,180,181,182,183,184,185,186,187,188,189,190,191,192,193,194,195,196,197,198,199,200,201,202,203,204,205,206,207,208,209,210,211,212,213,214,215,216,217,218,219,220,221,222,223,224,225,226,227,228,229,230,231,232,233,234,235,236,237,238,239,240,241,242,243,244,245,246,247,248,249,250,251,252,253,254,255,256,257,258,259,260,261,262,263,264,265,266,267,268,269,270,271,272,273,274,275,276,277,278,279,280,281,282,283,284,285,286,287,288,289,290,291,292,293,294,295,296,297,298,299,300],"tree_info":[0,0,0,0,0,0,0,0,0,0,0,0,0,0,0,0,0,0,0,0,0,0,0,0,0,0,0,0,0,0,0,0,0,0,0,0,0,0,0,0,0,0,0,0,0,0,0,0,0,0,0,0,0,0,0,0,0,0,0,0,0,0,0,0,0,0,0,0,0,0,0,0,0,0,0,0,0,0,0,0,0,0,0,0,0,0,0,0,0,0,0,0,0,0,0,0,0,0,0,0,0,0,0,0,0,0,0,0,0,0,0,0,0,0,0,0,0,0,0,0,0,0,0,0,0,0,0,0,0,0,0,0,0,0,0,0,0,0,0,0,0,0,0,0,0,0,0,0,0,0,0,0,0,0,0,0,0,0,0,0,0,0,0,0,0,0,0,0,0,0,0,0,0,0,0,0,0,0,0,0,0,0,0,0,0,0,0,0,0,0,0,0,0,0,0,0,0,0,0,0,0,0,0,0,0,0,0,0,0,0,0,0,0,0,0,0,0,0,0,0,0,0,0,0,0,0,0,0,0,0,0,0,0,0,0,0,0,0,0,0,0,0,0,0,0,0,0,0,0,0,0,0,0,0,0,0,0,0,0,0,0,0,0,0,0,0,0,0,0,0,0,0,0,0,0,0,0,0,0,0,0,0,0,0,0,0,0,0,0,0,0,0,0,0,0,0,0,0,0,0],"trees":[{"base_weights":[-4.9804634E-1,-6.350579E-2,-7.018122E-1,-1.1085199E0,5.1465448E-2,-5.0250286E-1,-8.6241853E-1,-5.9227686E-2,-1.7238466E-1,4.7542927E-1,-2.1023844E-1,-2.3926888E-1,-6.5180445E-1,-6.723737E-1,-9.5744336E-1,-4.7823567E-2,5.63626E-2,-2.4440037E-2,2.9004235E-2,-2.249351E-2,5.1435265E-3,-1.5993655E-2,9.2770986E-2,-2.3731556E-2,-3.788744E-2,-4.0881123E-2,-2.1436773E-2,-4.10367E-2,-5.1073503E-2],"categories":[],"categories_nodes":[],"categories_segments":[],"categories_sizes":[],"default_left":[0,0,0,0,0,0,0,0,0,0,0,0,0,0,0,0,0,0,0,0,0,0,0,0,0,0,0,0,0],"id":0,"left_children":[1,3,5,7,9,11,13,-1,15,17,19,21,23,25,27,-1,-1,-1,-1,-1,-1,-1,-1,-1,-1,-1,-1,-1,-1],"loss_changes":[2.1665594E2,9.405593E1,5.2895752E1,5.3183746E0,7.840836E1,2.915561E1,1.599176E1,0E0,8.210076E0,2.7498165E1,3.284175E1,4.6433838E1,8.562317E0,1.0634735E1,4.5162964E0,0E0,0E0,0E0,0E0,0E0,0E0,0E0,0E0,0E0,0E0,0E0,0E0,0E0,0E0],"parents":[2147483647,0,0,1,1,2,2,3,3,4,4,5,5,6,6,8,8,9,9,10,10,11,11,12,12,13,13,14,14],"right_children":[2,4,6,8,10,12,14,-1,16,18,20,22,24,26,28,-1,-1,-1,-1,-1,-1,-1,-1,-1,-1,-1,-1,-1,-1],"split_conditions":[1.1778786E-2,5.0392444E-3,1.6855087E-2,1.943346E2,6.6025015E3,3.994139E4,1.0189439E5,-5.9227686E-2,1.3033333E-2,9.309811E0,-6.840362E-3,1.8831123E-2,-2.5823623E-2,-7.520967E-4,-1.2196347E-2,-4.7823567E-2,5.63626E-2,-2.4440037E-2,2.9004235E-2,-2.249351E-2,5.1435265E-3,-1.5993655E-2,9.2770986E-2,-2.3731556E-2,-3.788744E-2,-4.0881123E-2,-2.1436773E-2,-4.10367E-2,-5.1073503E-2],"split_indices":[6,6,6,7,7,7,7,0,2,7,5,3,2,3,3,0,0,0,0,0,0,0,0,0,0,0,0,0,0],"split_type":[0,0,0,0,0,0,0,0,0,0,0,0,0,0,0,0,0,0,0,0,0,0,0,0,0,0,0,0,0],"sum_hessian":[2.4463625E3,7.813684E2,1.6649941E3,7.658833E1,7.047801E2,7.4481805E2,9.20176E2,7.0589615E1,5.998722E0,2.6868695E2,4.3609314E2,2.7050052E2,4.7431757E2,3.0942245E2,6.107536E2,3.9061446E0,2.0925775E0,2.594796E1,2.4273898E2,2.4678464E2,1.893085E2,2.6129318E2,9.207341E0,1.7954315E2,2.947744E2,1.9237762E2,1.1704483E2,1.9921338E2,4.1154022E2],"tree_param":{"num_deleted":"0","num_feature":"8","num_nodes":"29","size_leaf_vector":"1"}},{"base_weights":[-4.768682E-1,-1.4452994E-1,-7.4598795E-1,-1.0929998E0,-7.515716E-2,-5.443349E-1,-8.6707085E-1,-5.861506E-2,-1.0073537E-1,3.1927615E-1,-2.83868E-1,-6.603003E-1,9.4840445E-2,-7.042752E-1,-9.913914E-1,-4.630316E-2,5.505393E-2,3.1981368E-2,-2.997912E-3,-2.5585745E-2,4.3104845E-3,1.6478736E-2,-3.403869E-2,4.9827192E-2,-1.5150859E-2,-2.2204112E-2,-4.751729E-2,-1.717159E-2,-5.005573E-2],"categories":[],"categories_nodes":[],"categories_segments":[],"categories_sizes":[],"default_left":[0,0,0,0,0,0,0,0,0,0,0,0,0,0,0,0,0,0,0,0,0,0,0,0,0,0,0,0,0],"id":1,"left_children":[1,3,5,7,9,11,13,-1,15,17,19,21,23,25,27,-1,-1,-1,-1,-1,-1,-1,-1,-1,-1,-1,-1,-1,-1],"loss_changes":[2.1603491E2,7.1148285E1,3.212671E1,5.6819916E0,8.322421E1,3.738925E1,1.6150818E1,0E0,7.5154824E0,4.254926E1,5.5774784E1,8.865326E0,2.835923E1,2.2878754E1,2.614685E0,0E0,0E0,0E0,0E0,0E0,0E0,0E0,0E0,0E0,0E0,0E0,0E0,0E0,0E0],"parents":[2147483647,0,0,1,1,2,2,3,3,4,4,5,5,6,6,8,8,9,9,10,10,11,11,12,12,13,13,14,14],"right_children":[2,4,6,8,10,12,14,-1,16,18,20,22,24,26,28,-1,-1,-1,-1,-1,-1,-1,-1,-1,-1,-1,-1,-1,-1],"split_conditions":[1.3596318E-2,5.0392444E-3,1.0189439E5,1.943346E2,6.940662E3,5.364603E-2,1.9347882E-2,-5.861506E-2,-2.6513478E-3,9.910586E-3,-7.1451026E-3,-5.4914065E-2,1.787412E-2,-5.8315573E-3,-4.78504E-2,-4.630316E-2,5.505393E-2,3.1981368E-2,-2.997912E-3,-2.5585745E-2,4.3104845E-3,1.6478736E-2,-3.403869E-2,4.9827192E-2,-1.5150859E-2,-2.2204112E-2,-4.751729E-2,-1.717159E-2,-5.005573E-2],"split_indices":[6,6,7,7,7,2,6,0,5,6,5,1,6,3,3,0,0,0,0,0,0,0,0,0,0,0,0,0,0],"split_type":[0,0,0,0,0,0,0,0,0,0,0,0,0,0,0,0,0,0,0,0,0,0,0,0,0,0,0,0,0],"sum_hessian":[2.415656E3,1.0815624E3,1.3340936E3,7.2710014E1,1.00885236E3,5.0258215E2,8.315114E2,6.7161095E1,5.548923E0,3.4891803E2,6.599343E2,4.253737E2,7.720848E1,3.6292816E2,4.6858325E2,3.4257712E0,2.1231518E0,1.8877078E2,1.6014725E2,4.0822098E2,2.5171335E2,8.3137245E0,4.1705997E2,2.3176516E1,5.4031967E1,1.7776532E2,1.8516284E2,7.464549E0,4.6111868E2],"tree_param":{"num_deleted":"0","num_feature":"8","num_nodes":"29","size_leaf_vector":"1"}},{"base_weights":[-4.560357E-1,-6.368519E-2,-6.781231E-1,-1.0690401E0,3.0083392E-2,-4.658976E-1,-8.205584E-1,-5.8073528E-2,1.6702903E-3,4.218724E-1,-2.110323E-1,-5.546694E-1,1.3283738E-1,-6.7277163E-1,-9.67466E-1,-4.61358E-2,6.1670065E-2,-2.9859712E-2,2.6977314E-2,-2.413918E-2,6.060137E-3,-1.9086778E-2,-3.6695108E-2,4.1392274E-2,-1.4630588E-2,-2.2359006E-2,-4.065475E-2,-1.7919721E-2,-4.8857566E-2],"categories":[],"categories_nodes":[],"categories_segments":[],"categories_sizes":[],"default_left":[0,0,0,0,0,0,0,0,0,0,0,0,0,0,0,0,0,0,0,0,0,0,0,0,0,0,0,0,0],"id":2,"left_children":[1,3,5,7,9,11,13,-1,15,17,19,21,23,25,27,-1,-1,-1,-1,-1,-1,-1,-1,-1,-1,-1,-1,-1,-1],"loss_changes":[2.0661661E2,8.0949066E1,4.539386E1,7.251671E0,7.4348335E1,3.252162E1,1.8994446E1,0E0,8.90312E0,3.627447E1,4.4053036E1,1.620488E1,2.3789228E1,1.4019531E1,2.3131409E0,0E0,0E0,0E0,0E0,0E0,0E0,0E0,0E0,0E0,0E0,0E0,0E0,0E0,0E0],"parents":[2147483647,0,0,1,1,2,2,3,3,4,4,5,5,6,6,8,8,9,9,10,10,11,11,12,12,13,13,14,14],"right_children":[2,4,6,8,10,12,14,-1,16,18,20,22,24,26,28,-1,-1,-1,-1,-1,-1,-1,-1,-1,-1,-1,-1,-1,-1],"split_conditions":[1.2234712E-2,5.0392444E-3,1.0189439E5,1.943346E2,6.6025015E3,6.331169E-2,1.9347882E-2,-5.8073528E-2,1.3033333E-2,-1.4633389E1,-7.6865694E-3,1.6501537E-2,1.787412E-2,-2.884903E-2,-4.78504E-2,-4.61358E-2,6.1670065E-2,-2.9859712E-2,2.6977314E-2,-2.413918E-2,6.060137E-3,-1.9086778E-2,-3.6695108E-2,4.1392274E-2,-1.4630588E-2,-2.2359006E-2,-4.065475E-2,-1.7919721E-2,-4.8857566E-2],"split_indices":[6,6,7,7,7,2,6,0,2,4,5,6,6,2,3,0,0,0,0,0,0,0,0,0,0,0,0,0,0],"split_type":[0,0,0,0,0,0,0,0,0,0,0,0,0,0,0,0,0,0,0,0,0,0,0,0,0,0,0,0,0],"sum_hessian":[2.3706892E3,8.5734625E2,1.513343E3,7.225473E1,7.8509155E2,6.0948865E2,9.038544E2,6.643489E1,5.8198433E0,2.9880823E2,4.862833E2,5.3085474E2,7.863389E1,4.533604E2,4.5049396E2,3.4680378E0,2.3518057E0,3.051039E1,2.6829782E2,2.672408E2,2.190425E2,2.7176782E2,2.5908694E2,2.9498964E1,4.913493E1,1.7546306E2,2.7789734E2,7.6463866E0,4.4284756E2],"tree_param":{"num_deleted":"0","num_feature":"8","num_nodes":"29","size_leaf_vector":"1"}},{"base_weights":[-4.342369E-1,-1.16971724E-1,-6.390809E-1,-9.2859805E-1,-3.051527E-2,-7.184171E-1,-4.344548E-1,-9.923487E-1,7.261162E-2,-2.9797256E-1,3.1712556E-1,-6.2845147E-1,-8.2623935E-1,-1.17898025E-1,-7.623839E-1,-5.2164245E-2,3.328039E-3,-3.5469306E-3,-2.6343022E-2,2.402894E-2,-8.21472E-3,-4.445767E-2,-2.2419585E-2,-4.174989E-2,2.5496129E-2,-1.922714E-2,1.2702695E-2,3.465508E-2,-3.955818E-2],"categories":[],"categories_nodes":[],"categories_segments":[],"categories_sizes":[],"default_left":[0,0,0,0,0,0,0,0,0,0,0,0,0,0,0,0,0,0,0,0,0,0,0,0,0,0,0,0,0],"id":3,"left_children":[1,3,5,7,9,11,13,15,-1,17,19,21,23,25,27,-1,-1,-1,-1,-1,-1,-1,-1,-1,-1,-1,-1,-1,-1],"loss_changes":[1.5177997E2,6.4385254E1,2.2734558E1,1.4848732E1,7.732519E1,9.389282E0,4.1346237E1,4.7417984E0,0E0,2.4384636E1,2.853762E1,2.5936768E1,5.8259583E0,2.0358469E1,8.753273E0,0E0,0E0,0E0,0E0,0E0,0E0,0E0,0E0,0E0,0E0,0E0,0E0,0E0,0E0],"parents":[2147483647,0,0,1,1,2,2,3,3,4,4,5,5,6,6,7,7,9,9,10,10,11,11,12,12,13,13,14,14],"right_children":[2,4,6,8,10,12,14,16,-1,18,20,22,24,26,28,-1,-1,-1,-1,-1,-1,-1,-1,-1,-1,-1,-1,-1,-1],"split_conditions":[3.7337043E4,9.309811E0,-9.953872E-3,4.674385E-2,-1.4113143E-2,-1.8812785E-2,6.3819513E-3,1.1311607E-2,7.261162E-2,6.6025015E3,5.575563E-3,-6.6066444E-2,3.1701913E-1,1.9943774E-2,1.0070553E-7,-5.2164245E-2,3.328039E-3,-3.5469306E-3,-2.6343022E-2,2.402894E-2,-8.21472E-3,-4.445767E-2,-2.2419585E-2,-4.174989E-2,2.5496129E-2,-1.922714E-2,1.2702695E-2,3.465508E-2,-3.955818E-2],"split_indices":[7,7,5,2,5,2,3,1,0,7,0,5,4,2,4,0,0,0,0,0,0,0,0,0,0,0,0,0,0],"split_type":[0,0,0,0,0,0,0,0,0,0,0,0,0,0,0,0,0,0,0,0,0,0,0,0,0,0,0,0,0],"sum_hessian":[2.3355908E3,9.169605E2,1.4186302E3,8.733607E1,8.2962445E2,1.0204697E3,3.9816046E2,8.5626465E1,1.7095969E0,4.6896747E2,3.6065698E2,5.600221E2,4.6044763E2,2.0328485E2,1.948756E2,8.171073E1,3.9157338E0,2.3609485E2,2.3287262E2,2.692441E2,9.141287E1,2.2717117E2,3.3285092E2,4.5782172E2,2.6259148E0,1.1838395E2,8.49009E1,3.3310366E0,1.9154457E2],"tree_param":{"num_deleted":"0","num_feature":"8","num_nodes":"29","size_leaf_vector":"1"}},{"base_weights":[-4.372243E-1,-1.2267813E-1,-6.392622E-1,-8.8945615E-1,-4.2094056E-2,-7.1859366E-1,-4.3652713E-1,-9.545034E-1,7.552731E-2,-2.3163554E-1,3.7587526E-1,-8.629613E-1,-6.663268E-1,-1.4505659E-1,-7.150091E-1,-5.0855286E-2,9.127492E-3,-3.92542E-2,-7.5531374E-3,3.2698937E-2,1.05412095E-4,-3.634764E-2,-4.8486557E-2,-2.1588592E-2,-3.972077E-2,1.0611168E-2,-2.2830887E-2,4.0989604E-2,-3.771827E-2],"categories":[],"categories_nodes":[],"categories_segments":[],"categories_sizes":[],"default_left":[0,0,0,0,0,0,0,0,0,0,0,0,0,0,0,0,0,0,0,0,0,0,0,0,0,0,0,0,0],"id":4,"left_children":[1,3,5,7,9,11,13,15,-1,17,19,21,23,25,27,-1,-1,-1,-1,-1,-1,-1,-1,-1,-1,-1,-1,-1,-1],"loss_changes":[1.4580637E2,5.5514824E1,2.2163208E1,1.4781677E1,6.462159E1,6.992798E0,3.2007294E1,6.1512833E0,0E0,2.4900898E1,2.6456322E1,3.1170807E0,2.1911377E1,2.1753098E1,1.2823441E1,0E0,0E0,0E0,0E0,0E0,0E0,0E0,0E0,0E0,0E0,0E0,0E0,0E0,0E0],"parents":[2147483647,0,0,1,1,2,2,3,3,4,4,5,5,6,6,7,7,9,9,10,10,11,11,12,12,13,13,14,14],"right_children":[2,4,6,8,10,12,14,16,-1,18,20,22,24,26,28,-1,-1,-1,-1,-1,-1,-1,-1,-1,-1,-1,-1,-1,-1],"split_conditions":[3.620878E4,9.309811E0,-9.953872E-3,4.674385E-2,-7.6865694E-3,-6.6066444E-2,6.000774E-3,1.1311607E-2,7.552731E-2,-1.4622929E-2,5.877097E-3,-6.220271E-3,-2.8224275E-2,3.527151E-3,1.0070553E-7,-5.0855286E-2,9.127492E-3,-3.92542E-2,-7.5531374E-3,3.2698937E-2,1.05412095E-4,-3.634764E-2,-4.8486557E-2,-2.1588592E-2,-3.972077E-2,1.0611168E-2,-2.2830887E-2,4.0989604E-2,-3.771827E-2],"split_indices":[7,7,5,2,5,5,3,1,0,3,3,0,2,0,4,0,0,0,0,0,0,0,0,0,0,0,0,0,0],"split_type":[0,0,0,0,0,0,0,0,0,0,0,0,0,0,0,0,0,0,0,0,0,0,0,0,0,0,0,0,0],"sum_hessian":[2.2945823E3,8.980479E2,1.3965343E3,8.4449715E1,8.135982E2,1.00192883E3,3.9460544E2,8.280767E1,1.6420454E0,5.600648E2,2.5353339E2,2.62197E2,7.397318E2,1.9354953E2,2.0105591E2,7.858646E1,4.2212152E0,7.006307E1,4.9000174E2,1.4494016E2,1.0859324E2,1.187439E2,1.4345311E2,2.6282297E2,4.7690887E2,9.030823E1,1.032413E2,4.5309205E0,1.9652498E2],"tree_param":{"num_deleted":"0","num_feature":"8","num_nodes":"29","size_leaf_vector":"1"}},{"base_weights":[-4.2070666E-1,3.930161E-2,-5.869622E-1,-1.0363773E0,1.7155609E-1,-4.1598228E-1,-7.9210824E-1,-5.6760293E-2,-6.327684E-2,5.7893836E-1,-7.5936474E-2,-2.2388536E-1,-5.696996E-1,-5.8814204E-1,-8.984829E-1,-4.6509914E-2,5.5433054E-2,-3.600084E-2,3.729759E-2,-1.6673844E-2,1.1348639E-2,-1.4484434E-2,4.8177343E-2,-1.9862914E-2,-3.3900656E-2,-3.989321E-2,-1.6891766E-2,-4.6431888E-2,-3.631753E-2],"categories":[],"categories_nodes":[],"categories_segments":[],"categories_sizes":[],"default_left":[0,0,0,0,0,0,0,0,0,0,0,0,0,0,0,0,0,0,0,0,0,0,0,0,0,0,0,0,0],"id":5,"left_children":[1,3,5,7,9,11,13,-1,15,17,19,21,23,25,27,-1,-1,-1,-1,-1,-1,-1,-1,-1,-1,-1,-1,-1,-1],"loss_changes":[1.7385846E2,8.6154816E1,5.8234314E1,6.3053284E0,5.4392147E1,2.6824844E1,1.5915161E1,0E0,8.318609E0,4.475695E1,2.6303738E1,3.2110146E1,9.188675E0,1.3519333E1,1.901062E0,0E0,0E0,0E0,0E0,0E0,0E0,0E0,0E0,0E0,0E0,0E0,0E0,0E0,0E0],"parents":[2147483647,0,0,1,1,2,2,3,3,4,4,5,5,6,6,8,8,9,9,10,10,11,11,12,12,13,13,14,14],"right_children":[2,4,6,8,10,12,14,-1,16,18,20,22,24,26,28,-1,-1,-1,-1,-1,-1,-1,-1,-1,-1,-1,-1,-1,-1],"split_conditions":[1.0730087E-2,5.0392444E-3,1.7465629E-2,1.943346E2,4.290166E3,5.8263117E4,1.0189439E5,-5.6760293E-2,1.3033333E-2,-1.4633389E1,-5.8875917E-3,7.489603E-2,-2.2511065E-2,-9.419074E-4,3.521416E-2,-4.6509914E-2,5.5433054E-2,-3.600084E-2,3.729759E-2,-1.6673844E-2,1.1348639E-2,-1.4484434E-2,4.8177343E-2,-1.9862914E-2,-3.3900656E-2,-3.989321E-2,-1.6891766E-2,-4.6431888E-2,-3.631753E-2],"split_indices":[6,6,6,7,7,7,7,0,2,4,5,2,2,4,6,0,0,0,0,0,0,0,0,0,0,0,0,0,0],"split_type":[0,0,0,0,0,0,0,0,0,0,0,0,0,0,0,0,0,0,0,0,0,0,0,0,0,0,0,0,0],"sum_hessian":[2.2719844E3,6.033511E2,1.6686333E3,6.531134E1,5.3803973E2,9.1175476E2,7.5687854E2,5.9138615E1,6.1727276E0,2.0283171E2,3.35208E2,4.063745E2,5.0538022E2,2.6167105E2,4.952075E2,3.6666546E0,2.5060728E0,2.273079E1,1.8010092E2,1.8111716E2,1.5409087E2,3.8575345E2,2.0621063E1,1.967734E2,3.0860684E2,1.411878E2,1.2048325E2,4.1764752E2,7.755995E1],"tree_param":{"num_deleted":"0","num_feature":"8","num_nodes":"29","size_leaf_vector":"1"}},{"base_weights":[-3.9977884E-1,-1.02350295E-1,-6.621599E-1,-1.0237477E0,-4.281889E-2,-4.5522922E-1,-7.943451E-1,-5.6302875E-2,-5.831886E-2,2.3984717E-1,-2.696615E-1,-5.412547E-1,3.1388572E-1,-6.265569E-1,-9.285552E-1,-4.5839053E-2,5.229727E-2,-7.6199635E-3,2.723127E-2,3.9754374E-4,-2.384684E-2,-1.735122E-2,-3.309634E-2,6.3845985E-2,-2.7362172E-2,-1.7805895E-2,-4.4094767E-2,-2.9170776E-2,-4.7108423E-2],"categories":[],"categories_nodes":[],"categories_segments":[],"categories_sizes":[],"default_left":[0,0,0,0,0,0,0,0,0,0,0,0,0,0,0,0,0,0,0,0,0,0,0,0,0,0,0,0,0],"id":6,"left_children":[1,3,5,7,9,11,13,-1,15,17,19,21,23,25,27,-1,-1,-1,-1,-1,-1,-1,-1,-1,-1,-1,-1,-1,-1],"loss_changes":[1.7391174E2,5.733604E1,3.203247E1,6.2006607E0,6.313649E1,3.0867844E1,1.5661499E1,0E0,7.72131E0,5.2500656E1,3.143203E1,9.55957E0,3.9930763E1,2.2033981E1,1.3235779E0,0E0,0E0,0E0,0E0,0E0,0E0,0E0,0E0,0E0,0E0,0E0,0E0,0E0,0E0],"parents":[2147483647,0,0,1,1,2,2,3,3,4,4,5,5,6,6,8,8,9,9,10,10,11,11,12,12,13,13,14,14],"right_children":[2,4,6,8,10,12,14,-1,16,18,20,22,24,26,28,-1,-1,-1,-1,-1,-1,-1,-1,-1,-1,-1,-1,-1,-1],"split_conditions":[1.3596318E-2,5.0392444E-3,1.0189439E5,1.943346E2,1.004884E-2,2.0423526E-2,1.9347882E-2,-5.6302875E-2,1.3033333E-2,-7.6865694E-3,-1.0962158E-2,1.6501537E-2,3.521416E-2,-5.6852014E-3,-3.3616796E-2,-4.5839053E-2,5.229727E-2,-7.6199635E-3,2.723127E-2,3.9754374E-4,-2.384684E-2,-1.735122E-2,-3.309634E-2,6.3845985E-2,-2.7362172E-2,-1.7805895E-2,-4.4094767E-2,-2.9170776E-2,-4.7108423E-2],"split_indices":[6,6,7,7,6,3,6,0,2,5,2,6,6,3,4,0,0,0,0,0,0,0,0,0,0,0,0,0,0],"split_type":[0,0,0,0,0,0,0,0,0,0,0,0,0,0,0,0,0,0,0,0,0,0,0,0,0,0,0,0,0],"sum_hessian":[2.2283743E3,1.0450839E3,1.1832904E3,6.244194E1,9.826419E2,4.6297113E2,7.2031934E2,5.630837E1,6.1335726E0,4.374647E2,5.4517725E2,4.1666357E2,4.6307533E1,3.22634E2,3.976853E2,3.5463772E0,2.5871954E0,1.9150267E2,2.45962E2,2.3345842E2,3.1171884E2,1.611527E2,2.555109E2,2.1632374E1,2.4675161E1,1.5784685E2,1.6478716E2,1.675479E1,3.809305E2],"tree_param":{"num_deleted":"0","num_feature":"8","num_nodes":"29","size_leaf_vector":"1"}},{"base_weights":[-3.7892976E-1,-1.15682304E-1,-6.6232324E-1,-1.0840751E0,-6.7601286E-2,-4.6548706E-1,-7.8315383E-1,-5.505207E-2,-5.1972414E-3,1.4033717E-1,-3.5927668E-1,-5.590973E-1,2.1282269E-1,-6.139862E-1,-8.9777756E-1,2.0237353E-2,-4.7042337E-3,-2.6556093E-2,-4.727532E-3,-3.929361E-2,-2.2398507E-2,5.083507E-2,-2.7741615E-2,-1.6618807E-2,-4.457505E-2,-1.2170522E-2,-4.544213E-2],"categories":[],"categories_nodes":[],"categories_segments":[],"categories_sizes":[],"default_left":[0,0,0,0,0,0,0,0,0,0,0,0,0,0,0,0,0,0,0,0,0,0,0,0,0,0,0],"id":7,"left_children":[1,3,5,7,9,11,13,-1,-1,15,17,19,21,23,25,-1,-1,-1,-1,-1,-1,-1,-1,-1,-1,-1,-1],"loss_changes":[1.6421832E2,5.3142887E1,2.4854462E1,7.834549E-1,6.615532E1,2.5885063E1,1.2160339E1,0E0,0E0,3.952294E1,2.0598934E1,8.640945E0,3.137826E1,2.0643692E1,2.5925598E0,0E0,0E0,0E0,0E0,0E0,0E0,0E0,0E0,0E0,0E0,0E0,0E0],"parents":[2147483647,0,0,1,1,2,2,3,3,4,4,5,5,6,6,9,9,10,10,11,11,12,12,13,13,14,14],"right_children":[2,4,6,8,10,12,14,-1,-1,16,18,20,22,24,26,-1,-1,-1,-1,-1,-1,-1,-1,-1,-1,-1,-1],"split_conditions":[1.42590925E-2,4.7230944E-3,1.0189439E5,1.4327295E4,4.9647496E4,1.8831123E-2,1.9347882E-2,-5.505207E-2,-5.1972414E-3,9.842276E-3,-7.6865694E-3,-1.3848702E-2,3.521416E-2,-5.8315573E-3,-4.78504E-2,2.0237353E-2,-4.7042337E-3,-2.6556093E-2,-4.727532E-3,-3.929361E-2,-2.2398507E-2,5.083507E-2,-2.7741615E-2,-1.6618807E-2,-4.457505E-2,-1.2170522E-2,-4.544213E-2],"split_indices":[6,6,7,7,7,3,6,0,0,6,5,4,6,3,3,0,0,0,0,0,0,0,0,0,0,0,0],"split_type":[0,0,0,0,0,0,0,0,0,0,0,0,0,0,0,0,0,0,0,0,0,0,0,0,0,0,0],"sum_hessian":[2.2012678E3,1.141927E3,1.059341E3,5.2995968E1,1.088931E3,4.047861E2,6.545548E2,5.1972942E1,1.023029E0,6.3602264E2,4.529084E2,3.5585242E2,4.89337E1,2.6694302E2,3.8761182E2,2.9855215E2,3.374705E2,2.7402228E2,1.7888611E2,1.150337E2,2.4081871E2,2.374442E1,2.5189283E1,1.335847E2,1.333583E2,6.8277974E0,3.8078403E2],"tree_param":{"num_deleted":"0","num_feature":"8","num_nodes":"27","size_leaf_vector":"1"}},{"base_weights":[-3.707664E-1,-3.049568E-2,-5.826638E-1,-1.0048316E0,4.507463E-2,-3.757607E-1,-7.3190707E-1,-5.554194E-2,-6.629308E-2,3.7536845E-1,-1.14880994E-1,-4.519783E-1,3.469873E-1,-5.817E-1,-8.910194E-1,-4.4868723E-2,4.5282844E-2,-5.4015018E-2,2.2233782E-2,-1.5002849E-2,5.4618297E-3,-1.8711725E-2,-5.2063543E-2,5.0956994E-2,-2.2764733E-2,-1.5943749E-2,-3.8534194E-2,-1.1728865E-2,-4.512051E-2],"categories":[],"categories_nodes":[],"categories_segments":[],"categories_sizes":[],"default_left":[0,0,0,0,0,0,0,0,0,0,0,0,0,0,0,0,0,0,0,0,0,0,0,0,0,0,0,0,0],"id":8,"left_children":[1,3,5,7,9,11,13,-1,15,17,19,21,23,25,27,-1,-1,-1,-1,-1,-1,-1,-1,-1,-1,-1,-1,-1,-1],"loss_changes":[1.5698553E2,6.1650978E1,4.1158813E1,5.9223175E0,4.11159E1,3.1244385E1,1.8087067E1,0E0,6.6122003E0,2.6094444E1,2.1801476E1,2.30186E1,2.9800373E1,1.9787216E1,2.6009521E0,0E0,0E0,0E0,0E0,0E0,0E0,0E0,0E0,0E0,0E0,0E0,0E0,0E0,0E0],"parents":[2147483647,0,0,1,1,2,2,3,3,4,4,5,5,6,6,8,8,9,9,10,10,11,11,12,12,13,13,14,14],"right_children":[2,4,6,8,10,12,14,-1,16,18,20,22,24,26,28,-1,-1,-1,-1,-1,-1,-1,-1,-1,-1,-1,-1,-1,-1],"split_conditions":[1.2234712E-2,5.0392444E-3,1.0189439E5,1.6401396E2,3.799722E3,1.8831123E-2,1.9347882E-2,-5.554194E-2,1.3033333E-2,-6.626861E1,1.7817372E-2,1.3860687E-2,3.521416E-2,-2.4657534E-2,-4.78504E-2,-4.4868723E-2,4.5282844E-2,-5.4015018E-2,2.2233782E-2,-1.5002849E-2,5.4618297E-3,-1.8711725E-2,-5.2063543E-2,5.0956994E-2,-2.2764733E-2,-1.5943749E-2,-3.8534194E-2,-1.1728865E-2,-4.512051E-2],"split_indices":[6,6,7,7,7,3,6,0,2,4,2,4,6,2,3,0,0,0,0,0,0,0,0,0,0,0,0,0,0],"split_type":[0,0,0,0,0,0,0,0,0,0,0,0,0,0,0,0,0,0,0,0,0,0,0,0,0,0,0,0,0],"sum_hessian":[2.176502E3,8.356829E2,1.340819E3,5.9265823E1,7.7641705E2,5.6334485E2,7.774742E2,5.3086193E1,6.179631E0,2.5288527E2,5.235318E2,5.099433E2,5.3401566E1,4.0232376E2,3.751504E2,3.3725803E0,2.8070507E0,1.0830189E1,2.4205508E2,2.8648566E2,2.3704613E2,4.5195334E2,5.798994E1,2.8910238E1,2.4491327E1,1.6940912E2,2.3291463E2,6.7670097E0,3.683834E2],"tree_param":{"num_deleted":"0","num_feature":"8","num_nodes":"29","size_leaf_vector":"1"}},{"base_weights":[-3.6428073E-1,-1.6488022E-1,-7.210658E-1,1.0798994E-2,-3.6779717E-1,-6.3044155E-1,-8.914865E-1,-1.0385327E0,9.570308E-2,-1.1372446E-1,-4.8831776E-1,-3.790397E-1,-6.796978E-1,-7.308525E-1,-9.734311E-1,-5.5140883E-2,-8.3759995E-3,1.976472E-2,-6.1137755E-3,-1.7760592E-2,7.6136887E-3,-1.3987179E-2,-3.0960888E-2,-2.230685E-2,5.5625048E-2,-8.3314665E-3,-3.5219196E-2,1.0684337E-2,-4.7488797E-2,-5.135071E-2,-3.2397497E-2],"categories":[],"categories_nodes":[],"categories_segments":[],"categories_sizes":[],"default_left":[0,0,0,0,0,0,0,0,0,0,0,0,0,0,0,0,0,0,0,0,0,0,0,0,0,0,0,0,0,0,0],"id":9,"left_children":[1,3,5,7,9,11,13,15,17,19,21,23,25,27,29,-1,-1,-1,-1,-1,-1,-1,-1,-1,-1,-1,-1,-1,-1,-1,-1],"loss_changes":[1.5208334E2,4.897325E1,1.1279114E1,6.578061E1,1.9463936E1,5.982834E0,2.7603455E0,2.9099884E0,4.4648342E1,1.331199E1,1.1622955E1,8.9851465E0,5.2038116E0,1.9456459E1,2.3280334E0,0E0,0E0,0E0,0E0,0E0,0E0,0E0,0E0,0E0,0E0,0E0,0E0,0E0,0E0,0E0,0E0],"parents":[2147483647,0,0,1,1,2,2,3,3,4,4,5,5,6,6,7,7,8,8,9,9,10,10,11,11,12,12,13,13,14,14],"right_children":[2,4,6,8,10,12,14,16,18,20,22,24,26,28,30,-1,-1,-1,-1,-1,-1,-1,-1,-1,-1,-1,-1,-1,-1,-1,-1],"split_conditions":[1.6427929E-2,3.8700254E4,6.3633744E5,5.0392444E-3,1.1030309E-2,1.787412E-2,-1.2196347E-2,1.943346E2,9.842276E-3,1.93656E-2,-2.3108967E-2,2.1218225E-2,-1.12455666E-1,1.9099277E-2,3.3941746E-2,-5.5140883E-2,-8.3759995E-3,1.976472E-2,-6.1137755E-3,-1.7760592E-2,7.6136887E-3,-1.3987179E-2,-3.0960888E-2,-2.230685E-2,5.5625048E-2,-8.3314665E-3,-3.5219196E-2,1.0684337E-2,-4.7488797E-2,-5.135071E-2,-3.2397497E-2],"split_indices":[6,7,7,6,6,6,3,7,6,2,2,3,2,6,6,0,0,0,0,0,0,0,0,0,0,0,0,0,0,0,0],"split_type":[0,0,0,0,0,0,0,0,0,0,0,0,0,0,0,0,0,0,0,0,0,0,0,0,0,0,0,0,0,0,0],"sum_hessian":[2.1383804E3,1.3726782E3,7.65702E2,7.362246E2,6.364537E2,5.0294913E2,2.627529E2,5.426989E1,6.819547E2,2.0539613E2,4.310575E2,8.3821724E1,4.191274E2,9.211024E1,1.7064267E2,5.0291965E1,3.9779239E0,2.8686795E2,3.9508676E2,1.0748245E2,9.791368E1,1.6742383E2,2.636337E2,8.0884026E1,2.937699E0,1.9596193E1,3.9953122E2,1.733646E1,7.477377E1,1.4467061E2,2.597207E1],"tree_param":{"num_deleted":"0","num_feature":"8","num_nodes":"31","size_leaf_vector":"1"}},{"base_weights":[-3.3905202E-1,-1.6750926E-1,-7.008204E-1,1.1285223E-2,-3.660666E-1,-5.113883E-1,-8.0397964E-1,-1.010022E0,8.8259004E-2,-1.7517953E-1,-4.987482E-1,-8.07866E-1,-2.9675442E-1,-5.8202726E-1,-8.5597587E-1,-5.47457E-2,-7.748842E-4,1.8082712E-2,-6.4381547E-3,-1.8425124E-2,3.6898782E-3,-1.7213462E-2,-3.0417193E-2,-4.9694646E-2,-2.6293147E-2,1.3131596E-3,-2.1125546E-2,-1.4361218E-2,-4.1431744E-2,-4.5267586E-2,-3.140105E-2],"categories":[],"categories_nodes":[],"categories_segments":[],"categories_sizes":[],"default_left":[0,0,0,0,0,0,0,0,0,0,0,0,0,0,0,0,0,0,0,0,0,0,0,0,0,0,0,0,0,0,0],"id":10,"left_children":[1,3,5,7,9,11,13,15,17,19,21,23,25,27,29,-1,-1,-1,-1,-1,-1,-1,-1,-1,-1,-1,-1,-1,-1,-1,-1],"loss_changes":[1.3041649E2,5.0704376E1,1.2804016E1,5.9241085E1,1.7051575E1,1.5107273E1,4.534424E0,4.4420853E0,4.161638E1,1.3457615E1,6.5401917E0,4.759964E0,5.7581577E0,6.0065174E0,3.3841553E0,0E0,0E0,0E0,0E0,0E0,0E0,0E0,0E0,0E0,0E0,0E0,0E0,0E0,0E0,0E0,0E0],"parents":[2147483647,0,0,1,1,2,2,3,3,4,4,5,5,6,6,7,7,8,8,9,9,10,10,11,11,12,12,13,13,14,14],"right_children":[2,4,6,8,10,12,14,16,18,20,22,24,26,28,30,-1,-1,-1,-1,-1,-1,-1,-1,-1,-1,-1,-1,-1,-1,-1,-1],"split_conditions":[1.7261062E-2,3.8700254E4,1.0189439E5,5.0392444E-3,1.2010649E-2,-3.3145286E-3,1.9347882E-2,1.943346E2,1.004884E-2,1.9943774E-2,-2.3660362E-2,2.1722035E-2,1.4914688E4,-2.526945E-2,3.521416E-2,-5.47457E-2,-7.748842E-4,1.8082712E-2,-6.4381547E-3,-1.8425124E-2,3.6898782E-3,-1.7213462E-2,-3.0417193E-2,-4.9694646E-2,-2.6293147E-2,1.3131596E-3,-2.1125546E-2,-1.4361218E-2,-4.1431744E-2,-4.5267586E-2,-3.140105E-2],"split_indices":[6,7,7,6,6,4,6,7,6,2,2,6,7,2,6,0,0,0,0,0,0,0,0,0,0,0,0,0,0,0,0],"split_type":[0,0,0,0,0,0,0,0,0,0,0,0,0,0,0,0,0,0,0,0,0,0,0,0,0,0,0,0,0,0,0],"sum_hessian":[2.1023923E3,1.4271375E3,6.752548E2,7.514364E2,6.7570105E2,2.4017572E2,4.350791E2,5.1815388E1,6.9962103E2,2.7802737E2,3.9767368E2,9.969765E1,1.4047807E2,8.489365E1,3.5018546E2,4.76473E1,4.168085E0,3.093051E2,3.903159E2,1.5623538E2,1.2179198E2,1.6676031E2,2.3091336E2,5.8549984E1,4.1147663E1,3.958679E1,1.0089128E2,3.9654293E1,4.5239357E1,2.8539606E2,6.47894E1],"tree_param":{"num_deleted":"0","num_feature":"8","num_nodes":"31","size_leaf_vector":"1"}},{"base_weights":[-3.2311526E-1,-1.7347623E-2,-5.131575E-1,-8.771235E-1,6.2380962E-2,-3.5517374E-1,-6.861757E-1,-1.0066642E0,3.9933532E-1,4.2585844E-1,-1.225034E-1,-3.9339855E-1,7.5035894E-1,-4.9969134E-1,-7.879015E-1,-5.4588318E-2,-1.6134525E-2,-1.3829178E-2,5.9292864E-2,2.9399777E-2,-5.3706253E-3,-1.772351E-2,6.02168E-3,-8.732772E-3,-2.8709386E-2,7.642405E-2,-3.895337E-2,-2.8689563E-2,1.1214154E-2,-3.0738343E-2,-4.2738892E-2],"categories":[],"categories_nodes":[],"categories_segments":[],"categories_sizes":[],"default_left":[0,0,0,0,0,0,0,0,0,0,0,0,0,0,0,0,0,0,0,0,0,0,0,0,0,0,0,0,0,0,0],"id":11,"left_children":[1,3,5,7,9,11,13,15,17,19,21,23,25,27,29,-1,-1,-1,-1,-1,-1,-1,-1,-1,-1,-1,-1,-1,-1,-1,-1],"loss_changes":[1.20817474E2,5.4758564E1,3.4806366E1,1.1611145E1,4.9192444E1,2.8707329E1,1.1196167E1,3.2465248E0,4.0289874E0,2.1399326E1,2.740072E1,2.562555E1,2.8340946E1,1.1843582E1,4.03154E0,0E0,0E0,0E0,0E0,0E0,0E0,0E0,0E0,0E0,0E0,0E0,0E0,0E0,0E0,0E0,0E0],"parents":[2147483647,0,0,1,1,2,2,3,3,4,4,5,5,6,6,7,7,8,8,9,9,10,10,11,11,12,12,13,13,14,14],"right_children":[2,4,6,8,10,12,14,16,18,20,22,24,26,28,30,-1,-1,-1,-1,-1,-1,-1,-1,-1,-1,-1,-1,-1,-1,-1,-1],"split_conditions":[1.2010649E-2,9.309811E0,1.787412E-2,8.26221E-3,4.290166E3,1.9534579E-2,1.0189439E5,3.7516141E-3,7.6109287E-3,1.0507531E-2,-7.6865694E-3,-2.416189E-2,5.8263117E4,1.4984272E-1,-1.39670465E-2,-5.4588318E-2,-1.6134525E-2,-1.3829178E-2,5.9292864E-2,2.9399777E-2,-5.3706253E-3,-1.772351E-2,6.02168E-3,-8.732772E-3,-2.8709386E-2,7.642405E-2,-3.895337E-2,-2.8689563E-2,1.1214154E-2,-3.0738343E-2,-4.2738892E-2],"split_indices":[6,7,6,6,7,3,7,3,1,6,5,2,7,2,3,0,0,0,0,0,0,0,0,0,0,0,0,0,0,0,0],"split_type":[0,0,0,0,0,0,0,0,0,0,0,0,0,0,0,0,0,0,0,0,0,0,0,0,0,0,0,0,0,0,0],"sum_hessian":[2.078314E3,7.970289E2,1.281285E3,6.678903E1,7.302398E2,6.71337E2,6.09948E2,6.082736E1,5.9616704E0,2.4576646E2,4.8447336E2,6.4952325E2,2.1813719E1,2.1737212E2,3.9257587E2,5.3566265E1,7.2610936E0,3.5549634E0,2.4067073E0,1.8838635E2,5.738011E1,2.4759746E2,2.3687592E2,2.948002E2,3.5472308E2,1.44583845E1,7.355334E0,1.9737764E2,1.9994469E1,1.1222684E2,2.8034906E2],"tree_param":{"num_deleted":"0","num_feature":"8","num_nodes":"31","size_leaf_vector":"1"}},{"base_weights":[-3.302256E-1,-1.5171915E-1,-6.667435E-1,6.148629E-2,-2.7956018E-1,-5.423637E-2,-6.420356E-1,-9.7920567E-1,1.7866275E-1,-3.7671812E-2,-4.9426967E-1,-4.103259E-1,-6.821065E-1,-5.2453298E-2,-4.1864975E-3,-7.387473E-3,2.1250654E-2,-2.8144224E-2,8.663527E-3,-3.623351E-2,-1.7702563E-2,6.162619E-3,-3.1149587E-2,-3.6591943E-2,-2.5682285E-2],"categories":[],"categories_nodes":[],"categories_segments":[],"categories_sizes":[],"default_left":[0,0,0,0,0,0,0,0,0,0,0,0,0,0,0,0,0,0,0,0,0,0,0,0,0],"id":12,"left_children":[1,3,5,7,9,-1,11,13,15,17,19,21,23,-1,-1,-1,-1,-1,-1,-1,-1,-1,-1,-1,-1],"loss_changes":[1.23364044E2,3.665673E1,6.6575623E0,6.172191E1,4.363553E1,0E0,5.9854126E0,3.1170998E0,3.660843E1,4.4007526E1,1.4126389E1,1.16510315E1,4.4312744E0,0E0,0E0,0E0,0E0,0E0,0E0,0E0,0E0,0E0,0E0,0E0,0E0],"parents":[2147483647,0,0,1,1,2,2,3,3,4,4,6,6,7,7,8,8,9,9,10,10,11,11,12,12],"right_children":[2,4,6,8,10,-1,12,14,16,18,20,22,24,-1,-1,-1,-1,-1,-1,-1,-1,-1,-1,-1,-1],"split_conditions":[1.6427929E-2,1.004884E-2,-6.58477E-2,5.0392444E-3,-1.3114754E-2,-5.423637E-2,1.787412E-2,7.845685E-3,-7.6865694E-3,-1.2651857E-2,-1.38429E-2,-1.2196347E-2,3.2361284E-2,-5.2453298E-2,-4.1864975E-3,-7.387473E-3,2.1250654E-2,-2.8144224E-2,8.663527E-3,-3.623351E-2,-1.7702563E-2,6.162619E-3,-3.1149587E-2,-3.6591943E-2,-2.5682285E-2],"split_indices":[6,6,4,6,2,0,6,1,5,3,5,3,6,0,0,0,0,0,0,0,0,0,0,0,0],"split_type":[0,0,0,0,0,0,0,0,0,0,0,0,0,0,0,0,0,0,0,0,0,0,0,0,0],"sum_hessian":[2.0543345E3,1.3432542E3,7.110803E2,5.0371246E2,8.395417E2,3.7292934E1,6.737874E2,5.023128E1,4.534812E2,3.9533682E2,4.442049E2,1.00999214E2,5.727882E2,4.6436996E1,3.7942855E0,1.9521849E2,2.582627E2,1.1280415E2,2.8253268E2,1.6648166E2,2.7772324E2,2.8902733E1,7.209648E1,4.3965146E2,1.3313673E2],"tree_param":{"num_deleted":"0","num_feature":"8","num_nodes":"25","size_leaf_vector":"1"}},{"base_weights":[-3.098882E-1,-9.344755E-2,-5.66366E-1,-9.6553487E-1,-5.364671E-2,-4.3208066E-1,-7.406483E-1,-5.3825732E-2,-5.9106607E-2,2.1714737E-1,-2.0826751E-1,-5.066776E-1,-8.57699E-2,-5.9314126E-1,-9.153601E-1,-4.3527607E-2,5.0756853E-2,1.8329358E-2,-1.0148541E-2,-1.8842733E-2,3.2315168E-3,-4.1351866E-2,-2.2538785E-2,3.3847E-2,-2.0619273E-2,-1.350853E-2,-4.1875724E-2,-4.9026657E-2,-3.2134444E-2],"categories":[],"categories_nodes":[],"categories_segments":[],"categories_sizes":[],"default_left":[0,0,0,0,0,0,0,0,0,0,0,0,0,0,0,0,0,0,0,0,0,0,0,0,0,0,0,0,0],"id":13,"left_children":[1,3,5,7,9,11,13,-1,15,17,19,21,23,25,27,-1,-1,-1,-1,-1,-1,-1,-1,-1,-1,-1,-1,-1,-1],"loss_changes":[1.1295311E2,3.831007E1,2.147995E1,4.783066E0,4.4345642E1,1.360994E1,9.867859E0,0E0,6.3872585E0,2.4248283E1,3.1032858E1,7.411026E0,2.391276E1,1.7285622E1,2.62352E0,0E0,0E0,0E0,0E0,0E0,0E0,0E0,0E0,0E0,0E0,0E0,0E0,0E0,0E0],"parents":[2147483647,0,0,1,1,2,2,3,3,4,4,5,5,6,6,8,8,9,9,10,10,11,11,12,12,13,13,14,14],"right_children":[2,4,6,8,10,12,14,-1,16,18,20,22,24,26,28,-1,-1,-1,-1,-1,-1,-1,-1,-1,-1,-1,-1,-1,-1],"split_conditions":[1.42590925E-2,5.0392444E-3,2.832762E5,1.943346E2,6.940662E3,5.8757797E-2,-3.512403E-3,-5.3825732E-2,1.3033333E-2,5.747784E-3,-6.840362E-3,-6.58477E-2,3.5044523E4,1.9099277E-2,3.051948E-2,-4.3527607E-2,5.0756853E-2,1.8329358E-2,-1.0148541E-2,-1.8842733E-2,3.2315168E-3,-4.1351866E-2,-2.2538785E-2,3.3847E-2,-2.0619273E-2,-1.350853E-2,-4.1875724E-2,-4.9026657E-2,-3.2134444E-2],"split_indices":[6,6,7,7,7,2,3,0,2,3,5,4,7,6,6,0,0,0,0,0,0,0,0,0,0,0,0,0,0],"split_type":[0,0,0,0,0,0,0,0,0,0,0,0,0,0,0,0,0,0,0,0,0,0,0,0,0,0,0,0,0],"sum_hessian":[2.0346971E3,1.1042169E3,9.304802E2,4.718016E1,1.0570367E3,5.275103E2,4.0296988E2,4.186653E1,5.3136287E0,3.840424E2,6.729944E2,4.3363928E2,9.387103E1,2.2087918E2,1.820907E2,3.1351E0,2.178529E0,2.833719E2,1.00670494E2,4.1576672E2,2.5722766E2,6.237721E1,3.712621E2,2.782402E1,6.604701E1,9.604667E1,1.2483251E2,1.448686E2,3.722208E1],"tree_param":{"num_deleted":"0","num_feature":"8","num_nodes":"29","size_leaf_vector":"1"}},{"base_weights":[-2.9552686E-1,-8.764804E-2,-5.47921E-1,-9.6128494E-1,-4.802995E-2,-3.7199166E-1,-6.648873E-1,-5.3529084E-2,-1.4443372E-1,1.0695436E-1,-2.7452922E-1,-4.808516E-1,1.5879755E-1,-4.893302E-1,-7.931171E-1,-4.432086E-2,3.5857365E-2,1.5261188E-2,-3.967379E-3,-2.1376984E-2,-1.1009049E-3,3.5727024E-2,-2.5393007E-2,4.578695E-2,-7.2969287E-3,-8.880424E-3,-3.5865303E-2,-2.3855457E-2,-4.1483324E-2],"categories":[],"categories_nodes":[],"categories_segments":[],"categories_sizes":[],"default_left":[0,0,0,0,0,0,0,0,0,0,0,0,0,0,0,0,0,0,0,0,0,0,0,0,0,0,0,0,0],"id":14,"left_children":[1,3,5,7,9,11,13,-1,15,17,19,21,23,25,27,-1,-1,-1,-1,-1,-1,-1,-1,-1,-1,-1,-1,-1,-1],"loss_changes":[1.0496602E2,3.7983E1,1.8350403E1,4.0961075E0,3.6962868E1,2.1061985E1,1.180397E1,0E0,4.9666266E0,2.3125181E1,1.6516453E1,1.0101128E1,1.4564572E1,1.6304081E1,3.2004395E0,0E0,0E0,0E0,0E0,0E0,0E0,0E0,0E0,0E0,0E0,0E0,0E0,0E0,0E0],"parents":[2147483647,0,0,1,1,2,2,3,3,4,4,5,5,6,6,8,8,9,9,10,10,11,11,12,12,13,13,14,14],"right_children":[2,4,6,8,10,12,14,-1,16,18,20,22,24,26,28,-1,-1,-1,-1,-1,-1,-1,-1,-1,-1,-1,-1,-1,-1],"split_conditions":[1.42590925E-2,5.0392444E-3,1.0189439E5,1.943346E2,4.802533E4,6.206411E-2,1.9347882E-2,-5.3529084E-2,-2.6513478E-3,9.842276E-3,-6.840362E-3,-5.4914065E-2,1.787412E-2,-2.9895851E-2,-9.943066E-2,-4.432086E-2,3.5857365E-2,1.5261188E-2,-3.967379E-3,-2.1376984E-2,-1.1009049E-3,3.5727024E-2,-2.5393007E-2,4.578695E-2,-7.2969287E-3,-8.880424E-3,-3.5865303E-2,-2.3855457E-2,-4.1483324E-2],"split_indices":[6,6,7,7,7,2,6,0,5,6,5,1,6,2,2,0,0,0,0,0,0,0,0,0,0,0,0,0,0],"split_type":[0,0,0,0,0,0,0,0,0,0,0,0,0,0,0,0,0,0,0,0,0,0,0,0,0,0,0,0,0],"sum_hessian":[2.0005103E3,1.0977336E3,9.027766E2,4.661178E1,1.0511218E3,3.6218832E2,5.405883E2,4.083706E1,5.7747197E0,6.2439874E2,4.2672308E2,3.0062668E2,6.156164E1,2.3021759E2,3.103707E2,3.087218E0,2.687502E0,3.021748E2,3.2222394E2,2.652813E2,1.6144179E2,6.0797987E0,2.9454688E2,1.7094692E1,4.4466946E1,9.799866E1,1.3221893E2,3.3632824E1,2.7673788E2],"tree_param":{"num_deleted":"0","num_feature":"8","num_nodes":"29","size_leaf_vector":"1"}},{"base_weights":[-2.8840604E-1,-1.3932292E-1,-6.3107294E-1,1.1353619E-2,-3.309701E-1,-4.426498E-1,-7.40456E-1,-8.207586E-1,8.564117E-2,-6.2434554E-1,-2.4359143E-1,-7.6157373E-1,-2.2155797E-1,-2.2275741E-1,-7.625448E-1,-4.912056E-2,1.751331E-2,1.7330557E-2,-5.9176097E-3,-2.419612E-2,-4.729852E-2,4.7388943E-3,-1.7675253E-2,-4.817174E-2,-2.4920765E-2,1.5270712E-3,-2.1288374E-2,1.0373871E-2,-4.7138512E-2,-4.022644E-2,-2.7996043E-2],"categories":[],"categories_nodes":[],"categories_segments":[],"categories_sizes":[],"default_left":[0,0,0,0,0,0,0,0,0,0,0,0,0,0,0,0,0,0,0,0,0,0,0,0,0,0,0,0,0,0,0],"id":15,"left_children":[1,3,5,7,9,11,13,15,17,19,21,23,25,27,29,-1,-1,-1,-1,-1,-1,-1,-1,-1,-1,-1,-1,-1,-1,-1,-1],"loss_changes":[1.0121033E2,3.99412E1,1.2056351E1,4.7992577E1,1.5453995E1,1.5568272E1,4.160553E0,1.2389748E1,3.7977802E1,5.823101E0,1.7540098E1,4.352001E0,6.8712435E0,5.4335947E0,2.6356354E0,0E0,0E0,0E0,0E0,0E0,0E0,0E0,0E0,0E0,0E0,0E0,0E0,0E0,0E0,0E0,0E0],"parents":[2147483647,0,0,1,1,2,2,3,3,4,4,5,5,6,6,7,7,8,8,9,9,10,10,11,11,12,12,13,13,14,14],"right_children":[2,4,6,8,10,12,14,16,18,20,22,24,26,28,30,-1,-1,-1,-1,-1,-1,-1,-1,-1,-1,-1,-1,-1,-1,-1,-1],"split_conditions":[1.7261062E-2,4.802533E4,1.0189439E5,9.309811E0,-1.1534659E-2,-3.3145286E-3,-3.3616796E-2,8.26221E-3,1.004884E-2,-7.841087E-4,-2.2511065E-2,2.1450099E-2,-2.2935779E-3,3.103586E-2,3.3941746E-2,-4.912056E-2,1.751331E-2,1.7330557E-2,-5.9176097E-3,-2.419612E-2,-4.729852E-2,4.7388943E-3,-1.7675253E-2,-4.817174E-2,-2.4920765E-2,1.5270712E-3,-2.1288374E-2,1.0373871E-2,-4.7138512E-2,-4.022644E-2,-2.7996043E-2],"split_indices":[6,7,7,7,1,4,4,6,6,0,2,6,0,6,6,0,0,0,0,0,0,0,0,0,0,0,0,0,0,0,0],"split_type":[0,0,0,0,0,0,0,0,0,0,0,0,0,0,0,0,0,0,0,0,0,0,0,0,0,0,0,0,0,0,0],"sum_hessian":[1.9819021E3,1.382032E3,5.998701E2,7.7424615E2,6.077858E2,2.221836E2,3.776865E2,6.263282E1,7.1161334E2,1.3806956E2,4.6971628E2,8.9964966E1,1.3221863E2,1.5909041E1,3.6177747E2,5.5177044E1,7.4557767E0,3.1189938E2,3.9971396E2,9.785163E1,4.0217934E1,1.15202576E2,3.545137E2,4.940602E1,4.0558945E1,5.9551697E1,7.266694E1,1.0404063E1,5.504978E0,2.9722214E2,6.455533E1],"tree_param":{"num_deleted":"0","num_feature":"8","num_nodes":"31","size_leaf_vector":"1"}},{"base_weights":[-2.6997E-1,-6.1007883E-2,-4.8860538E-1,-9.83303E-1,-2.0133164E-2,-3.4594178E-1,-6.837286E-1,-5.310833E-2,-2.1389043E-1,2.2888502E-1,-1.7791751E-1,-4.1645488E-1,9.794152E-3,-5.434129E-1,-8.65246E-1,-4.100269E-2,2.9582838E-2,1.8759167E-2,-8.655911E-3,-2.0312857E-2,-8.7983266E-4,-1.5758535E-2,-2.84783E-2,3.4121435E-2,-1.6649997E-2,-1.3680582E-2,-3.9624646E-2,3.8370073E-3,-4.489397E-2],"categories":[],"categories_nodes":[],"categories_segments":[],"categories_sizes":[],"default_left":[0,0,0,0,0,0,0,0,0,0,0,0,0,0,0,0,0,0,0,0,0,0,0,0,0,0,0,0,0],"id":16,"left_children":[1,3,5,7,9,11,13,-1,15,17,19,21,23,25,27,-1,-1,-1,-1,-1,-1,-1,-1,-1,-1,-1,-1,-1,-1],"loss_changes":[8.952702E1,3.78084E1,2.6425964E1,2.355465E0,3.783396E1,1.3933342E1,9.806931E0,0E0,3.028792E0,2.2032269E1,2.1567942E1,7.0077744E0,2.163368E1,1.5257759E1,5.4249268E0,0E0,0E0,0E0,0E0,0E0,0E0,0E0,0E0,0E0,0E0,0E0,0E0,0E0,0E0],"parents":[2147483647,0,0,1,1,2,2,3,3,4,4,5,5,6,6,8,8,9,9,10,10,11,11,12,12,13,13,14,14],"right_children":[2,4,6,8,10,12,14,-1,16,18,20,22,24,26,28,-1,-1,-1,-1,-1,-1,-1,-1,-1,-1,-1,-1,-1,-1],"split_conditions":[1.3596318E-2,5.0392444E-3,2.832762E5,1.8576783E3,6.940662E3,6.331169E-2,-2.815116E-3,-5.310833E-2,-2.6513478E-3,5.747784E-3,-1.4347643E-2,-5.6852014E-3,3.5044523E4,1.9099277E-2,1.3838384E-2,-4.100269E-2,2.9582838E-2,1.8759167E-2,-8.655911E-3,-2.0312857E-2,-8.7983266E-4,-1.5758535E-2,-2.84783E-2,3.4121435E-2,-1.6649997E-2,-1.3680582E-2,-3.9624646E-2,3.8370073E-3,-4.489397E-2],"split_indices":[6,6,7,7,7,2,3,0,5,3,5,3,7,6,6,0,0,0,0,0,0,0,0,0,0,0,0,0,0],"split_type":[0,0,0,0,0,0,0,0,0,0,0,0,0,0,0,0,0,0,0,0,0,0,0,0,0,0,0,0,0],"sum_hessian":[1.959247E3,1.00243884E3,9.5680817E2,4.156274E1,9.608761E2,5.5430396E2,4.025042E2,3.735357E1,4.2091684E0,3.7251514E2,5.8836096E2,4.6246466E2,9.183929E1,2.2926935E2,1.7323488E2,2.3915503E0,1.8176179E0,2.7316925E2,9.93459E1,2.4206372E2,3.462972E2,2.8018112E2,1.8228354E2,3.0669147E1,6.1170143E1,1.11064125E2,1.1820523E2,5.7552056E0,1.6747966E2],"tree_param":{"num_deleted":"0","num_feature":"8","num_nodes":"29","size_leaf_vector":"1"}},{"base_weights":[-2.598708E-1,-4.4191472E-2,-4.2973202E-1,-7.5516385E-1,1.0535193E-2,-6.924115E-1,-3.743442E-1,-8.3875096E-1,5.2934803E-2,-6.8995976E-1,6.39285E-2,-5.3779256E-1,-8.237629E-1,-2.7433154E-1,-5.7195926E-1,2.7098695E-2,-4.48492E-2,-5.258596E-2,-1.9798037E-2,6.6353625E-4,3.6330476E-2,-1.4380994E-2,-3.4500808E-2,-4.382321E-2,-7.216518E-3,-1.9168574E-2,2.5722755E-2,-3.018553E-2,2.8291106E-2],"categories":[],"categories_nodes":[],"categories_segments":[],"categories_sizes":[],"default_left":[0,0,0,0,0,0,0,0,0,0,0,0,0,0,0,0,0,0,0,0,0,0,0,0,0,0,0,0,0],"id":17,"left_children":[1,3,5,7,9,11,13,15,-1,17,19,21,23,25,27,-1,-1,-1,-1,-1,-1,-1,-1,-1,-1,-1,-1,-1,-1],"loss_changes":[7.080734E1,3.31925E1,1.5474274E1,1.0132114E1,2.9700008E1,3.357605E0,1.7537025E1,5.2173386E0,0E0,5.565197E0,2.4753576E1,3.1845875E0,3.4291458E0,5.1488377E1,1.1176346E1,0E0,0E0,0E0,0E0,0E0,0E0,0E0,0E0,0E0,0E0,0E0,0E0,0E0,0E0],"parents":[2147483647,0,0,1,1,2,2,3,3,4,4,5,5,6,6,7,7,9,9,10,10,11,11,12,12,13,13,14,14],"right_children":[2,4,6,8,10,12,14,16,-1,18,20,22,24,26,28,-1,-1,-1,-1,-1,-1,-1,-1,-1,-1,-1,-1,-1,-1],"split_conditions":[3.7337043E4,9.309811E0,-6.6066444E-2,4.674385E-2,-1.4622929E-2,-2.0338982E-2,6.000774E-3,-9.764874E-3,5.2934803E-2,-6.58477E-2,6.043081E0,-7.4512795E-2,2.6039188E-3,2.430243E-2,2.561729E-1,2.7098695E-2,-4.48492E-2,-5.258596E-2,-1.9798037E-2,6.6353625E-4,3.6330476E-2,-1.4380994E-2,-3.4500808E-2,-4.382321E-2,-7.216518E-3,-1.9168574E-2,2.5722755E-2,-3.018553E-2,2.8291106E-2],"split_indices":[7,7,5,2,3,1,3,3,0,4,4,2,3,2,4,0,0,0,0,0,0,0,0,0,0,0,0,0,0],"split_type":[0,0,0,0,0,0,0,0,0,0,0,0,0,0,0,0,0,0,0,0,0,0,0,0,0,0,0,0,0],"sum_hessian":[1.9322677E3,8.518725E2,1.0803951E3,5.9970955E1,7.9190155E2,1.8613582E2,8.942594E2,5.7843E1,2.1279597E0,5.5241177E1,7.3666034E2,8.78355E1,9.830032E1,5.953446E2,2.9891476E2,2.0046659E0,5.583833E1,2.3611032E1,3.1630144E1,6.85294E2,5.1366367E1,3.43206E1,5.3514904E1,9.095524E1,7.3450813E0,5.2349225E2,7.1852325E1,2.9125626E2,7.658513E0],"tree_param":{"num_deleted":"0","num_feature":"8","num_nodes":"29","size_leaf_vector":"1"}},{"base_weights":[-2.4762079E-1,-1.0840072E-1,-5.644098E-1,-4.0910444E-1,-2.524715E-2,-3.7354982E-1,-6.817869E-1,-7.8283764E-2,-5.944223E-1,-9.993185E-1,7.420943E-3,-7.2690314E-1,-1.7969233E-1,-4.8254666E-1,-7.797408E-1,-3.5335798E-2,8.654964E-3,-3.8252678E-2,-1.1280063E-2,-5.2314173E-2,-1.6712097E-2,6.756705E-3,-1.4358896E-2,-4.9373005E-2,-1.7409801E-2,9.70295E-3,-1.6673958E-2,1.6154379E-2,-3.3693664E-2,-4.2996194E-2,-2.0704417E-2],"categories":[],"categories_nodes":[],"categories_segments":[],"categories_sizes":[],"default_left":[0,0,0,0,0,0,0,0,0,0,0,0,0,0,0,0,0,0,0,0,0,0,0,0,0,0,0,0,0,0,0],"id":18,"left_children":[1,3,5,7,9,11,13,15,17,19,21,23,25,27,29,-1,-1,-1,-1,-1,-1,-1,-1,-1,-1,-1,-1,-1,-1,-1,-1],"loss_changes":[8.477328E1,3.3433697E1,1.2896057E1,1.7712582E1,3.3382626E1,1.5333288E1,6.693939E0,1.6734997E1,1.1502403E1,7.135887E-1,3.8257385E1,7.5153046E0,8.519905E0,1.9026762E1,6.7169647E0,0E0,0E0,0E0,0E0,0E0,0E0,0E0,0E0,0E0,0E0,0E0,0E0,0E0,0E0,0E0,0E0],"parents":[2147483647,0,0,1,1,2,2,3,3,4,4,5,5,6,6,7,7,8,8,9,9,10,10,11,11,12,12,13,13,14,14],"right_children":[2,4,6,8,10,12,14,16,18,20,22,24,26,28,30,-1,-1,-1,-1,-1,-1,-1,-1,-1,-1,-1,-1,-1,-1,-1,-1],"split_conditions":[1.6855087E-2,-9.623918E-3,1.0189439E5,-3.605284E-2,4.7230944E-3,-5.739713E-3,-1.2196347E-2,-1.4401934E-2,1.8818163E-3,1.8576783E3,5.877097E-3,3.620878E4,1.4914688E4,1.9099277E-2,3.3941746E-2,-3.5335798E-2,8.654964E-3,-3.8252678E-2,-1.1280063E-2,-5.2314173E-2,-1.6712097E-2,6.756705E-3,-1.4358896E-2,-4.9373005E-2,-1.7409801E-2,9.70295E-3,-1.6673958E-2,1.6154379E-2,-3.3693664E-2,-4.2996194E-2,-2.0704417E-2],"split_indices":[6,1,7,2,6,4,3,3,4,7,3,7,7,6,6,0,0,0,0,0,0,0,0,0,0,0,0,0,0,0,0],"split_type":[0,0,0,0,0,0,0,0,0,0,0,0,0,0,0,0,0,0,0,0,0,0,0,0,0,0,0,0,0,0,0],"sum_hessian":[1.9225356E3,1.3365157E3,5.860198E2,2.8867526E2,1.0478406E3,2.2474983E2,3.6126996E2,1.0415863E2,1.8451663E2,3.3041622E1,1.0147989E3,7.864682E1,1.4610301E2,1.2102626E2,2.402437E2,2.9242937E1,7.4915695E1,1.2541866E2,5.909797E1,3.032688E1,2.7147415E0,7.082869E2,3.06512E2,4.563898E1,3.300784E1,4.25153E1,1.03587715E2,2.309397E1,9.793229E1,1.9592749E2,4.4316216E1],"tree_param":{"num_deleted":"0","num_feature":"8","num_nodes":"31","size_leaf_vector":"1"}},{"base_weights":[-2.3535366E-1,3.9586976E-2,-4.1124278E-1,-8.0233836E-1,1.07744E-1,-2.3601042E-1,-5.589642E-1,-9.525633E-1,3.6113095E-1,4.0311813E-1,-5.4575223E-2,-3.1245935E-1,2.096365E-1,-4.2298684E-1,-7.358064E-1,-5.2756526E-2,-1.4025438E-2,4.2734455E-2,-1.0209408E-2,4.8238434E-2,1.4082919E-2,3.96109E-3,-2.027205E-2,-1.2566141E-2,-4.8490394E-2,1.965236E-2,-5.497969E-2,-1.0719896E-2,-2.9381672E-2,-2.100546E-2,-3.86708E-2],"categories":[],"categories_nodes":[],"categories_segments":[],"categories_sizes":[],"default_left":[0,0,0,0,0,0,0,0,0,0,0,0,0,0,0,0,0,0,0,0,0,0,0,0,0,0,0,0,0,0,0],"id":19,"left_children":[1,3,5,7,9,11,13,15,17,19,21,23,25,27,29,-1,-1,-1,-1,-1,-1,-1,-1,-1,-1,-1,-1,-1,-1,-1,-1],"loss_changes":[9.1747444E1,4.260559E1,2.9815262E1,1.0063698E1,3.2929417E1,1.8153133E1,1.47659E1,3.1178932E0,2.1511686E0,1.6341648E1,2.0867401E1,1.798436E1,1.9243195E1,1.2127922E1,2.8950195E0,0E0,0E0,0E0,0E0,0E0,0E0,0E0,0E0,0E0,0E0,0E0,0E0,0E0,0E0,0E0,0E0],"parents":[2147483647,0,0,1,1,2,2,3,3,4,4,5,5,6,6,7,7,8,8,9,9,10,10,11,11,12,12,13,13,14,14],"right_children":[2,4,6,8,10,12,14,16,18,20,22,24,26,28,30,-1,-1,-1,-1,-1,-1,-1,-1,-1,-1,-1,-1,-1,-1,-1,-1],"split_conditions":[1.1778786E-2,9.309811E0,1.0189439E5,8.26221E-3,4.290166E3,1.3501454E-2,1.9347882E-2,3.7516141E-3,-4.37397E-3,-1.7806295E-2,6.2646517E-3,2.0688817E-2,6.9336313E-1,-2.4657534E-2,-9.943066E-2,-5.2756526E-2,-1.4025438E-2,4.2734455E-2,-1.0209408E-2,4.8238434E-2,1.4082919E-2,3.96109E-3,-2.027205E-2,-1.2566141E-2,-4.8490394E-2,1.965236E-2,-5.497969E-2,-1.0719896E-2,-2.9381672E-2,-2.100546E-2,-3.86708E-2],"split_indices":[6,7,7,6,7,3,6,3,2,2,3,4,4,2,2,0,0,0,0,0,0,0,0,0,0,0,0,0,0,0,0],"split_type":[0,0,0,0,0,0,0,0,0,0,0,0,0,0,0,0,0,0,0,0,0,0,0,0,0,0,0,0,0,0,0],"sum_hessian":[1.895876E3,7.399694E2,1.1559065E3,5.461037E1,6.853591E2,5.299082E2,6.259982E2,4.852605E1,6.084319E0,2.425339E2,4.428252E2,4.5257047E2,7.733777E1,3.5580493E2,2.701933E2,4.1606216E1,6.9198346E0,2.975049E0,3.1092699E0,4.188899E1,2.0064491E2,3.2113843E2,1.2168677E2,4.1532556E2,3.7244915E1,6.844856E1,8.889205E0,1.5797293E2,1.97832E2,3.0057688E1,2.4013562E2],"tree_param":{"num_deleted":"0","num_feature":"8","num_nodes":"31","size_leaf_vector":"1"}},{"base_weights":[-2.3215777E-1,-1.0028918E-1,-5.210179E-1,2.052491E-2,-2.8062722E-1,-4.1033816E-1,-6.643516E-1,-5.0968286E-2,6.58151E-2,6.8913966E-1,-3.1289536E-1,-5.380628E-1,-1.4617334E-1,-3.7819898E-1,-7.912187E-1,9.79979E-4,3.3199042E-2,-4.6269134E-2,6.1942484E-2,-9.66316E-3,-2.4792327E-2,-4.8853517E-2,-2.3298841E-2,-7.513713E-4,-3.823565E-2,1.8384581E-2,-3.313236E-2,-4.235683E-2,-2.4588129E-2],"categories":[],"categories_nodes":[],"categories_segments":[],"categories_sizes":[],"default_left":[0,0,0,0,0,0,0,0,0,0,0,0,0,0,0,0,0,0,0,0,0,0,0,0,0,0,0,0,0],"id":20,"left_children":[1,3,5,7,9,11,13,-1,15,17,19,21,23,25,27,-1,-1,-1,-1,-1,-1,-1,-1,-1,-1,-1,-1,-1,-1],"loss_changes":[7.1626144E1,2.8180872E1,9.080139E0,3.65825E1,1.645206E1,1.1234009E1,8.967812E0,0E0,2.0551956E1,1.6252754E1,1.090971E1,6.685272E0,8.964272E0,1.7286192E1,2.529541E0,0E0,0E0,0E0,0E0,0E0,0E0,0E0,0E0,0E0,0E0,0E0,0E0,0E0,0E0],"parents":[2147483647,0,0,1,1,2,2,3,3,4,4,5,5,6,6,8,8,9,9,10,10,11,11,12,12,13,13,14,14],"right_children":[2,4,6,8,10,12,14,-1,16,18,20,22,24,26,28,-1,-1,-1,-1,-1,-1,-1,-1,-1,-1,-1,-1,-1,-1],"split_conditions":[1.6501537E-2,5.6578984E4,2.832762E5,4.7230944E-3,7.2403806E-3,1.6785221E-2,-1.3573483E-2,-5.0968286E-2,1.2656946E-2,1.1981414E-2,2.963284E-3,-6.58477E-2,5.9787743E-2,2.0108372E-2,3.3941746E-2,9.79979E-4,3.3199042E-2,-4.6269134E-2,6.1942484E-2,-9.66316E-3,-2.4792327E-2,-4.8853517E-2,-2.3298841E-2,-7.513713E-4,-3.823565E-2,1.8384581E-2,-3.313236E-2,-4.235683E-2,-2.4588129E-2],"split_indices":[6,7,7,6,6,2,3,0,3,2,3,4,6,6,6,0,0,0,0,0,0,0,0,0,0,0,0,0,0],"split_type":[0,0,0,0,0,0,0,0,0,0,0,0,0,0,0,0,0,0,0,0,0,0,0,0,0,0,0,0,0],"sum_hessian":[1.8807383E3,1.2921853E3,5.885529E2,7.743262E2,5.1785913E2,3.3428592E2,2.5426701E2,3.1419006E1,7.4290717E2,1.6020868E1,5.0183823E2,2.246365E2,1.09649414E2,7.9325966E1,1.7494104E2,6.90584E2,5.2323174E1,3.895681E0,1.2125188E1,3.0467017E2,1.9716808E2,2.9912659E1,1.9472385E2,9.131306E1,1.833636E1,2.1818928E1,5.7507042E1,1.4587303E2,2.9068008E1],"tree_param":{"num_deleted":"0","num_feature":"8","num_nodes":"29","size_leaf_vector":"1"}},{"base_weights":[-2.1669781E-1,8.446643E-3,-3.881446E-1,-7.4924594E-1,6.21088E-2,-1.9848068E-1,-5.1951283E-1,-9.494096E-1,2.3758388E-1,-1.252335E-1,2.555485E-1,-2.6946846E-1,4.1008756E-1,-4.0154994E-1,-6.665535E-1,-5.2115243E-2,-1.753767E-2,-3.4195315E-2,2.4108512E-2,1.0130207E-2,-1.8381128E-2,2.7729422E-2,-1.4336755E-2,-9.4062155E-3,-5.199265E-2,5.1203586E-2,-2.187335E-2,-9.860224E-3,-2.8272584E-2,-4.1277863E-2,-2.6877677E-2],"categories":[],"categories_nodes":[],"categories_segments":[],"categories_sizes":[],"default_left":[0,0,0,0,0,0,0,0,0,0,0,0,0,0,0,0,0,0,0,0,0,0,0,0,0,0,0,0,0,0,0],"id":21,"left_children":[1,3,5,7,9,11,13,15,17,19,21,23,25,27,29,-1,-1,-1,-1,-1,-1,-1,-1,-1,-1,-1,-1,-1,-1,-1,-1],"loss_changes":[7.185207E1,3.280354E1,2.6225677E1,1.0765825E1,2.7330547E1,1.8860987E1,1.0550278E1,2.1126518E0,2.5381048E0,3.0536594E1,6.0312164E1,2.4199974E1,2.4248413E1,1.1563065E1,5.219589E0,0E0,0E0,0E0,0E0,0E0,0E0,0E0,0E0,0E0,0E0,0E0,0E0,0E0,0E0,0E0,0E0],"parents":[2147483647,0,0,1,1,2,2,3,3,4,4,5,5,6,6,7,7,8,8,9,9,10,10,11,11,12,12,13,13,14,14],"right_children":[2,4,6,8,10,12,14,16,18,20,22,24,26,28,30,-1,-1,-1,-1,-1,-1,-1,-1,-1,-1,-1,-1,-1,-1,-1,-1],"split_conditions":[1.2234712E-2,9.309811E0,7.924837E4,7.7972505E-3,-7.6865694E-3,1.8831123E-2,1.9347882E-2,3.7516141E-3,-2.5891886E1,-1.2048192E-2,6.3819513E-3,2.866426E-2,3.521416E-2,-2.4657534E-2,2.4301086E-2,-5.2115243E-2,-1.753767E-2,-3.4195315E-2,2.4108512E-2,1.0130207E-2,-1.8381128E-2,2.7729422E-2,-1.4336755E-2,-9.4062155E-3,-5.199265E-2,5.1203586E-2,-2.187335E-2,-9.860224E-3,-2.8272584E-2,-4.1277863E-2,-2.6877677E-2],"split_indices":[6,7,7,6,5,3,6,3,4,2,3,4,6,2,6,0,0,0,0,0,0,0,0,0,0,0,0,0,0,0,0],"split_type":[0,0,0,0,0,0,0,0,0,0,0,0,0,0,0,0,0,0,0,0,0,0,0,0,0,0,0,0,0,0,0],"sum_hessian":[1.8603535E3,8.0464374E2,1.0557097E3,5.2360985E1,7.522827E2,4.3302994E2,6.226798E2,4.3562836E1,8.798151E0,3.8234357E2,3.6993915E2,3.882938E2,4.473616E1,3.4757214E2,2.7510767E2,3.7069565E1,6.49327E0,1.4686754E0,7.329476E0,1.6259442E2,2.1974915E2,2.384334E2,1.3150577E2,3.5233524E2,3.5958538E1,2.5821978E1,1.8914185E1,1.5568016E2,1.91892E2,1.20805084E2,1.5430258E2],"tree_param":{"num_deleted":"0","num_feature":"8","num_nodes":"31","size_leaf_vector":"1"}},{"base_weights":[-2.1385448E-1,-2.2863138E-2,-3.7277287E-1,-7.528753E-1,2.010495E-2,-4.5307457E-1,-1.9390619E-1,-8.631527E-1,5.6401905E-2,-8.244327E-2,3.3122262E-1,-3.2094103E-1,-5.942371E-1,8.1817485E-2,-4.925059E-1,2.0258047E-2,-4.6998125E-2,-5.4709646E-3,4.644176E-2,3.282263E-2,-3.3058159E-3,-3.2356948E-2,-5.700098E-3,-3.6843088E-2,-1.870415E-2,-1.1290704E-2,2.0658633E-2,4.0174652E-2,-2.6929304E-2],"categories":[],"categories_nodes":[],"categories_segments":[],"categories_sizes":[],"default_left":[0,0,0,0,0,0,0,0,0,0,0,0,0,0,0,0,0,0,0,0,0,0,0,0,0,0,0,0,0],"id":22,"left_children":[1,3,5,7,9,11,13,15,-1,17,19,21,23,25,27,-1,-1,-1,-1,-1,-1,-1,-1,-1,-1,-1,-1,-1,-1],"loss_changes":[5.614501E1,2.6404802E1,1.4415649E1,1.0679487E1,2.5408047E1,1.2794006E1,2.594299E1,4.7420387E0,0E0,1.6445538E1,2.5553984E1,2.4345222E1,1.0255676E1,1.6854681E1,9.461494E0,0E0,0E0,0E0,0E0,0E0,0E0,0E0,0E0,0E0,0E0,0E0,0E0,0E0,0E0],"parents":[2147483647,0,0,1,1,2,2,3,3,4,4,5,5,6,6,7,7,9,9,10,10,11,11,12,12,13,13,14,14],"right_children":[2,4,6,8,10,12,14,16,-1,18,20,22,24,26,28,-1,-1,-1,-1,-1,-1,-1,-1,-1,-1,-1,-1,-1,-1],"split_conditions":[3.7337043E4,5.9939156E0,-9.953872E-3,4.674385E-2,-3.9620786E-3,-6.5765367E-3,6.000774E-3,-9.764874E-3,5.6401905E-2,1.9486418E1,1.1576398E-1,-6.6066444E-2,2.1468543E-2,4.0799743E-4,1.0070553E-7,2.0258047E-2,-4.6998125E-2,-5.4709646E-3,4.644176E-2,3.282263E-2,-3.3058159E-3,-3.2356948E-2,-5.700098E-3,-3.6843088E-2,-1.870415E-2,-1.1290704E-2,2.0658633E-2,4.0174652E-2,-2.6929304E-2],"split_indices":[7,7,5,2,5,3,3,3,0,4,4,5,2,4,4,0,0,0,0,0,0,0,0,0,0,0,0,0,0],"split_type":[0,0,0,0,0,0,0,0,0,0,0,0,0,0,0,0,0,0,0,0,0,0,0,0,0,0,0,0,0],"sum_hessian":[1.8490748E3,8.403133E2,1.0087616E3,4.5792564E1,7.945207E2,6.9514514E2,3.136165E2,4.3767582E1,2.0249803E0,5.9811096E2,1.9640974E2,3.6074625E2,3.3439886E2,1.6343158E2,1.5018489E2,2.2551281E0,4.1512455E1,5.8343945E2,1.4671538E1,1.07646645E2,8.876309E1,1.3919928E2,2.2154697E2,2.0150732E2,1.3289153E2,8.491481E1,7.851677E1,4.5922275E0,1.4559267E2],"tree_param":{"num_deleted":"0","num_feature":"8","num_nodes":"29","size_leaf_vector":"1"}},{"base_weights":[-2.0744343E-1,-8.482777E-2,-5.276481E-1,1.0357134E-1,-1.8732247E-1,-3.6756158E-1,-6.296109E-1,-2.848407E-1,4.16998E-1,6.2040864E-3,-3.8528252E-1,-6.275643E-1,-1.06145486E-1,-3.9314172E-1,-7.4714434E-1,-3.160013E-2,7.943168E-4,4.500925E-2,3.171647E-3,-3.4105763E-2,6.266842E-3,-2.145687E-2,2.2101713E-2,-9.379144E-3,-4.0942725E-2,7.936386E-2,-9.143005E-3,2.4772277E-2,-2.8913543E-2,-4.1702766E-2,-1.907872E-2],"categories":[],"categories_nodes":[],"categories_segments":[],"categories_sizes":[],"default_left":[0,0,0,0,0,0,0,0,0,0,0,0,0,0,0,0,0,0,0,0,0,0,0,0,0,0,0,0,0,0,0],"id":23,"left_children":[1,3,5,7,9,11,13,15,17,19,21,23,25,27,29,-1,-1,-1,-1,-1,-1,-1,-1,-1,-1,-1,-1,-1,-1,-1,-1],"loss_changes":[7.1845505E1,2.5609241E1,8.041275E0,5.7040936E1,3.2897392E1,1.3500242E1,8.272446E0,2.187204E1,4.4219406E1,3.5769775E1,1.5590431E1,8.251778E0,1.3376759E1,1.7467432E1,6.187752E0,0E0,0E0,0E0,0E0,0E0,0E0,0E0,0E0,0E0,0E0,0E0,0E0,0E0,0E0,0E0,0E0],"parents":[2147483647,0,0,1,1,2,2,3,3,4,4,5,5,6,6,7,7,8,8,9,9,10,10,11,11,12,12,13,13,14,14],"right_children":[2,4,6,8,10,12,14,16,18,20,22,24,26,28,30,-1,-1,-1,-1,-1,-1,-1,-1,-1,-1,-1,-1,-1,-1,-1,-1],"split_conditions":[1.7261062E-2,9.910586E-3,1.0189439E5,1.3033333E-2,-9.749004E-3,-9.419074E-4,-1.2196347E-2,7.998281E-3,5.153868E-3,-6.518534E-2,1.9534579E-2,-6.7395404E-2,-6.1774626E-4,1.9099277E-2,3.3941746E-2,-3.160013E-2,7.943168E-4,4.500925E-2,3.171647E-3,-3.4105763E-2,6.266842E-3,-2.145687E-2,2.2101713E-2,-9.379144E-3,-4.0942725E-2,7.936386E-2,-9.143005E-3,2.4772277E-2,-2.8913543E-2,-4.1702766E-2,-1.907872E-2],"split_indices":[6,6,7,2,2,4,3,6,3,5,3,2,4,6,6,0,0,0,0,0,0,0,0,0,0,0,0,0,0,0,0],"split_type":[0,0,0,0,0,0,0,0,0,0,0,0,0,0,0,0,0,0,0,0,0,0,0,0,0,0,0,0,0,0,0],"sum_hessian":[1.8300347E3,1.324218E3,5.058166E2,4.665766E2,8.576414E2,1.9860387E2,3.0721274E2,2.0840419E2,2.581724E2,4.3416684E2,4.2347458E2,9.886888E1,9.9734985E1,1.0344118E2,2.0377156E2,9.622251E1,1.1218168E2,1.0843607E2,1.4973631E2,6.3360424E1,3.708064E2,4.026139E2,2.0860693E1,3.0559772E1,6.8309105E1,3.468979E0,9.626601E1,1.7546217E1,8.589496E1,1.6359645E2,4.0175106E1],"tree_param":{"num_deleted":"0","num_feature":"8","num_nodes":"31","size_leaf_vector":"1"}},{"base_weights":[-1.870318E-1,-8.225469E-2,-4.9482033E-1,-1.0033092E0,-6.2181335E-2,-5.177152E-2,-4.7169688E-1,-5.1571917E-2,-2.0527987E-2,1.4386103E-1,-1.7270103E-1,-6.0499555E-1,-4.0511236E-1,-6.5442026E-3,2.0648919E-2,1.8794827E-4,-1.8200157E-2,3.9054714E-2,-3.2662682E-2,-1.7782005E-2,-3.9651897E-2],"categories":[],"categories_nodes":[],"categories_segments":[],"categories_sizes":[],"default_left":[0,0,0,0,0,0,0,0,0,0,0,0,0,0,0,0,0,0,0,0,0],"id":24,"left_children":[1,3,5,7,9,-1,11,-1,-1,13,15,17,19,-1,-1,-1,-1,-1,-1,-1,-1],"loss_changes":[5.8513603E1,2.500385E1,5.273445E0,5.757904E-2,3.026371E1,0E0,3.6943588E0,0E0,0E0,3.437288E1,2.9193192E1,1.026466E1,5.456684E0,0E0,0E0,0E0,0E0,0E0,0E0,0E0,0E0],"parents":[2147483647,0,0,1,1,2,2,3,3,4,4,6,6,9,9,10,10,11,11,12,12],"right_children":[2,4,6,8,10,-1,12,-1,-1,14,16,18,20,-1,-1,-1,-1,-1,-1,-1,-1],"split_conditions":[1.787412E-2,4.7230944E-3,-7.72612E-2,7.845685E-3,1.004884E-2,-5.177152E-2,2.1450099E-2,-5.1571917E-2,-2.0527987E-2,1.734623E-2,-9.749004E-3,-9.943066E-2,-1.9957842E-3,-6.5442026E-3,2.0648919E-2,1.8794827E-4,-1.8200157E-2,3.9054714E-2,-3.2662682E-2,-1.7782005E-2,-3.9651897E-2],"split_indices":[6,6,4,1,6,0,6,0,0,2,2,2,5,0,0,0,0,0,0,0,0],"split_type":[0,0,0,0,0,0,0,0,0,0,0,0,0,0,0,0,0,0,0,0,0],"sum_hessian":[1.8146831E3,1.354763E3,4.5992004E2,2.7851055E1,1.326912E3,1.7069462E1,4.428506E2,2.5882694E1,1.9683613E0,4.6315265E2,8.637593E2,1.448275E2,2.980231E2,2.2943422E2,2.3371844E2,4.4981934E2,4.1393994E2,4.3617463E0,1.4046574E2,2.660149E2,3.2008205E1],"tree_param":{"num_deleted":"0","num_feature":"8","num_nodes":"21","size_leaf_vector":"1"}},{"base_weights":[-1.8609579E-1,-7.775207E-2,-4.8855072E-1,-4.3855572E-1,-1.1254184E-2,-3.1159133E-1,-6.0525435E-1,-6.811928E-2,-6.844964E-1,2.2969568E-1,-1.1296115E-1,-5.139735E-1,-3.6192838E-2,-3.8854992E-1,-7.0173365E-1,-2.1998506E-2,1.4761843E-2,-3.345475E-3,-3.710009E-2,-1.7911518E-2,2.116421E-2,-2.2534544E-2,3.6629296E-3,1.8855456E-2,-2.8343841E-2,4.254021E-2,-7.3140785E-3,1.4999896E-2,-2.8737757E-2,-3.9337005E-2,-1.699852E-2],"categories":[],"categories_nodes":[],"categories_segments":[],"categories_sizes":[],"default_left":[0,0,0,0,0,0,0,0,0,0,0,0,0,0,0,0,0,0,0,0,0,0,0,0,0,0,0,0,0,0,0],"id":25,"left_children":[1,3,5,7,9,11,13,15,17,19,21,23,25,27,29,-1,-1,-1,-1,-1,-1,-1,-1,-1,-1,-1,-1,-1,-1,-1,-1],"loss_changes":[5.9002365E1,3.1850538E1,9.62085E0,1.8775448E1,2.752493E1,1.0617226E1,5.68943E0,1.1417973E1,4.3560104E0,3.8097324E1,4.9700287E1,5.3954735E0,8.122576E0,1.1722812E1,5.7623444E0,0E0,0E0,0E0,0E0,0E0,0E0,0E0,0E0,0E0,0E0,0E0,0E0,0E0,0E0,0E0,0E0],"parents":[2147483647,0,0,1,1,2,2,3,3,4,4,5,5,6,6,7,7,8,8,9,9,10,10,11,11,12,12,13,13,14,14],"right_children":[2,4,6,8,10,12,14,16,18,20,22,24,26,28,30,-1,-1,-1,-1,-1,-1,-1,-1,-1,-1,-1,-1,-1,-1,-1,-1],"split_conditions":[1.7465629E-2,-1.3795997E-2,1.0189439E5,-3.605284E-2,-1.4534884E-2,-2.152959E-4,-1.3422206E-2,-5.341637E-2,1.6401396E2,-1.2798894E-2,1.3534618E-2,-4.8975468E-2,2.2560335E-3,2.0108372E-2,3.3941746E-2,-2.1998506E-2,1.4761843E-2,-3.345475E-3,-3.710009E-2,-1.7911518E-2,2.116421E-2,-2.2534544E-2,3.6629296E-3,1.8855456E-2,-2.8343841E-2,4.254021E-2,-7.3140785E-3,1.4999896E-2,-2.8737757E-2,-3.9337005E-2,-1.699852E-2],"split_indices":[6,1,7,2,2,3,3,2,7,3,2,1,3,6,6,0,0,0,0,0,0,0,0,0,0,0,0,0,0,0,0],"split_type":[0,0,0,0,0,0,0,0,0,0,0,0,0,0,0,0,0,0,0,0,0,0,0,0,0,0,0,0,0,0,0],"sum_hessian":[1.8007083E3,1.3267164E3,4.7399182E2,2.0559668E2,1.1211198E3,1.8982596E2,2.8416586E2,8.254467E1,1.2305202E2,3.323958E2,7.887239E2,1.0891861E2,8.090735E1,8.9088745E1,1.9507713E2,4.069126E1,4.185341E1,1.0666061E1,1.12385956E2,8.212691E1,2.5026892E2,2.7981992E2,5.0890396E2,5.7606287E0,1.0315798E2,8.19014E0,7.271721E1,1.8833881E1,7.025486E1,1.5700877E2,3.806836E1],"tree_param":{"num_deleted":"0","num_feature":"8","num_nodes":"31","size_leaf_vector":"1"}},{"base_weights":[-1.8379676E-1,-7.908454E-2,-4.7025535E-1,-4.1621822E-1,-1.903022E-2,-8.723493E-2,-5.037937E-1,-1.1390133E-1,-6.262075E-1,-9.61964E-1,4.70964E-3,1.0725913E-1,-8.528164E-1,-5.1914133E-2,-4.7592497E-1,-2.7556185E-2,1.4168701E-2,-4.3281984E-2,-1.8976826E-2,-5.0867375E-2,-2.535733E-2,4.84227E-3,-1.1571134E-2,-2.7847564E-2,1.8321937E-2,-4.7596864E-2,-5.4453877E-3,3.243093E-2,-2.4366658E-2],"categories":[],"categories_nodes":[],"categories_segments":[],"categories_sizes":[],"default_left":[0,0,0,0,0,0,0,0,0,0,0,0,0,0,0,0,0,0,0,0,0,0,0,0,0,0,0,0,0],"id":26,"left_children":[1,3,5,7,9,11,13,15,17,19,21,23,25,-1,27,-1,-1,-1,-1,-1,-1,-1,-1,-1,-1,-1,-1,-1,-1],"loss_changes":[5.356409E1,2.6511032E1,6.098282E0,1.2498016E1,2.4915155E1,6.00382E0,6.0515823E0,1.4465093E1,6.5589256E0,1.725769E-1,2.3660275E1,5.807737E0,4.9769163E-1,0E0,5.6980057E0,0E0,0E0,0E0,0E0,0E0,0E0,0E0,0E0,0E0,0E0,0E0,0E0,0E0,0E0],"parents":[2147483647,0,0,1,1,2,2,3,3,4,4,5,5,6,6,7,7,8,8,9,9,10,10,11,11,12,12,14,14],"right_children":[2,4,6,8,10,12,14,16,18,20,22,24,26,-1,28,-1,-1,-1,-1,-1,-1,-1,-1,-1,-1,-1,-1,-1,-1],"split_conditions":[1.7261062E-2,-1.3795997E-2,-4.6585333E-2,-3.605284E-2,4.7230944E-3,7.064255E-2,-6.58477E-2,-5.341637E-2,-1.0173969E-3,3.1866322E-3,6.000774E-3,-1.845223E-2,-1.0582822E-1,-5.1914133E-2,-4.78504E-2,-2.7556185E-2,1.4168701E-2,-4.3281984E-2,-1.8976826E-2,-5.0867375E-2,-2.535733E-2,4.84227E-3,-1.1571134E-2,-2.7847564E-2,1.8321937E-2,-4.7596864E-2,-5.4453877E-3,3.243093E-2,-2.4366658E-2],"split_indices":[6,1,1,2,6,6,4,2,3,3,3,3,5,0,3,0,0,0,0,0,0,0,0,0,0,0,0,0,0],"split_type":[0,0,0,0,0,0,0,0,0,0,0,0,0,0,0,0,0,0,0,0,0,0,0,0,0,0,0,0,0],"sum_hessian":[1.7859642E3,1.3088152E3,4.7714896E2,1.9699446E2,1.1118208E3,3.8706554E1,4.384424E2,8.137831E1,1.1561615E2,2.6333858E1,1.0854869E3,3.1551E1,7.155554E0,1.993112E1,4.185113E2,3.8557026E1,4.2821285E1,5.7395584E1,5.8220566E1,2.2372694E1,3.9611638E0,7.8124506E2,3.042418E2,8.533343E0,2.3017656E1,6.0674624E0,1.0880916E0,3.6420965E0,4.148692E2],"tree_param":{"num_deleted":"0","num_feature":"8","num_nodes":"29","size_leaf_vector":"1"}},{"base_weights":[-1.679015E-1,-6.397934E-2,-4.1937795E-1,-4.045908E-1,-6.587732E-3,-2.94482E-1,-5.9059346E-1,-5.5398215E-2,-6.343533E-1,2.2769473E-1,-1.0870022E-1,-9.349139E-1,-2.3333141E-1,-3.485307E-1,-7.2450036E-1,1.6510209E-2,-2.7274167E-2,-3.4860384E-2,1.672508E-2,-1.9250495E-2,2.044261E-2,-2.1932784E-2,2.427449E-3,1.8538332E-2,-5.039668E-2,8.656365E-3,-1.4218979E-2,1.4754702E-2,-3.1368326E-2,-4.068051E-2,-1.4771241E-2],"categories":[],"categories_nodes":[],"categories_segments":[],"categories_sizes":[],"default_left":[0,0,0,0,0,0,0,0,0,0,0,0,0,0,0,0,0,0,0,0,0,0,0,0,0,0,0,0,0,0,0],"id":27,"left_children":[1,3,5,7,9,11,13,15,17,19,21,23,25,27,29,-1,-1,-1,-1,-1,-1,-1,-1,-1,-1,-1,-1,-1,-1,-1,-1],"loss_changes":[4.646803E1,2.462911E1,1.09468155E1,1.4541409E1,2.5846685E1,1.1636108E1,6.8251877E0,1.40127945E1,6.9004555E0,3.656023E1,3.905997E1,2.8573532E0,5.810007E0,1.4487996E1,5.0994034E0,0E0,0E0,0E0,0E0,0E0,0E0,0E0,0E0,0E0,0E0,0E0,0E0,0E0,0E0,0E0,0E0],"parents":[2147483647,0,0,1,1,2,2,3,3,4,4,5,5,6,6,7,7,8,8,9,9,10,10,11,11,12,12,13,13,14,14],"right_children":[2,4,6,8,10,12,14,16,18,20,22,24,26,28,30,-1,-1,-1,-1,-1,-1,-1,-1,-1,-1,-1,-1,-1,-1,-1,-1],"split_conditions":[1.6501537E-2,-1.3795997E-2,2.832762E5,-3.605284E-2,-1.3592009E-2,-6.58477E-2,-1.2196347E-2,1.1803415E5,4.9511898E-1,-1.2651857E-2,1.1981414E-2,-4.4266682E-2,1.7465629E-2,2.0108372E-2,3.3941746E-2,1.6510209E-2,-2.7274167E-2,-3.4860384E-2,1.672508E-2,-1.9250495E-2,2.044261E-2,-2.1932784E-2,2.427449E-3,1.8538332E-2,-5.039668E-2,8.656365E-3,-1.4218979E-2,1.4754702E-2,-3.1368326E-2,-4.068051E-2,-1.4771241E-2],"split_indices":[6,1,7,2,2,4,3,7,4,3,2,1,6,6,6,0,0,0,0,0,0,0,0,0,0,0,0,0,0,0,0],"split_type":[0,0,0,0,0,0,0,0,0,0,0,0,0,0,0,0,0,0,0,0,0,0,0,0,0,0,0,0,0,0,0],"sum_hessian":[1.7780968E3,1.2590509E3,5.1904596E2,1.8068144E2,1.0783695E3,3.016918E2,2.1735413E2,7.219727E1,1.0848416E2,3.269651E2,7.5140436E2,2.5050318E1,2.7664148E2,7.869694E1,1.386572E2,4.058833E1,3.1608948E1,1.0213832E2,6.3458424E0,7.435588E1,2.5260922E2,2.4194417E2,5.094602E2,1.110771E0,2.3939547E1,3.0600542E1,2.4604094E2,2.3770412E1,5.4926525E1,1.1407092E2,2.4586271E1],"tree_param":{"num_deleted":"0","num_feature":"8","num_nodes":"31","size_leaf_vector":"1"}},{"base_weights":[-1.7852795E-1,6.3619666E-2,-2.9739085E-1,-7.244771E-1,1.313949E-1,-1.992182E-1,-4.7301632E-1,-9.0460515E-1,6.115394E-1,4.1064066E-1,-3.767008E-2,-1.678393E-1,-9.995356E-1,-3.2873157E-1,-5.633734E-1,-5.1339097E-2,-9.244797E-3,4.2266324E-2,-9.8634465E-3,-2.3435492E-2,2.4304967E-2,4.0911343E-3,-1.8989878E-2,-9.881268E-3,5.74173E-2,-3.1020166E-3,-5.6765497E-2,-3.3268206E-2,-8.113671E-3,-3.0941132E-2,-1.4670069E-2],"categories":[],"categories_nodes":[],"categories_segments":[],"categories_sizes":[],"default_left":[0,0,0,0,0,0,0,0,0,0,0,0,0,0,0,0,0,0,0,0,0,0,0,0,0,0,0,0,0,0,0],"id":28,"left_children":[1,3,5,7,9,11,13,15,17,19,21,23,25,27,29,-1,-1,-1,-1,-1,-1,-1,-1,-1,-1,-1,-1,-1,-1,-1,-1],"loss_changes":[5.0508537E1,3.0989008E1,2.0195618E1,1.1612553E1,2.5199295E1,1.8832115E1,5.306343E0,3.4064636E0,1.311965E0,1.3581745E1,1.3652232E1,2.881567E1,3.5372562E0,9.115847E0,3.674858E0,0E0,0E0,0E0,0E0,0E0,0E0,0E0,0E0,0E0,0E0,0E0,0E0,0E0,0E0,0E0,0E0],"parents":[2147483647,0,0,1,1,2,2,3,3,4,4,5,5,6,6,7,7,8,8,9,9,10,10,11,11,12,12,13,13,14,14],"right_children":[2,4,6,8,10,12,14,16,18,20,22,24,26,28,30,-1,-1,-1,-1,-1,-1,-1,-1,-1,-1,-1,-1,-1,-1,-1,-1],"split_conditions":[1.0730087E-2,9.309811E0,1.787412E-2,8.26221E-3,3.799722E3,6.9336313E-1,9.739633E4,4.24055E-3,6.926647E-5,-1.4633389E1,6.3819513E-3,3.1701913E-1,2.4917778E-3,-4.751284E-3,3.521416E-2,-5.1339097E-2,-9.244797E-3,4.2266324E-2,-9.8634465E-3,-2.3435492E-2,2.4304967E-2,4.0911343E-3,-1.8989878E-2,-9.881268E-3,5.74173E-2,-3.1020166E-3,-5.6765497E-2,-3.3268206E-2,-8.113671E-3,-3.0941132E-2,-1.4670069E-2],"split_indices":[6,7,6,6,7,4,7,3,0,4,3,4,3,4,6,0,0,0,0,0,0,0,0,0,0,0,0,0,0,0,0],"split_type":[0,0,0,0,0,0,0,0,0,0,0,0,0,0,0,0,0,0,0,0,0,0,0,0,0,0,0,0,0,0,0],"sum_hessian":[1.7531855E3,5.7739026E2,1.1757953E3,4.495539E1,5.324349E2,7.5557294E2,4.202224E2,3.9898937E1,5.056453E0,2.0025064E2,3.3218423E2,7.282301E2,2.7342777E1,1.6360747E2,2.5661496E2,3.374395E1,6.1549854E0,3.8875897E0,1.1688632E0,1.5413964E1,1.8483669E2,2.4676054E2,8.54237E1,7.129456E2,1.5284541E1,3.6433167E0,2.369946E1,5.3141285E1,1.1046617E2,2.1181776E2,4.4797207E1],"tree_param":{"num_deleted":"0","num_feature":"8","num_nodes":"31","size_leaf_vector":"1"}},{"base_weights":[-1.6350332E-1,1.0476056E-2,-3.0646622E-1,-7.5187635E-1,5.5734012E-2,-1.5196362E-1,-4.4343176E-1,-9.717092E-1,-5.0994507E-3,1.7133144E-1,-2.3744002E-1,-2.2167072E-1,4.3657297E-1,-3.2767436E-1,-6.0532635E-1,-5.1024944E-2,-6.3050897E-3,-4.0215883E-2,1.5784513E-2,-6.610299E-4,3.7534125E-2,-1.8798826E-2,4.9814314E-2,-6.780702E-3,-4.7280025E-2,4.8447363E-2,-1.8494178E-2,-6.8841055E-3,-2.4654245E-2,-3.376911E-2,-1.6102538E-2],"categories":[],"categories_nodes":[],"categories_segments":[],"categories_sizes":[],"default_left":[0,0,0,0,0,0,0,0,0,0,0,0,0,0,0,0,0,0,0,0,0,0,0,0,0,0,0,0,0,0,0],"id":29,"left_children":[1,3,5,7,9,11,13,15,17,19,21,23,25,27,29,-1,-1,-1,-1,-1,-1,-1,-1,-1,-1,-1,-1,-1,-1,-1,-1],"loss_changes":[4.3485283E1,2.7282413E1,2.0240677E1,7.2697983E0,2.5329836E1,1.8660069E1,9.325279E0,1.2835312E0,3.0954652E0,5.7294434E1,3.6513313E1,2.5117256E1,2.1075754E1,9.312813E0,3.963646E0,0E0,0E0,0E0,0E0,0E0,0E0,0E0,0E0,0E0,0E0,0E0,0E0,0E0,0E0,0E0,0E0],"parents":[2147483647,0,0,1,1,2,2,3,3,4,4,5,5,6,6,7,7,8,8,9,9,10,10,11,11,12,12,13,13,14,14],"right_children":[2,4,6,8,10,12,14,16,18,20,22,24,26,28,30,-1,-1,-1,-1,-1,-1,-1,-1,-1,-1,-1,-1,-1,-1,-1,-1],"split_conditions":[1.2234712E-2,9.309811E0,1.0189439E5,6.868255E-3,5.877097E-3,1.9534579E-2,1.9347882E-2,2.6533997E-2,-2.5891886E1,1.93656E-2,2.9656355E1,1.9214613E-2,3.8211968E-2,-2.4657534E-2,3.521416E-2,-5.1024944E-2,-6.3050897E-3,-4.0215883E-2,1.5784513E-2,-6.610299E-4,3.7534125E-2,-1.8798826E-2,4.9814314E-2,-6.780702E-3,-4.7280025E-2,4.8447363E-2,-1.8494178E-2,-6.8841055E-3,-2.4654245E-2,-3.376911E-2,-1.6102538E-2],"split_indices":[6,7,7,6,3,3,6,2,4,2,4,4,6,2,6,0,0,0,0,0,0,0,0,0,0,0,0,0,0,0,0],"split_type":[0,0,0,0,0,0,0,0,0,0,0,0,0,0,0,0,0,0,0,0,0,0,0,0,0,0,0,0,0,0,0],"sum_hessian":[1.747192E3,7.885226E2,9.586695E2,4.331334E1,7.452092E2,4.5148544E2,5.0718408E2,3.3230026E1,1.0083312E1,5.347678E2,2.1044138E2,4.042311E2,4.7254337E1,2.9749445E2,2.0968964E2,3.1221777E1,2.0082488E0,2.4563172E0,7.6269946E0,4.063139E2,1.2845395E2,1.8982137E2,2.0619999E1,3.6234494E2,4.188618E1,2.8342701E1,1.8911638E1,1.393118E2,1.5818263E2,1.6700426E2,4.268537E1],"tree_param":{"num_deleted":"0","num_feature":"8","num_nodes":"31","size_leaf_vector":"1"}},{"base_weights":[-1.5920295E-1,-5.9039883E-2,-4.1129792E-1,-3.7860036E-1,-6.2270374E-3,-3.0703855E-1,-6.3946617E-1,-1.603937E-1,-6.233856E-1,2.1439926E-1,-1.0607773E-1,3.3554038E-1,-3.3652133E-1,-3.7637088E-1,-7.675624E-1,3.2638537E-4,-3.2740463E-2,-3.7772596E-2,-3.7029607E-3,-1.8876318E-2,1.9065151E-2,-2.2507496E-2,2.759165E-3,-4.921821E-3,9.848196E-2,-2.1914518E-2,-7.307758E-3,2.6366347E-2,-3.8451932E-2,-4.1777257E-2,-1.9774206E-2],"categories":[],"categories_nodes":[],"categories_segments":[],"categories_sizes":[],"default_left":[0,0,0,0,0,0,0,0,0,0,0,0,0,0,0,0,0,0,0,0,0,0,0,0,0,0,0,0,0,0,0],"id":30,"left_children":[1,3,5,7,9,11,13,15,17,19,21,23,25,27,29,-1,-1,-1,-1,-1,-1,-1,-1,-1,-1,-1,-1,-1,-1,-1,-1],"loss_changes":[4.3810505E1,2.0984676E1,1.1542267E1,9.3195915E0,2.3554527E1,6.565876E0,4.8956985E0,7.8101387E0,5.948616E0,3.3056812E1,4.0864376E1,1.1145622E1,6.2549973E0,1.8977373E1,2.2623215E0,0E0,0E0,0E0,0E0,0E0,0E0,0E0,0E0,0E0,0E0,0E0,0E0,0E0,0E0,0E0,0E0],"parents":[2147483647,0,0,1,1,2,2,3,3,4,4,5,5,6,6,7,7,8,8,9,9,10,10,11,11,12,12,13,13,14,14],"right_children":[2,4,6,8,10,12,14,16,18,20,22,24,26,28,30,-1,-1,-1,-1,-1,-1,-1,-1,-1,-1,-1,-1,-1,-1,-1,-1],"split_conditions":[1.6501537E-2,-1.3795997E-2,6.3633744E5,-3.916955E-2,-1.2048192E-2,-1.12455666E-1,-1.3573483E-2,-2.5823623E-2,6.3819513E-3,-1.2651857E-2,1.3033333E-2,-1.965105E-2,1.8835546E-2,2.0108372E-2,3.3941746E-2,3.2638537E-4,-3.2740463E-2,-3.7772596E-2,-3.7029607E-3,-1.8876318E-2,1.9065151E-2,-2.2507496E-2,2.759165E-3,-4.921821E-3,9.848196E-2,-2.1914518E-2,-7.307758E-3,2.6366347E-2,-3.8451932E-2,-4.1777257E-2,-1.9774206E-2],"split_indices":[6,1,7,5,2,2,3,2,3,3,2,3,2,6,6,0,0,0,0,0,0,0,0,0,0,0,0,0,0,0,0],"split_type":[0,0,0,0,0,0,0,0,0,0,0,0,0,0,0,0,0,0,0,0,0,0,0,0,0,0,0,0,0,0,0],"sum_hessian":[1.7349897E3,1.2425361E3,4.9245364E2,1.7535112E2,1.0671849E3,3.3961526E2,1.5283838E2,9.358382E1,8.176731E1,3.3214432E2,7.3504065E2,1.4443233E1,3.2517203E2,5.1336716E1,1.01501656E2,7.0701E1,2.288282E1,6.561681E1,1.6150497E1,7.2777245E1,2.5936707E2,2.3399316E2,5.010475E2,1.2154939E1,2.2882943E0,2.1104553E2,1.1412649E2,1.5445962E1,3.5890755E1,8.4768E1,1.673366E1],"tree_param":{"num_deleted":"0","num_feature":"8","num_nodes":"31","size_leaf_vector":"1"}},{"base_weights":[-1.4716977E-1,-6.0616914E-2,-4.295376E-1,-3.7273446E-1,-4.656253E-3,-2.887718E-1,-5.236333E-1,-1.5883105E-1,-6.408076E-1,-9.791111E-1,1.6342547E-2,-4.1938254E-1,-5.316755E-2,-6.396345E-1,-3.70947E-1,-3.1741723E-2,-1.2082354E-3,-4.0680557E-2,2.457801E-3,-5.06113E-2,-2.013514E-2,5.114385E-3,-1.0618812E-2,-2.8550153E-4,-3.1313606E-2,-3.3145394E-2,9.128911E-3,-6.4036786E-3,-3.3849414E-2,-2.494149E-3,-2.6940802E-2],"categories":[],"categories_nodes":[],"categories_segments":[],"categories_sizes":[],"default_left":[0,0,0,0,0,0,0,0,0,0,0,0,0,0,0,0,0,0,0,0,0,0,0,0,0,0,0,0,0,0,0],"id":31,"left_children":[1,3,5,7,9,11,13,15,17,19,21,23,25,27,29,-1,-1,-1,-1,-1,-1,-1,-1,-1,-1,-1,-1,-1,-1,-1,-1],"loss_changes":[4.2211315E1,2.3122393E1,5.217125E0,1.1439415E1,2.300871E1,5.0431147E0,4.043442E0,7.2457848E0,1.0650726E1,4.5129776E-2,2.1663158E1,9.047482E0,8.724519E0,2.511364E0,5.7252436E0,0E0,0E0,0E0,0E0,0E0,0E0,0E0,0E0,0E0,0E0,0E0,0E0,0E0,0E0,0E0,0E0],"parents":[2147483647,0,0,1,1,2,2,3,3,4,4,5,5,6,6,7,7,8,8,9,9,10,10,11,11,12,12,13,13,14,14],"right_children":[2,4,6,8,10,12,14,16,18,20,22,24,26,28,30,-1,-1,-1,-1,-1,-1,-1,-1,-1,-1,-1,-1,-1,-1,-1,-1],"split_conditions":[1.787412E-2,-1.3795997E-2,-1.0115126E-2,-3.9976463E-2,4.7230944E-3,2.8251303E-2,1.8277561E-2,-7.1314685E-2,6.3819513E-3,7.845685E-3,6.000774E-3,-6.1558813E-2,-1.880256E-2,1.8296113E-2,1.1366285E-2,-3.1741723E-2,-1.2082354E-3,-4.0680557E-2,2.457801E-3,-5.06113E-2,-2.013514E-2,5.114385E-3,-1.0618812E-2,-2.8550153E-4,-3.1313606E-2,-3.3145394E-2,9.128911E-3,-6.4036786E-3,-3.3849414E-2,-2.494149E-3,-2.6940802E-2],"split_indices":[6,1,1,5,6,6,2,5,3,1,3,2,3,6,3,0,0,0,0,0,0,0,0,0,0,0,0,0,0,0,0],"split_type":[0,0,0,0,0,0,0,0,0,0,0,0,0,0,0,0,0,0,0,0,0,0,0,0,0,0,0,0,0,0,0],"sum_hessian":[1.7272241E3,1.322928E3,4.0429608E2,2.0027036E2,1.1226576E3,1.6360873E2,2.4068735E2,1.1227519E2,8.799516E1,2.2719643E1,1.099938E3,1.04755775E2,5.885296E1,1.3496242E2,1.0572493E2,2.3940144E1,8.833505E1,7.02273E1,1.7767857E1,2.0770287E1,1.9493556E0,7.999103E2,3.000277E2,3.5267185E1,6.9488594E1,1.5904667E1,4.294829E1,9.485581E0,1.2547683E2,3.674469E1,6.898024E1],"tree_param":{"num_deleted":"0","num_feature":"8","num_nodes":"31","size_leaf_vector":"1"}},{"base_weights":[-1.5003352E-1,-2.0936454E-2,-3.428774E-1,-1.648408E-1,1.326411E-1,-1.0373519E-1,-4.3261847E-1,4.2456597E-2,-3.115713E-1,-9.606901E-1,1.7901531E-1,-5.2573913E-1,3.754131E-2,-3.8976982E-1,-8.115801E-1,-4.5828655E-2,7.76212E-3,-2.409633E-2,-9.003393E-3,-4.9763005E-2,-1.7621316E-2,1.8788418E-2,-3.6448934E-3,1.1948099E-2,-3.1732187E-2,6.5842606E-2,-1.6166334E-3,-1.4141274E-2,-2.7044926E-2,1.8415611E-2,-4.2284384E-2],"categories":[],"categories_nodes":[],"categories_segments":[],"categories_sizes":[],"default_left":[0,0,0,0,0,0,0,0,0,0,0,0,0,0,0,0,0,0,0,0,0,0,0,0,0,0,0,0,0,0,0],"id":32,"left_children":[1,3,5,7,9,11,13,15,17,19,21,23,25,27,29,-1,-1,-1,-1,-1,-1,-1,-1,-1,-1,-1,-1,-1,-1,-1,-1],"loss_changes":[4.247592E1,2.263588E1,1.4638992E1,1.6094627E1,2.5296818E1,1.1229029E1,7.7572174E0,2.3939154E1,6.851103E0,7.653427E-2,2.363087E1,4.0843334E0,1.2717441E1,7.09774E0,2.3068619E0,0E0,0E0,0E0,0E0,0E0,0E0,0E0,0E0,0E0,0E0,0E0,0E0,0E0,0E0,0E0,0E0],"parents":[2147483647,0,0,1,1,2,2,3,3,4,4,5,5,6,6,7,7,8,8,9,9,10,10,11,11,12,12,13,13,14,14],"right_children":[2,4,6,8,10,12,14,16,18,20,22,24,26,28,30,-1,-1,-1,-1,-1,-1,-1,-1,-1,-1,-1,-1,-1,-1,-1,-1],"split_conditions":[1.0189439E5,-1.4113143E-2,1.2010649E-2,6.6025015E3,4.7230944E-3,-3.7885462E-3,3.7610624E9,7.7972505E-3,-7.326848E-3,1.8576783E3,9.842276E-3,-3.0282517E-3,-3.836221E-2,1.9347882E-2,1.2234712E-2,-4.5828655E-2,7.76212E-3,-2.409633E-2,-9.003393E-3,-4.9763005E-2,-1.7621316E-2,1.8788418E-2,-3.6448934E-3,1.1948099E-2,-3.1732187E-2,6.5842606E-2,-1.6166334E-3,-1.4141274E-2,-2.7044926E-2,1.8415611E-2,-4.2284384E-2],"split_indices":[7,5,6,7,6,0,7,6,4,7,6,4,5,6,6,0,0,0,0,0,0,0,0,0,0,0,0,0,0,0,0],"split_type":[0,0,0,0,0,0,0,0,0,0,0,0,0,0,0,0,0,0,0,0,0,0,0,0,0,0,0,0,0,0,0],"sum_hessian":[1.7054519E3,1.0222363E3,6.832156E2,5.277003E2,4.94536E2,1.8701466E2,4.9620093E2,2.1900536E2,3.0869498E2,1.9320253E1,4.7521576E2,4.622265E1,1.40792E2,4.4761792E2,4.8583004E1,2.2295729E1,1.9670963E2,1.3332072E2,1.7537425E2,1.7679241E1,1.6410118E0,2.6654395E2,2.0867181E2,5.6132874E0,4.060936E1,6.367341E0,1.3442467E2,2.6380847E2,1.8380945E2,1.0896574E0,4.7493347E1],"tree_param":{"num_deleted":"0","num_feature":"8","num_nodes":"31","size_leaf_vector":"1"}},{"base_weights":[-1.406567E-1,-2.2827087E-2,-3.209802E-1,-8.394639E-1,2.3824347E-3,-5.658279E-1,-2.695004E-1,-5.443036E-2,2.5529385E-1,-8.5986227E-1,2.6625052E-2,4.281981E-2,-5.933781E-1,1.5097514E0,-2.826957E-1,3.930385E-2,-3.6402404E-2,-4.935322E-2,1.3653758E-2,5.660092E-3,-1.0397275E-2,-9.388442E-3,-3.3926785E-2,1.2229168E-1,-1.0935201E-2,-5.5516935E-3,-1.8952928E-2],"categories":[],"categories_nodes":[],"categories_segments":[],"categories_sizes":[],"default_left":[0,0,0,0,0,0,0,0,0,0,0,0,0,0,0,0,0,0,0,0,0,0,0,0,0,0,0],"id":33,"left_children":[1,3,5,7,9,11,13,-1,15,17,19,-1,21,23,25,-1,-1,-1,-1,-1,-1,-1,-1,-1,-1,-1,-1],"loss_changes":[3.6237946E1,2.1263998E1,8.34407E0,8.714163E0,2.0985672E1,5.0610123E0,1.3548122E1,0E0,3.9879475E0,4.2261333E0,1.9852654E1,0E0,3.8302002E0,7.4468975E0,9.148731E0,0E0,0E0,0E0,0E0,0E0,0E0,0E0,0E0,0E0,0E0,0E0,0E0],"parents":[2147483647,0,0,1,1,2,2,3,3,4,4,5,5,6,6,8,8,9,9,10,10,12,12,13,13,14,14],"right_children":[2,4,6,8,10,12,14,-1,16,18,20,-1,22,24,26,-1,-1,-1,-1,-1,-1,-1,-1,-1,-1,-1,-1],"split_conditions":[1.42590925E-2,-1.4157755E-2,-1.3848702E-2,-1.1630867E-3,5.0392444E-3,-4.78504E-2,-1.3044995E-2,-5.443036E-2,-1.9656086E-7,7.845685E-3,6.000774E-3,4.281981E-2,1.5320072E-2,-1.4622929E-2,-7.921054E-3,3.930385E-2,-3.6402404E-2,-4.935322E-2,1.3653758E-2,5.660092E-3,-1.0397275E-2,-9.388442E-3,-3.3926785E-2,1.2229168E-1,-1.0935201E-2,-5.5516935E-3,-1.8952928E-2],"split_indices":[6,3,4,4,6,3,4,0,4,1,3,0,6,3,3,0,0,0,0,0,0,0,0,0,0,0,0],"split_type":[0,0,0,0,0,0,0,0,0,0,0,0,0,0,0,0,0,0,0,0,0,0,0,0,0,0,0],"sum_hessian":[1.7048649E3,1.0317865E3,6.730784E2,2.9930155E1,1.0018563E3,1.1519548E2,5.5788293E2,2.4386036E1,5.5441184E0,2.6454975E1,9.7540137E2,1.6173668E0,1.1357811E2,3.2719944E0,5.5461096E2,3.7308867E0,1.8132317E0,2.3900293E1,2.5546815E0,7.128248E2,2.6257654E2,2.0264126E1,9.331399E1,1.8532743E0,1.4187201E0,2.0017296E2,3.54438E2],"tree_param":{"num_deleted":"0","num_feature":"8","num_nodes":"27","size_leaf_vector":"1"}},{"base_weights":[-1.2884858E-1,-5.456302E-2,-3.8323566E-1,-2.8658393E-1,6.568221E-3,-2.18245E-1,-4.9876615E-1,-3.2517932E-2,-4.5966825E-1,1.02413304E-1,-2.416839E-1,-6.095111E-1,-1.8964209E-2,-1.72594E-1,-5.5453235E-1,-1.8957116E-2,1.2172024E-2,-2.8243188E-2,2.4995569E-3,5.0239614E-4,3.1105379E-2,-2.4245072E-2,1.2867798E-2,-4.8868195E-3,-4.0537562E-2,2.1494659E-2,-8.62469E-3,3.2463174E-2,-2.800319E-2,-6.9262185E-3,-3.0054433E-2],"categories":[],"categories_nodes":[],"categories_segments":[],"categories_sizes":[],"default_left":[0,0,0,0,0,0,0,0,0,0,0,0,0,0,0,0,0,0,0,0,0,0,0,0,0,0,0,0,0,0,0],"id":34,"left_children":[1,3,5,7,9,11,13,15,17,19,21,23,25,27,29,-1,-1,-1,-1,-1,-1,-1,-1,-1,-1,-1,-1,-1,-1,-1,-1],"loss_changes":[3.1952679E1,1.8592777E1,7.17733E0,1.2005482E1,2.4731514E1,1.2401829E1,3.9795074E0,1.0790098E1,8.740986E0,3.5987656E1,3.5266144E1,5.450411E0,7.414219E0,1.1243017E1,3.6136475E0,0E0,0E0,0E0,0E0,0E0,0E0,0E0,0E0,0E0,0E0,0E0,0E0,0E0,0E0,0E0,0E0],"parents":[2147483647,0,0,1,1,2,2,3,3,4,4,5,5,6,6,7,7,8,8,9,9,10,10,11,11,12,12,13,13,14,14],"right_children":[2,4,6,8,10,12,14,16,18,20,22,24,26,28,30,-1,-1,-1,-1,-1,-1,-1,-1,-1,-1,-1,-1,-1,-1,-1,-1],"split_conditions":[1.787412E-2,-9.623918E-3,1.0189439E5,-3.605284E-2,5.877097E-3,2.102488E-2,1.9347882E-2,-1.2651857E-2,6.9188764E-3,2.430243E-2,1.2146568E-2,-5.0081298E-2,2.3492178E-2,-1.2196347E-2,-4.6585333E-2,-1.8957116E-2,1.2172024E-2,-2.8243188E-2,2.4995569E-3,5.0239614E-4,3.1105379E-2,-2.4245072E-2,1.2867798E-2,-4.8868195E-3,-4.0537562E-2,2.1494659E-2,-8.62469E-3,3.2463174E-2,-2.800319E-2,-6.9262185E-3,-3.0054433E-2],"split_indices":[6,1,7,2,3,6,6,3,3,2,3,2,6,3,1,0,0,0,0,0,0,0,0,0,0,0,0,0,0,0,0],"split_type":[0,0,0,0,0,0,0,0,0,0,0,0,0,0,0,0,0,0,0,0,0,0,0,0,0,0,0,0,0,0,0],"sum_hessian":[1.6909672E3,1.3097201E3,3.8124713E2,2.7234787E2,1.0373722E3,1.5820355E2,2.2304358E2,1.108386E2,1.6150926E2,7.4884564E2,2.8852658E2,5.2691334E1,1.0551222E2,3.3164116E1,1.8987946E2,4.896322E1,6.1875378E1,1.3378687E2,2.7722395E1,6.367035E2,1.1214213E2,1.9400333E2,9.452325E1,1.5290828E1,3.7400505E1,2.6432981E1,7.907925E1,1.0409341E1,2.2754776E1,1.951117E1,1.7036829E2],"tree_param":{"num_deleted":"0","num_feature":"8","num_nodes":"31","size_leaf_vector":"1"}},{"base_weights":[-1.3224463E-1,1.9585317E-2,-2.6386043E-1,-5.1824063E-2,4.349404E-2,-1.8658714E-1,-5.0655663E-1,6.1729807E-2,-5.130854E-2,-1.6285636E-1,-5.4815393E-2,-2.6830095E-1,-6.9234353E-1,1.3302135E-2,-3.098174E-3,-9.731027E-3,4.979403E-2,1.6906603E-3,-3.0219361E-2,-7.3294244E-3,-4.0162705E-2],"categories":[],"categories_nodes":[],"categories_segments":[],"categories_sizes":[],"default_left":[0,0,0,0,0,0,0,0,0,0,0,0,0,0,0,0,0,0,0,0,0],"id":35,"left_children":[1,3,5,-1,7,9,11,13,-1,15,-1,17,19,-1,-1,-1,-1,-1,-1,-1,-1],"loss_changes":[3.3887863E1,1.994775E1,1.6939827E1,0E0,1.5117397E1,1.4728943E1,9.498268E0,1.9217382E1,0E0,2.5006874E1,0E0,9.918736E0,7.2844543E0,0E0,0E0,0E0,0E0,0E0,0E0,0E0,0E0],"parents":[2147483647,0,0,1,1,2,2,4,4,5,5,6,6,7,7,9,9,11,11,12,12],"right_children":[2,4,6,-1,8,10,12,14,-1,16,-1,18,20,-1,-1,-1,-1,-1,-1,-1,-1],"split_conditions":[1.2234712E-2,-6.626861E1,9.325844E5,-5.1824063E-2,1.3068137E2,6.9336313E-1,-4.788681E-7,4.5378096E3,-5.130854E-2,3.1701913E-1,-5.4815393E-2,1.958403E-2,-4.125544E-2,1.3302135E-2,-3.098174E-3,-9.731027E-3,4.979403E-2,1.6906603E-3,-3.0219361E-2,-7.3294244E-3,-4.0162705E-2],"split_indices":[6,4,7,0,4,4,4,7,0,4,0,6,2,0,0,0,0,0,0,0,0],"split_type":[0,0,0,0,0,0,0,0,0,0,0,0,0,0,0,0,0,0,0,0,0],"sum_hessian":[1.6945571E3,7.872495E2,9.073076E2,1.6490707E1,7.707588E2,6.895326E2,2.1777505E2,7.5876556E2,1.1993234E1,6.731519E2,1.638068E1,9.648522E1,1.2128984E2,2.857015E2,4.730641E2,6.560011E2,1.7150759E1,5.128425E1,4.520097E1,2.0877937E1,1.004119E2],"tree_param":{"num_deleted":"0","num_feature":"8","num_nodes":"21","size_leaf_vector":"1"}},{"base_weights":[-1.07940935E-1,3.8589522E-2,-2.4211441E-1,-1.3863453E-2,5.8224845E-1,-8.9414924E-2,-3.5439906E-1,6.285158E-2,-3.720253E-1,1.5368154E0,3.5193634E-1,-2.3610252E-1,1.6143689E-1,-2.0147066E-1,-4.7889343E-1,-2.629473E-3,2.6970504E-2,-2.1358674E-2,5.9993513E-2,9.3861155E-2,-9.7623365E-3,3.326225E-2,-4.0731695E-2,-4.891731E-3,-3.9142128E-2,3.968319E-2,-1.1812015E-2,-2.678403E-2,-2.1322467E-3,-2.8097972E-2,-4.0315622E-3],"categories":[],"categories_nodes":[],"categories_segments":[],"categories_sizes":[],"default_left":[0,0,0,0,0,0,0,0,0,0,0,0,0,0,0,0,0,0,0,0,0,0,0,0,0,0,0,0,0,0,0],"id":36,"left_children":[1,3,5,7,9,11,13,15,17,19,21,23,25,27,29,-1,-1,-1,-1,-1,-1,-1,-1,-1,-1,-1,-1,-1,-1,-1,-1],"loss_changes":[3.3046867E1,2.2937536E1,1.5010754E1,2.019933E1,1.5018995E1,1.3766872E1,9.522438E0,3.334625E1,1.1754126E1,8.30265E0,2.1855999E1,1.7751648E1,3.4949673E1,1.2103505E1,9.144211E0,0E0,0E0,0E0,0E0,0E0,0E0,0E0,0E0,0E0,0E0,0E0,0E0,0E0,0E0,0E0,0E0],"parents":[2147483647,0,0,1,1,2,2,3,3,4,4,5,5,6,6,7,7,8,8,9,9,10,10,11,11,12,12,13,13,14,14],"right_children":[2,4,6,8,10,12,14,16,18,20,22,24,26,28,30,-1,-1,-1,-1,-1,-1,-1,-1,-1,-1,-1,-1,-1,-1,-1,-1],"split_conditions":[3.7337043E4,1.2390477E-2,1.3718848E-2,5.877097E-3,9.655881E-3,2.3758799E-2,-7.6510347E-3,1.6303776E-2,3.378311E-2,9.2775586E2,6.9336313E-1,3.0799597E-3,6.000774E-3,-1.8142428E-2,3.2361284E-2,-2.629473E-3,2.6970504E-2,-2.1358674E-2,5.9993513E-2,9.3861155E-2,-9.7623365E-3,3.326225E-2,-4.0731695E-2,-4.891731E-3,-3.9142128E-2,3.968319E-2,-1.1812015E-2,-2.678403E-2,-2.1322467E-3,-2.8097972E-2,-4.0315622E-3],"split_indices":[7,3,6,3,6,2,3,2,1,7,4,3,3,3,6,0,0,0,0,0,0,0,0,0,0,0,0,0,0,0,0],"split_type":[0,0,0,0,0,0,0,0,0,0,0,0,0,0,0,0,0,0,0,0,0,0,0,0,0,0,0,0,0,0,0],"sum_hessian":[1.6794012E3,8.0307635E2,8.7632495E2,7.3330096E2,6.9775406E1,3.72096E2,5.042289E2,6.046211E2,1.2867986E2,1.2460021E1,5.731538E1,2.3483385E2,1.3726218E2,2.2744931E2,2.7677957E2,4.8743497E2,1.1718611E2,1.2502185E2,3.658004E0,1.0343392E1,2.1166284E0,4.5519768E1,1.1795615E1,1.8837393E2,4.6459915E1,5.26166E1,8.464557E1,7.2505806E1,1.5494351E2,2.2867378E2,4.81058E1],"tree_param":{"num_deleted":"0","num_feature":"8","num_nodes":"31","size_leaf_vector":"1"}},{"base_weights":[-1.1563079E-1,-3.515942E-2,-3.2276672E-1,-8.1874144E-1,-1.3875914E-2,-2.8706557E-1,-9.0991616E-1,2.7868268E-1,-9.535534E-1,-3.838147E-1,1.9867197E-2,-2.1858993E-1,-5.656931E-1,-3.9722902E-1,-9.732015E-1,-3.9356872E-2,8.241183E-2,1.9765683E-2,-5.0887533E-2,-5.2655596E-2,-9.209119E-3,1.2554866E-2,-2.779504E-3,-1.4792563E-2,4.0342817E-3,-5.4519214E-3,-3.615218E-2,-3.841695E-2,2.2879722E-2,-4.557303E-3,-5.0751425E-2],"categories":[],"categories_nodes":[],"categories_segments":[],"categories_sizes":[],"default_left":[0,0,0,0,0,0,0,0,0,0,0,0,0,0,0,0,0,0,0,0,0,0,0,0,0,0,0,0,0,0,0],"id":37,"left_children":[1,3,5,7,9,11,13,15,17,19,21,23,25,27,29,-1,-1,-1,-1,-1,-1,-1,-1,-1,-1,-1,-1,-1,-1,-1,-1],"loss_changes":[2.774561E1,2.0008654E1,9.502926E0,4.959528E0,1.46089E1,8.281967E0,4.6473694E-1,7.4935794E0,2.8686485E0,1.2876471E1,1.8733576E1,8.238834E0,6.121069E0,1.802181E0,7.437134E-1,0E0,0E0,0E0,0E0,0E0,0E0,0E0,0E0,0E0,0E0,0E0,0E0,0E0,0E0,0E0,0E0],"parents":[2147483647,0,0,1,1,2,2,3,3,4,4,5,5,6,6,7,7,8,8,9,9,10,10,11,11,12,12,13,13,14,14],"right_children":[2,4,6,8,10,12,14,16,18,20,22,24,26,28,30,-1,-1,-1,-1,-1,-1,-1,-1,-1,-1,-1,-1,-1,-1,-1,-1],"split_conditions":[2.6917116E5,-2.5891886E1,1.8831123E-2,-1.25042815E-2,-1.4622929E-2,1.5056623E9,-5.9180867E-2,-4.3711714E-2,-1.1179866E-2,-6.58477E-2,-2.2511065E-2,-3.7744853E-3,-1.1507118E-2,1.18165035E-2,-2.5576709E-2,-3.9356872E-2,8.241183E-2,1.9765683E-2,-5.0887533E-2,-5.2655596E-2,-9.209119E-3,1.2554866E-2,-2.779504E-3,-1.4792563E-2,4.0342817E-3,-5.4519214E-3,-3.615218E-2,-3.841695E-2,2.2879722E-2,-4.557303E-3,-5.0751425E-2],"split_indices":[7,4,3,3,3,7,5,5,0,4,2,5,3,4,0,0,0,0,0,0,0,0,0,0,0,0,0,0,0,0,0],"split_type":[0,0,0,0,0,0,0,0,0,0,0,0,0,0,0,0,0,0,0,0,0,0,0,0,0,0,0,0,0,0,0],"sum_hessian":[1.6642333E3,1.1994299E3,4.648034E2,3.0726393E1,1.1687035E3,4.395649E2,2.5238476E1,3.2448437E0,2.7481548E1,9.682282E1,1.0718807E3,3.5428116E2,8.528377E1,3.5726364E0,2.166584E1,2.063915E0,1.1809287E0,1.0141947E0,2.6467354E1,2.1262352E1,7.556047E1,2.6315253E2,8.087282E2,2.8159555E2,7.26856E1,2.2289444E1,6.2994324E1,2.561687E0,1.0109493E0,1.1248076E0,2.054103E1],"tree_param":{"num_deleted":"0","num_feature":"8","num_nodes":"31","size_leaf_vector":"1"}},{"base_weights":[-1.1283177E-1,-4.043131E-2,-3.243239E-1,-6.136136E-1,-1.6936375E-2,-9.242863E-1,-2.9296133E-1,-6.4369667E-1,1.6638316E-2,-9.1464585E-1,-7.9641317E-4,2.2663333E-2,-5.0928455E-2,-1.2667467E-1,-3.706666E-1,-1.9817496E-2,-3.8436405E-2,-4.9445033E-2,-2.201484E-2,4.1896515E-3,-8.932763E-3,2.5170982E-2,-1.6816152E-2,-2.7799204E-2,-9.845047E-3],"categories":[],"categories_nodes":[],"categories_segments":[],"categories_sizes":[],"default_left":[0,0,0,0,0,0,0,0,0,0,0,0,0,0,0,0,0,0,0,0,0,0,0,0,0],"id":38,"left_children":[1,3,5,7,9,11,13,15,-1,17,19,-1,-1,21,23,-1,-1,-1,-1,-1,-1,-1,-1,-1,-1],"loss_changes":[2.5399939E1,1.6655542E1,7.6907845E0,1.6007385E0,1.7238974E1,3.1314087E0,5.1676292E0,1.1656075E0,0E0,3.0474854E-1,1.7615103E1,0E0,0E0,1.7347897E1,8.7305565E0,0E0,0E0,0E0,0E0,0E0,0E0,0E0,0E0,0E0,0E0],"parents":[2147483647,0,0,1,1,2,2,3,3,4,4,5,5,6,6,7,7,9,9,10,10,13,13,14,14],"right_children":[2,4,6,8,10,12,14,16,-1,18,20,-1,-1,22,24,-1,-1,-1,-1,-1,-1,-1,-1,-1,-1],"split_conditions":[1.6855087E-2,-1.4285714E-2,-6.58477E-2,1.6680423E-2,4.7230944E-3,-4.274478E-2,-1.1628846E-2,-2.6339432E-2,1.6638316E-2,4.392095E-3,3.7018782E-3,2.2663333E-2,-5.0928455E-2,1.9099277E-2,1.6785221E-2,-1.9817496E-2,-3.8436405E-2,-4.9445033E-2,-2.201484E-2,4.1896515E-3,-8.932763E-3,2.5170982E-2,-1.6816152E-2,-2.7799204E-2,-9.845047E-3],"split_indices":[6,0,4,6,6,1,3,1,0,6,0,0,0,6,2,0,0,0,0,0,0,0,0,0,0],"split_type":[0,0,0,0,0,0,0,0,0,0,0,0,0,0,0,0,0,0,0,0,0,0,0,0,0],"sum_hessian":[1.6586686E3,1.2365497E3,4.22119E2,4.770173E1,1.1888479E3,1.9555399E1,4.0256357E2,4.6542107E1,1.1596236E0,2.0013641E1,1.1688342E3,1.0087768E0,1.8546621E1,1.2904398E2,2.735196E2,1.7027332E1,2.9514772E1,1.636682E1,3.6468213E0,7.9246686E2,3.7636737E2,3.1867014E1,9.717696E1,1.3129576E2,1.4222383E2],"tree_param":{"num_deleted":"0","num_feature":"8","num_nodes":"25","size_leaf_vector":"1"}},{"base_weights":[-9.561529E-2,-2.924653E-2,-3.3230776E-1,-5.1857066E-1,-3.2330732E-4,-1.735548E-1,-4.5880657E-1,-5.971466E-1,1.1186489E0,2.9100212E-1,-5.3322792E-2,-2.9735008E-1,5.158399E-2,6.3655627E-1,-4.7945303E-1,-1.3577351E-2,-3.8841363E-2,7.0789605E-2,1.4603113E-2,3.4752566E-2,6.5969713E-3,-1.0520834E-2,5.7685347E-3,2.5331825E-3,-2.6883855E-2,-3.1094745E-2,1.4724339E-2,6.0293216E-2,-2.721699E-2,-3.1000009E-2,-1.4700434E-2],"categories":[],"categories_nodes":[],"categories_segments":[],"categories_sizes":[],"default_left":[0,0,0,0,0,0,0,0,0,0,0,0,0,0,0,0,0,0,0,0,0,0,0,0,0,0,0,0,0,0,0],"id":39,"left_children":[1,3,5,7,9,11,13,15,17,19,21,23,25,27,29,-1,-1,-1,-1,-1,-1,-1,-1,-1,-1,-1,-1,-1,-1,-1,-1],"loss_changes":[2.5872551E1,1.8227098E1,7.164398E0,9.91456E0,1.8806307E1,4.518618E0,4.831562E0,3.839655E0,4.8044872E-1,1.1957536E1,2.7334095E1,8.758879E0,9.700144E0,3.434559E0,4.95261E0,0E0,0E0,0E0,0E0,0E0,0E0,0E0,0E0,0E0,0E0,0E0,0E0,0E0,0E0,0E0,0E0],"parents":[2147483647,0,0,1,1,2,2,3,3,4,4,5,5,6,6,7,7,8,8,9,9,10,10,11,11,12,12,13,13,14,14],"right_children":[2,4,6,8,10,12,14,16,18,20,22,24,26,28,30,-1,-1,-1,-1,-1,-1,-1,-1,-1,-1,-1,-1,-1,-1,-1,-1],"split_conditions":[1.787412E-2,-6.291391E-2,-7.1643135E-3,1.7681371E-2,-3.874725E-2,2.8251303E-2,-3.7281767E-2,-1.806901E-2,-2.6984889E-2,7.2618105E3,-7.6865694E-3,-1.1628846E-2,-1.880256E-2,-4.048112E-3,1.7727217E-4,-1.3577351E-2,-3.8841363E-2,7.0789605E-2,1.4603113E-2,3.4752566E-2,6.5969713E-3,-1.0520834E-2,5.7685347E-3,2.5331825E-3,-2.6883855E-2,-3.1094745E-2,1.4724339E-2,6.0293216E-2,-2.721699E-2,-3.1000009E-2,-1.4700434E-2],"split_indices":[6,5,1,6,5,6,3,1,1,7,5,3,3,4,4,0,0,0,0,0,0,0,0,0,0,0,0,0,0,0,0],"split_type":[0,0,0,0,0,0,0,0,0,0,0,0,0,0,0,0,0,0,0,0,0,0,0,0,0,0,0,0,0,0,0],"sum_hessian":[1.6466093E3,1.2868883E3,3.5972098E2,7.087602E1,1.2160123E3,1.6057509E2,1.9914587E2,6.823639E1,2.6396363E0,1.864809E2,1.0295314E3,1.033991E2,5.7175995E1,3.13236E0,1.9601352E2,2.5158289E1,4.30781E1,1.4173181E0,1.2223183E0,5.172359E1,1.3475731E2,5.3296576E2,4.9656564E2,4.2559116E1,6.0839985E1,1.4741911E1,4.2434082E1,2.099197E0,1.0331631E0,1.10171715E2,8.5841805E1],"tree_param":{"num_deleted":"0","num_feature":"8","num_nodes":"31","size_leaf_vector":"1"}},{"base_weights":[-1.056544E-1,9.860815E-2,-1.8834366E-1,-8.509463E-1,1.4725661E-1,-2.7558926E-1,-2.3362905E-2,-5.1449653E-2,-2.7939305E-1,4.2968684E-1,-5.430519E-3,-1.5870874E-1,-3.9579025E-1,1.7253436E-1,-2.598507E-1,9.458589E-2,-4.8378002E-2,2.9532501E-2,-1.7286187E-2,1.2538877E-2,-2.167759E-2,-2.2525875E-2,-6.9077924E-4,-2.8841108E-2,-6.2780078E-3,1.5967641E-2,-9.441847E-3,1.4817077E-2,-1.7828634E-2],"categories":[],"categories_nodes":[],"categories_segments":[],"categories_sizes":[],"default_left":[0,0,0,0,0,0,0,0,0,0,0,0,0,0,0,0,0,0,0,0,0,0,0,0,0,0,0,0,0],"id":40,"left_children":[1,3,5,7,9,11,13,-1,15,17,19,21,23,25,27,-1,-1,-1,-1,-1,-1,-1,-1,-1,-1,-1,-1,-1,-1],"loss_changes":[2.7841679E1,2.2083519E1,1.6876637E1,2.085003E0,1.9538559E1,1.0714619E1,1.8891434E1,0E0,1.2154934E1,2.004757E1,3.2471626E1,1.6508904E1,1.8395973E1,1.1897249E1,1.0042384E1,0E0,0E0,0E0,0E0,0E0,0E0,0E0,0E0,0E0,0E0,0E0,0E0,0E0,0E0],"parents":[2147483647,0,0,1,1,2,2,3,3,4,4,5,5,6,6,8,8,9,9,10,10,11,11,12,12,13,13,14,14],"right_children":[2,4,6,8,10,12,14,-1,16,18,20,22,24,26,28,-1,-1,-1,-1,-1,-1,-1,-1,-1,-1,-1,-1,-1,-1],"split_conditions":[6.6025015E3,-3.8674564E1,-9.953872E-3,1.0238595E-2,-1.2048192E-2,-2.4657534E-2,4.4140364E-3,-5.1449653E-2,1.1315264E-2,1.592621E-2,9.722815E-3,-6.6066444E-2,1.93656E-2,1.3019343E-2,-1.9656086E-7,9.458589E-2,-4.8378002E-2,2.9532501E-2,-1.7286187E-2,1.2538877E-2,-2.167759E-2,-2.2525875E-2,-6.9077924E-4,-2.8841108E-2,-6.2780078E-3,1.5967641E-2,-9.441847E-3,1.4817077E-2,-1.7828634E-2],"split_indices":[7,4,5,6,2,2,0,0,6,6,6,5,2,1,4,0,0,0,0,0,0,0,0,0,0,0,0,0,0],"split_type":[0,0,0,0,0,0,0,0,0,0,0,0,0,0,0,0,0,0,0,0,0,0,0,0,0,0,0,0,0],"sum_hessian":[1.6462814E3,4.7434396E2,1.1719374E3,2.2313906E1,4.5203006E2,7.661234E2,4.05814E2,1.640361E1,5.910296E0,1.5798535E2,2.940447E2,3.8960318E2,3.7652023E2,2.2210298E2,1.8371103E2,1.0015535E0,4.9087424E0,1.3102489E2,2.6960457E1,1.842156E2,1.098291E2,1.2856644E2,2.6103674E2,2.2479291E2,1.5172731E2,1.5801906E2,6.408392E1,2.690901E1,1.5680202E2],"tree_param":{"num_deleted":"0","num_feature":"8","num_nodes":"29","size_leaf_vector":"1"}},{"base_weights":[-9.292961E-2,1.02165624E-1,-1.7688924E-1,-9.604509E-1,1.567209E-1,-1.5605319E-1,-7.912898E-1,-5.3729035E-2,2.0061761E-2,4.2903316E-1,-3.316078E-2,-3.1341493E-2,-2.8701058E-1,-5.5034377E-2,-9.449523E-1,1.408197E-2,7.1905635E-2,-2.214462E-2,6.890571E-3,-5.455498E-3,2.4752801E-2,-9.0368325E-3,-2.3189967E-2,4.841455E-2,-4.402149E-2,-1.0788519E-2,-5.1128574E-2],"categories":[],"categories_nodes":[],"categories_segments":[],"categories_sizes":[],"default_left":[0,0,0,0,0,0,0,0,0,0,0,0,0,0,0,0,0,0,0,0,0,0,0,0,0,0,0],"id":41,"left_children":[1,3,5,7,9,11,13,-1,-1,15,17,19,21,23,25,-1,-1,-1,-1,-1,-1,-1,-1,-1,-1,-1,-1],"loss_changes":[2.686266E1,2.8771986E1,1.4548954E1,4.199852E0,2.4340723E1,1.8115934E1,4.173361E0,0E0,0E0,2.8352646E1,1.9543736E1,2.3370611E1,1.0084541E1,7.196447E0,1.5247021E0,0E0,0E0,0E0,0E0,0E0,0E0,0E0,0E0,0E0,0E0,0E0,0E0],"parents":[2147483647,0,0,1,1,2,2,3,3,4,4,5,5,6,6,9,9,10,10,11,11,12,12,13,13,14,14],"right_children":[2,4,6,8,10,12,14,-1,-1,16,18,20,22,24,26,-1,-1,-1,-1,-1,-1,-1,-1,-1,-1,-1,-1],"split_conditions":[1.0109909E-2,-1.4633389E1,6.9336313E-1,9.842276E-3,3.799722E3,1.0189439E5,-1.5598651E-2,-5.3729035E-2,2.0061761E-2,9.746484E-3,4.13532E-5,1.3006016E-2,1.4788307E-3,1.20670395E-2,1.0306879E-2,1.408197E-2,7.1905635E-2,-2.214462E-2,6.890571E-3,-5.455498E-3,2.4752801E-2,-9.0368325E-3,-2.3189967E-2,4.841455E-2,-4.402149E-2,-1.0788519E-2,-5.1128574E-2],"split_indices":[6,4,4,6,7,7,5,0,0,3,4,3,3,6,6,0,0,0,0,0,0,0,0,0,0,0,0],"split_type":[0,0,0,0,0,0,0,0,0,0,0,0,0,0,0,0,0,0,0,0,0,0,0,0,0,0,0],"sum_hessian":[1.6378512E3,4.9271735E2,1.1451338E3,2.3250175E1,4.6946716E2,1.1087858E3,3.6348045E1,2.1646702E1,1.6034737E0,1.923523E2,2.7711487E2,5.6857086E2,5.402149E2,6.510743E0,2.9837301E1,1.6895288E2,2.3399426E1,8.112056E1,1.959943E2,4.960749E2,7.249597E1,3.3865802E2,2.015569E2,2.8295467E0,3.6811962E0,3.2341752E0,2.6603127E1],"tree_param":{"num_deleted":"0","num_feature":"8","num_nodes":"27","size_leaf_vector":"1"}},{"base_weights":[-8.750846E-2,-2.3828728E-2,-3.2128087E-1,-5.7378453E-1,-7.0430967E-4,-8.4948486E-1,-2.90054E-1,-6.3712543E-1,4.629774E-2,1.980616E-1,-7.5018495E-2,-8.927142E-1,-2.1879906E-3,-2.5597307E-1,-6.738214E-1,3.6217004E-2,-3.432187E-2,-2.6951933E-2,1.4116876E-2,-2.0423505E-2,3.3376177E-3,-4.6533872E-3,-4.7010344E-2,-1.4255866E-2,4.8552718E-2,-1.6783789E-2,-5.0502E-2],"categories":[],"categories_nodes":[],"categories_segments":[],"categories_sizes":[],"default_left":[0,0,0,0,0,0,0,0,0,0,0,0,0,0,0,0,0,0,0,0,0,0,0,0,0,0,0],"id":42,"left_children":[1,3,5,7,9,11,13,15,-1,17,19,21,-1,23,25,-1,-1,-1,-1,-1,-1,-1,-1,-1,-1,-1,-1],"loss_changes":[2.423341E1,1.6288744E1,5.502331E0,5.4995327E0,1.8185883E1,6.205025E-1,4.1514187E0,3.8661766E0,0E0,2.0965137E1,4.2390488E1,5.930643E-1,0E0,1.1192606E1,2.6568985E0,0E0,0E0,0E0,0E0,0E0,0E0,0E0,0E0,0E0,0E0,0E0,0E0],"parents":[2147483647,0,0,1,1,2,2,3,3,4,4,5,5,6,6,7,7,9,9,10,10,11,11,13,13,14,14],"right_children":[2,4,6,8,10,12,14,16,-1,18,20,22,-1,24,26,-1,-1,-1,-1,-1,-1,-1,-1,-1,-1,-1,-1],"split_conditions":[1.787412E-2,-6.6479445E-2,-4.556986E-2,1.7681371E-2,-2.2511065E-2,2.031531E-2,5.9787743E-2,-9.7862534E-2,4.629774E-2,-6.518534E-2,-1.4113143E-2,-5.1691372E-2,-2.1879906E-3,3.9986774E-2,7.338041E-3,3.6217004E-2,-3.432187E-2,-2.6951933E-2,1.4116876E-2,-2.0423505E-2,3.3376177E-3,-4.6533872E-3,-4.7010344E-2,-1.4255866E-2,4.8552718E-2,-1.6783789E-2,-5.0502E-2],"split_indices":[6,2,4,6,2,0,6,5,0,5,5,1,0,3,4,0,0,0,0,0,0,0,0,0,0,0,0],"split_type":[0,0,0,0,0,0,0,0,0,0,0,0,0,0,0,0,0,0,0,0,0,0,0,0,0,0,0],"sum_hessian":[1.6273855E3,1.2798544E3,3.4753113E2,5.068265E1,1.2291716E3,1.793618E1,3.2959494E2,4.9180702E1,1.501951E0,3.3404538E2,8.951263E2,1.692039E1,1.0157897E0,3.0424326E2,2.535168E1,1.2405721E0,4.794013E1,3.3720497E1,3.003249E2,2.6647754E2,6.2864874E2,1.1145205E0,1.5805869E1,2.979344E2,6.308877E0,1.3635957E1,1.1715725E1],"tree_param":{"num_deleted":"0","num_feature":"8","num_nodes":"27","size_leaf_vector":"1"}},{"base_weights":[-9.125825E-2,3.1463657E-2,-2.0936006E-1,-9.035912E-1,6.0229916E-2,-8.576733E-2,-3.042108E-1,-4.9949475E-2,-1.545206E-1,3.2526042E-2,7.79458E-1,-7.382321E-1,-2.4649706E-2,-1.5457961E-1,-4.26579E-1,2.3011269E-2,-3.6880143E-2,4.2782314E-3,-1.703035E-2,6.732021E-2,-1.4279835E-2,1.119107E-2,-4.347599E-2,4.7599464E-3,-1.2524679E-2,-2.211782E-2,3.6074824E-3,-1.2607149E-2,-2.9718606E-2],"categories":[],"categories_nodes":[],"categories_segments":[],"categories_sizes":[],"default_left":[0,0,0,0,0,0,0,0,0,0,0,0,0,0,0,0,0,0,0,0,0,0,0,0,0,0,0,0,0],"id":43,"left_children":[1,3,5,7,9,11,13,-1,15,17,19,21,23,25,27,-1,-1,-1,-1,-1,-1,-1,-1,-1,-1,-1,-1,-1,-1],"loss_changes":[2.350896E1,2.1467808E1,9.662445E0,1.5480118E0,1.5382406E1,1.4347668E1,8.488747E0,0E0,1.7281609E0,1.4785592E1,1.767655E1,4.0874653E0,8.967695E0,1.3848662E1,7.3562737E0,0E0,0E0,0E0,0E0,0E0,0E0,0E0,0E0,0E0,0E0,0E0,0E0,0E0,0E0],"parents":[2147483647,0,0,1,1,2,2,3,3,4,4,5,5,6,6,8,8,9,9,10,10,11,11,12,12,13,13,14,14],"right_children":[2,4,6,8,10,12,14,-1,16,18,20,22,24,26,28,-1,-1,-1,-1,-1,-1,-1,-1,-1,-1,-1,-1,-1,-1],"split_conditions":[3.8700254E4,5.0392444E-3,1.3718848E-2,2.7135544E3,1.8831123E-2,-7.6878434E-3,-7.6510347E-3,-4.9949475E-2,3.3101512E-3,1.6501537E-2,3.4606755E-2,8.9115305E-3,3.527151E-3,-6.6066444E-2,2.832762E5,2.3011269E-2,-3.6880143E-2,4.2782314E-3,-1.703035E-2,6.732021E-2,-1.4279835E-2,1.119107E-2,-4.347599E-2,4.7599464E-3,-1.2524679E-2,-2.211782E-2,3.6074824E-3,-1.2607149E-2,-2.9718606E-2],"split_indices":[7,6,6,7,3,4,3,0,3,6,6,6,0,5,7,0,0,0,0,0,0,0,0,0,0,0,0,0,0],"split_type":[0,0,0,0,0,0,0,0,0,0,0,0,0,0,0,0,0,0,0,0,0,0,0,0,0,0,0,0,0],"sum_hessian":[1.6205599E3,7.950949E2,8.254651E2,2.2822784E1,7.722721E2,3.5925357E2,4.6621152E2,1.9948584E1,2.8742006E0,7.446348E2,2.7637291E1,2.9820818E1,3.2943274E2,2.1075931E2,2.5545222E2,1.5016779E0,1.3725226E0,6.5263715E2,9.199769E1,1.7863884E1,9.773406E0,3.4962306E0,2.6324587E1,2.1559915E2,1.1383359E2,9.2456985E1,1.1830232E2,1.2647391E2,1.2897832E2],"tree_param":{"num_deleted":"0","num_feature":"8","num_nodes":"29","size_leaf_vector":"1"}},{"base_weights":[-8.344092E-2,9.032668E-3,-2.3219073E-1,-7.219654E-1,3.1210411E-2,-1.9927359E-1,-7.5575405E-1,4.2115736E-1,-8.9113295E-1,4.724052E-2,-8.822067E-1,-1.5290482E-1,-5.0717396E-1,2.971645E-1,-8.499475E-1,-2.7405068E-2,9.41815E-2,-5.26863E-2,-1.4235769E-2,2.251834E-2,1.5953924E-4,-5.2004214E-2,2.0676097E-2,-1.1100303E-2,5.731044E-3,-5.101844E-3,-3.263967E-2,-2.7076447E-2,4.1121993E-2,1.3593948E-2,-4.5184735E-2],"categories":[],"categories_nodes":[],"categories_segments":[],"categories_sizes":[],"default_left":[0,0,0,0,0,0,0,0,0,0,0,0,0,0,0,0,0,0,0,0,0,0,0,0,0,0,0,0,0,0,0],"id":44,"left_children":[1,3,5,7,9,11,13,15,17,19,21,23,25,27,29,-1,-1,-1,-1,-1,-1,-1,-1,-1,-1,-1,-1,-1,-1,-1,-1],"loss_changes":[2.2191975E1,1.6165054E1,1.0507908E1,6.053135E0,1.42059355E1,8.249155E0,3.8452759E0,7.360219E0,2.2534199E0,1.6897154E1,3.8534832E0,9.42247E0,4.411434E0,2.0822155E0,2.2661343E0,0E0,0E0,0E0,0E0,0E0,0E0,0E0,0E0,0E0,0E0,0E0,0E0,0E0,0E0,0E0,0E0],"parents":[2147483647,0,0,1,1,2,2,3,3,4,4,5,5,6,6,7,7,8,8,9,9,10,10,11,11,12,12,13,13,14,14],"right_children":[2,4,6,8,10,12,14,16,18,20,22,24,26,28,30,-1,-1,-1,-1,-1,-1,-1,-1,-1,-1,-1,-1,-1,-1,-1,-1],"split_conditions":[1.0189439E5,-2.5891886E1,1.8831123E-2,-1.25042815E-2,6.6312195E1,2.0344705E9,-4.6585333E-2,-3.605284E-2,7.495835E1,1.0318367E2,7.7192985E-2,-3.7744853E-3,-1.1507118E-2,-9.539474E-2,3.4829546E-2,-2.7405068E-2,9.41815E-2,-5.26863E-2,-1.4235769E-2,2.251834E-2,1.5953924E-4,-5.2004214E-2,2.0676097E-2,-1.1100303E-2,5.731044E-3,-5.101844E-3,-3.263967E-2,-2.7076447E-2,4.1121993E-2,1.3593948E-2,-4.5184735E-2],"split_indices":[7,4,3,3,4,7,1,2,7,7,2,5,3,1,2,0,0,0,0,0,0,0,0,0,0,0,0,0,0,0,0],"split_type":[0,0,0,0,0,0,0,0,0,0,0,0,0,0,0,0,0,0,0,0,0,0,0,0,0,0,0,0,0,0,0],"sum_hessian":[1.6121725E3,9.947213E2,6.174512E2,2.8361092E1,9.663602E2,5.8222644E2,3.5224747E1,3.464011E0,2.489708E1,9.506254E2,1.5734821E1,5.0732202E2,7.49044E1,2.7154899E0,3.2509254E1,2.4593146E0,1.0046964E0,1.9051388E1,5.8456926E0,9.273414E1,8.578913E2,1.4201716E1,1.5331055E0,4.0331647E2,1.0400554E2,2.0254309E1,5.4650093E1,1.0338405E0,1.6816492E0,1.3007672E0,3.1208488E1],"tree_param":{"num_deleted":"0","num_feature":"8","num_nodes":"31","size_leaf_vector":"1"}},{"base_weights":[-6.898563E-2,-1.1430441E-2,-2.6341686E-1,-9.41799E-1,2.32412E-3,1.5734635E-1,-3.029817E-1,-4.9268056E-2,-1.5110566E-2,9.046646E-2,-1.5874822E-1,3.992775E-1,-7.904239E-1,-4.942968E-2,-2.7078384E-1,5.1495933E-4,2.484492E-2,-1.3671145E-2,1.1742928E-2,6.930657E-2,5.1124794E-3,-4.5178007E-2,-3.950577E-3,7.958216E-3,-1.6403278E-2],"categories":[],"categories_nodes":[],"categories_segments":[],"categories_sizes":[],"default_left":[0,0,0,0,0,0,0,0,0,0,0,0,0,0,0,0,0,0,0,0,0,0,0,0,0],"id":45,"left_children":[1,3,5,7,9,11,13,-1,-1,15,17,19,21,-1,23,-1,-1,-1,-1,-1,-1,-1,-1,-1,-1],"loss_changes":[1.808619E1,1.5976543E1,6.1933556E0,2.0897865E-1,1.749292E1,7.7419653E0,7.188858E0,0E0,0E0,2.5941446E1,1.9734154E1,7.616061E0,4.8572063E-1,0E0,8.03187E0,0E0,0E0,0E0,0E0,0E0,0E0,0E0,0E0,0E0,0E0],"parents":[2147483647,0,0,1,1,2,2,3,3,4,4,5,5,6,6,9,9,10,10,11,11,12,12,14,14],"right_children":[2,4,6,8,10,12,14,-1,-1,16,18,20,22,-1,24,-1,-1,-1,-1,-1,-1,-1,-1,-1,-1],"split_conditions":[1.7261062E-2,4.7230944E-3,-4.6585333E-2,7.845685E-3,3.8749678E-3,7.064255E-2,-6.58477E-2,-4.9268056E-2,-1.5110566E-2,-3.6070358E-3,1.2390477E-2,3.5044523E4,-1.0582822E-1,-4.942968E-2,1.4914688E4,5.1495933E-4,2.484492E-2,-1.3671145E-2,1.1742928E-2,6.930657E-2,5.1124794E-3,-4.5178007E-2,-3.950577E-3,7.958216E-3,-1.6403278E-2],"split_indices":[6,6,1,1,3,6,4,0,0,5,3,7,5,0,7,0,0,0,0,0,0,0,0,0,0],"split_type":[0,0,0,0,0,0,0,0,0,0,0,0,0,0,0,0,0,0,0,0,0,0,0,0,0],"sum_hessian":[1.6154745E3,1.2473075E3,3.68167E2,1.7188566E1,1.2301189E3,3.1387804E1,3.3677917E2,1.5586366E1,1.602201E0,7.953333E2,4.3478558E2,2.5465986E1,5.9218173E0,1.3774088E1,3.230051E2,6.6515845E2,1.3017484E2,3.3692896E2,9.785663E1,5.043304E0,2.0422684E1,4.876252E0,1.0455652E0,3.7765347E1,2.8523975E2],"tree_param":{"num_deleted":"0","num_feature":"8","num_nodes":"25","size_leaf_vector":"1"}},{"base_weights":[-6.63832E-2,5.4404374E-2,-1.4304286E-1,-8.4357935E-1,8.69549E-2,-1.21233046E-1,-1.020459E0,4.321295E-2,-9.6980554E-1,1.0874087E-1,-5.0675966E-2,-1.3854313E-1,6.870862E-1,-2.1492685E-1,-5.509938E-2,1.6312074E-2,-5.281796E-2,-2.4639865E-2,7.368799E-3,-5.696429E-3,-3.2779634E-2,-4.034252E-2,8.167381E-2,-3.265465E-2,2.0421099E-2],"categories":[],"categories_nodes":[],"categories_segments":[],"categories_sizes":[],"default_left":[0,0,0,0,0,0,0,0,0,0,0,0,0,0,0,0,0,0,0,0,0,0,0,0,0],"id":46,"left_children":[1,3,5,7,9,11,13,-1,15,17,-1,19,21,23,-1,-1,-1,-1,-1,-1,-1,-1,-1,-1,-1],"loss_changes":[1.4887369E1,1.8331139E1,1.8693363E1,5.568552E0,1.4583498E1,1.3536049E1,1.3205833E0,0E0,2.689619E0,1.3851187E1,0E0,1.1905148E1,3.0030052E1,1.2013535E0,0E0,0E0,0E0,0E0,0E0,0E0,0E0,0E0,0E0,0E0,0E0],"parents":[2147483647,0,0,1,1,2,2,3,3,4,4,5,5,6,6,8,8,9,9,11,11,12,12,13,13],"right_children":[2,4,6,8,10,12,14,-1,16,18,-1,20,22,24,-1,-1,-1,-1,-1,-1,-1,-1,-1,-1,-1],"split_conditions":[1.1088168E-2,-2.5891886E1,6.9336313E-1,-1.0039391E-2,1.3068137E2,3.1701913E-1,-1.589041E-2,4.321295E-2,-1.2196347E-2,