{"learner":{"attributes":{"scikit_learn":"{\"_estimator_type\": \"classifier\"}"},"feature_names":["ret_1h","ret_4h","ret_24h","ema_spread","ema26_slope","breakout_pct","atr_pct","volume"],"feature_types":["float","float","float","float","float","float","float","float"],"gradient_booster":{"model":{"gbtree_model_param":{"num_parallel_tree":"1","num_trees":"300"},"iteration_indptr":[0,1,2,3,4,5,6,7,8,9,10,11,12,13,14,15,16,17,18,19,20,21,22,23,24,25,26,27,28,29,30,31,32,33,34,35,36,37,38,39,40,41,42,43,44,45,46,47,48,49,50,51,52,53,54,55,56,57,58,59,60,61,62,63,64,65,66,67,68,69,70,71,72,73,74,75,76,77,78,79,80,81,82,83,84,85,86,87,88,89,90,91,92,93,94,95,96,97,98,99,100,101,102,103,104,105,106,107,108,109,110,111,112,113,114,115,116,117,118,119,120,121,122,123,124,125,126,127,128,129,130,131,132,133,134,135,136,137,138,139,140,141,142,143,144,145,146,147,148,149,150,151,152,153,154,155,156,157,158,159,160,161,162,163,164,165,166,167,168,169,170,171,172,173,174,175,176,177,178,179,180,181,182,183,184,185,186,187,188,189,190,191,192,193,194,195,196,197,198,199,200,201,202,203,204,205,206,207,208,209,210,211,212,213,214,215,216,217,218,219,220,221,222,223,224,225,226,227,228,229,230,231,232,233,234,235,236,237,238,239,240,241,242,243,244,245,246,247,248,249,250,251,252,253,254,255,256,257,258,259,260,261,262,263,264,265,266,267,268,269,270,271,272,273,274,275,276,277,278,279,280,281,282,283,284,285,286,287,288,289,290,291,292,293,294,295,296,297,298,299,300],"tree_info":[0,0,0,0,0,0,0,0,0,0,0,0,0,0,0,0,0,0,0,0,0,0,0,0,0,0,0,0,0,0,0,0,0,0,0,0,0,0,0,0,0,0,0,0,0,0,0,0,0,0,0,0,0,0,0,0,0,0,0,0,0,0,0,0,0,0,0,0,0,0,0,0,0,0,0,0,0,0,0,0,0,0,0,0,0,0,0,0,0,0,0,0,0,0,0,0,0,0,0,0,0,0,0,0,0,0,0,0,0,0,0,0,0,0,0,0,0,0,0,0,0,0,0,0,0,0,0,0,0,0,0,0,0,0,0,0,0,0,0,0,0,0,0,0,0,0,0,0,0,0,0,0,0,0,0,0,0,0,0,0,0,0,0,0,0,0,0,0,0,0,0,0,0,0,0,0,0,0,0,0,0,0,0,0,0,0,0,0,0,0,0,0,0,0,0,0,0,0,0,0,0,0,0,0,0,0,0,0,0,0,0,0,0,0,0,0,0,0,0,0,0,0,0,0,0,0,0,0,0,0,0,0,0,0,0,0,0,0,0,0,0,0,0,0,0,0,0,0,0,0,0,0,0,0,0,0,0,0,0,0,0,0,0,0,0,0,0,0,0,0,0,0,0,0,0,0,0,0,0,0,0,0,0,0,0,0,0,0,0,0,0,0,0,0,0,0,0,0,0,0],"trees":[{"base_weights":[-2.3056993E-1,1.0683962E-1,-2.830391E-1,9.1278875E-1,-1.6885784E-2,-6.190214E-1,-2.5726E-1,2.1823306E0,7.956352E-1,1.0454049E0,-4.9105603E-2,1.20404534E-1,-7.8032076E-1,-1.4851607E-1,-2.8899825E-1,1.2945937E-1,9.159278E-2,5.9633225E-2,2.6235422E-2,9.259499E-2,1.674013E-2,6.274423E-3,-6.478177E-3,4.0696125E-2,-7.815613E-3,-2.7881926E-2,-5.5537898E-2,2.7564827E-3,-9.793407E-3,-1.3957098E-2,-2.651552E-2],"categories":[],"categories_nodes":[],"categories_segments":[],"categories_sizes":[],"default_left":[0,0,0,0,0,0,0,0,0,0,0,0,0,0,0,0,0,0,0,0,0,0,0,0,0,0,0,0,0,0,0],"id":0,"left_children":[1,3,5,7,9,11,13,15,17,19,21,23,25,27,29,-1,-1,-1,-1,-1,-1,-1,-1,-1,-1,-1,-1,-1,-1,-1,-1],"loss_changes":[5.397333E3,4.0913416E3,2.2850605E3,8.104009E2,1.2175059E3,2.2424253E3,8.456797E2,6.0956055E1,5.3727734E2,5.9949744E2,4.849922E2,6.464026E2,1.1350527E3,5.338773E2,4.509961E2,0E0,0E0,0E0,0E0,0E0,0E0,0E0,0E0,0E0,0E0,0E0,0E0,0E0,0E0,0E0,0E0],"parents":[2147483647,0,0,1,1,2,2,3,3,4,4,5,5,6,6,7,7,8,8,9,9,10,10,11,11,12,12,13,13,14,14],"right_children":[2,4,6,8,10,12,14,16,18,20,22,24,26,28,30,-1,-1,-1,-1,-1,-1,-1,-1,-1,-1,-1,-1,-1,-1,-1,-1],"split_conditions":[-8.7507196E-2,3.03E0,2.0757022E-3,-7.496823E-2,-6.792453E-2,-2.1878048E-3,-2.9409878E-2,-1.0828026E-1,-1.2541386E-1,2.69398E3,6.7492E2,2.0716357E-4,3.474E1,4.655E0,3.3378856E5,1.2945937E-1,9.159278E-2,5.9633225E-2,2.6235422E-2,9.259499E-2,1.674013E-2,6.274423E-3,-6.478177E-3,4.0696125E-2,-7.815613E-3,-2.7881926E-2,-5.5537898E-2,2.7564827E-3,-9.793407E-3,-1.3957098E-2,-2.651552E-2],"split_indices":[5,7,6,1,0,3,2,1,5,7,7,6,7,7,7,0,0,0,0,0,0,0,0,0,0,0,0,0,0,0,0],"split_type":[0,0,0,0,0,0,0,0,0,0,0,0,0,0,0,0,0,0,0,0,0,0,0,0,0,0,0,0,0,0,0],"sum_hessian":[3.048694E5,4.1028633E4,2.6384078E5,5.459432E3,3.55692E4,1.879963E4,2.4504114E5,4.5974518E2,4.9996865E3,1.046148E3,3.452305E4,3.36663E3,1.5433002E4,5.5361855E4,1.896793E5,2.0980301E2,2.4994217E2,2.0265217E3,2.973165E3,4.8925928E2,5.568887E2,1.0890361E4,2.363269E4,9.596295E2,2.4070005E3,9.221382E3,6.2116196E3,1.0444277E4,4.491758E4,1.8223803E5,7.4412607E3],"tree_param":{"num_deleted":"0","num_feature":"8","num_nodes":"31","size_leaf_vector":"1"}},{"base_weights":[-2.2008298E-1,1.01972386E-1,-2.707241E-1,8.6041355E-1,-1.7477259E-2,-5.972032E-1,-2.4598004E-1,1.9961923E0,7.521703E-1,6.1363E-1,-5.528886E-2,1.2529343E-1,-7.576885E-1,-1.483903E-1,-2.797256E-1,1.14867084E-1,8.6273775E-2,5.5963606E-2,2.4842443E-2,6.280925E-2,1.4894095E-2,5.6557255E-3,-6.898384E-3,3.8040083E-2,-6.84931E-3,-2.6830569E-2,-5.45354E-2,-8.823842E-4,-1.0566208E-2,-1.34740835E-2,-2.5545E-2],"categories":[],"categories_nodes":[],"categories_segments":[],"categories_sizes":[],"default_left":[0,0,0,0,0,0,0,0,0,0,0,0,0,0,0,0,0,0,0,0,0,0,0,0,0,0,0,0,0,0,0],"id":1,"left_children":[1,3,5,7,9,11,13,15,17,19,21,23,25,27,29,-1,-1,-1,-1,-1,-1,-1,-1,-1,-1,-1,-1,-1,-1,-1,-1],"loss_changes":[4.9389756E3,3.727906E3,2.1138457E3,6.868286E2,8.483897E2,2.1376572E3,8.010322E2,3.5703247E1,4.7871167E2,4.0735352E2,4.670366E2,5.5873944E2,1.1099941E3,5.142809E2,4.2789746E2,0E0,0E0,0E0,0E0,0E0,0E0,0E0,0E0,0E0,0E0,0E0,0E0,0E0,0E0,0E0,0E0],"parents":[2147483647,0,0,1,1,2,2,3,3,4,4,5,5,6,6,7,7,8,8,9,9,10,10,11,11,12,12,13,13,14,14],"right_children":[2,4,6,8,10,12,14,16,18,20,22,24,26,28,30,-1,-1,-1,-1,-1,-1,-1,-1,-1,-1,-1,-1,-1,-1,-1,-1],"split_conditions":[-8.7507196E-2,3.03E0,2.0757022E-3,-7.496823E-2,-8.605201E-2,-2.1878048E-3,-2.5316456E-2,-1.0828026E-1,-1.2541386E-1,1.41397E3,7.1512E2,2.0716357E-4,3.474E1,9E1,2.8716403E5,1.14867084E-1,8.6273775E-2,5.5963606E-2,2.4842443E-2,6.280925E-2,1.4894095E-2,5.6557255E-3,-6.898384E-3,3.8040083E-2,-6.84931E-3,-2.6830569E-2,-5.45354E-2,-8.823842E-4,-1.0566208E-2,-1.34740835E-2,-2.5545E-2],"split_indices":[5,7,6,1,1,3,2,1,5,7,7,6,7,7,7,0,0,0,0,0,0,0,0,0,0,0,0,0,0,0,0],"split_type":[0,0,0,0,0,0,0,0,0,0,0,0,0,0,0,0,0,0,0,0,0,0,0,0,0,0,0,0,0,0,0],"sum_hessian":[3.0283034E5,4.114773E4,2.6168262E5,5.597895E3,3.5549832E4,1.8434201E4,2.4324842E5,4.8555908E2,5.112336E3,2.0086447E3,3.3541188E4,3.3505261E3,1.5083676E4,6.250214E4,1.8074628E5,2.2631601E2,2.5924307E2,2.0957205E3,3.0166155E3,6.608404E2,1.3478042E3,1.1044652E4,2.2496537E4,9.78267E2,2.372259E3,9.06706E3,6.016616E3,2.0310066E4,4.2192074E4,1.7307886E5,7.667411E3],"tree_param":{"num_deleted":"0","num_feature":"8","num_nodes":"31","size_leaf_vector":"1"}},{"base_weights":[-2.1093138E-1,9.35309E-2,-2.5933146E-1,6.886449E-1,-3.9003793E-2,-5.667482E-1,-2.3467867E-1,1.7623577E0,5.8683556E-1,4.84255E-1,-7.100564E-2,1.01305075E-1,-7.2528607E-1,-1.3549413E-1,-2.6394767E-1,1.0309934E-1,7.585464E-2,3.5743777E-2,3.462429E-3,5.007356E-2,1.3065024E-2,4.1080983E-3,-6.6368E-3,3.592275E-2,-6.4555663E-3,-2.5192177E-2,-5.319577E-2,2.9050366E-3,-9.040869E-3,-1.2647475E-2,-2.2751866E-2],"categories":[],"categories_nodes":[],"categories_segments":[],"categories_sizes":[],"default_left":[0,0,0,0,0,0,0,0,0,0,0,0,0,0,0,0,0,0,0,0,0,0,0,0,0,0,0,0,0,0,0],"id":2,"left_children":[1,3,5,7,9,11,13,15,17,19,21,23,25,27,29,-1,-1,-1,-1,-1,-1,-1,-1,-1,-1,-1,-1,-1,-1,-1,-1],"loss_changes":[4.434295E3,3.2555508E3,1.9675957E3,8.2078784E2,5.65327E2,2.0415137E3,6.977529E2,4.4684814E1,4.5513013E2,2.2411453E2,3.0081177E2,5.2591846E2,1.1676221E3,4.805907E2,3.8994043E2,0E0,0E0,0E0,0E0,0E0,0E0,0E0,0E0,0E0,0E0,0E0,0E0,0E0,0E0,0E0,0E0],"parents":[2147483647,0,0,1,1,2,2,3,3,4,4,5,5,6,6,7,7,8,8,9,9,10,10,11,11,12,12,13,13,14,14],"right_children":[2,4,6,8,10,12,14,16,18,20,22,24,26,28,30,-1,-1,-1,-1,-1,-1,-1,-1,-1,-1,-1,-1,-1,-1,-1,-1],"split_conditions":[-8.7507196E-2,2.339E1,2.2184728E-3,-7.496823E-2,-8.605201E-2,-2.1878048E-3,-2.9409878E-2,-1.0828026E-1,5.1282053E-3,1.41397E3,6.7492E2,2.0716357E-4,3.958E1,4.655E0,1.732127E5,1.0309934E-1,7.585464E-2,3.5743777E-2,3.462429E-3,5.007356E-2,1.3065024E-2,4.1080983E-3,-6.6368E-3,3.592275E-2,-6.4555663E-3,-2.5192177E-2,-5.319577E-2,2.9050366E-3,-9.040869E-3,-1.2647475E-2,-2.2751866E-2],"split_indices":[5,7,6,1,1,3,2,1,1,7,7,6,7,7,7,0,0,0,0,0,0,0,0,0,0,0,0,0,0,0,0],"split_type":[0,0,0,0,0,0,0,0,0,0,0,0,0,0,0,0,0,0,0,0,0,0,0,0,0,0,0,0,0,0,0],"sum_hessian":[3.009132E5,4.127439E4,2.5963881E5,7.516996E3,3.3757395E4,1.9273914E4,2.4036489E5,6.4961755E2,6.8673784E3,1.9447566E3,3.1812637E4,3.6967517E3,1.5577162E4,5.4770043E4,1.8559484E5,2.8906857E2,3.6054895E2,5.505143E3,1.3622357E3,5.8474854E2,1.360008E3,9.138222E3,2.2674416E4,1.0044101E3,2.6923416E3,9.41973E3,6.1574316E3,1.0389936E4,4.438011E4,1.7549645E5,1.0098389E4],"tree_param":{"num_deleted":"0","num_feature":"8","num_nodes":"31","size_leaf_vector":"1"}},{"base_weights":[-2.0074992E-1,9.2846796E-2,-2.4785537E-1,7.421213E-1,-1.3965433E-2,-2.117769E-1,-4.0861055E-1,8.806486E-1,1.3135794E-1,9.532268E-1,-4.4492703E-2,-1.7417102E-1,-2.940466E-1,-6.1319417E-1,-2.831021E-1,3.1781457E-2,6.576512E-2,2.2536643E-2,1.4990809E-3,8.719698E-2,2.1918925E-2,3.1318497E-2,-3.209287E-3,-4.1262954E-3,-1.0879113E-2,-1.3633921E-2,-2.2976149E-2,1.665159E-2,-3.4555502E-2,-1.3458676E-2,-3.5108294E-2],"categories":[],"categories_nodes":[],"categories_segments":[],"categories_sizes":[],"default_left":[0,0,0,0,0,0,0,0,0,0,0,0,0,0,0,0,0,0,0,0,0,0,0,0,0,0,0,0,0,0,0],"id":3,"left_children":[1,3,5,7,9,11,13,15,17,19,21,23,25,27,29,-1,-1,-1,-1,-1,-1,-1,-1,-1,-1,-1,-1,-1,-1,-1,-1],"loss_changes":[4.1366797E3,2.8680183E3,1.4948281E3,4.9418384E2,1.0486199E3,6.5123145E2,1.2128984E3,5.0630957E2,3.499523E1,4.416153E2,4.548841E2,5.747627E2,2.3337842E2,1.3245122E3,1.707312E2,0E0,0E0,0E0,0E0,0E0,0E0,0E0,0E0,0E0,0E0,0E0,0E0,0E0,0E0,0E0,0E0],"parents":[2147483647,0,0,1,1,2,2,3,3,4,4,5,5,6,6,7,7,8,8,9,9,10,10,11,11,12,12,13,13,14,14],"right_children":[2,4,6,8,10,12,14,16,18,20,22,24,26,28,30,-1,-1,-1,-1,-1,-1,-1,-1,-1,-1,-1,-1,-1,-1,-1,-1],"split_conditions":[-8.7507196E-2,3.03E0,-5.952381E-3,2.6737968E-3,-6.792453E-2,3.2315E3,2.6737968E-3,-4E-4,-1.4937107E-1,1.01444E3,-5.8028694E-2,-2.363724E-2,3.3378856E5,-1.5870841E-3,4.644714E-2,3.1781457E-2,6.576512E-2,2.2536643E-2,1.4990809E-3,8.719698E-2,2.1918925E-2,3.1318497E-2,-3.209287E-3,-4.1262954E-3,-1.0879113E-2,-1.3633921E-2,-2.2976149E-2,1.665159E-2,-3.4555502E-2,-1.3458676E-2,-3.5108294E-2],"split_indices":[5,7,5,1,0,7,1,1,5,7,3,2,7,3,0,0,0,0,0,0,0,0,0,0,0,0,0,0,0,0,0],"split_type":[0,0,0,0,0,0,0,0,0,0,0,0,0,0,0,0,0,0,0,0,0,0,0,0,0,0,0,0,0,0,0],"sum_hessian":[2.991064E5,4.1354285E4,2.5775211E5,5.841272E3,3.5513016E4,2.1050955E5,4.7242562E4,4.7609893E3,1.0802826E3,1.0856686E3,3.4427348E4,1.4447325E5,6.6036305E4,1.796121E4,2.928135E4,3.046246E3,1.7147432E3,2.5945428E2,8.208283E2,4.2719217E2,6.584764E2,9.80909E2,3.3446438E4,4.643905E4,9.803419E4,5.84865E4,7.5498027E3,1.366225E3,1.6594986E4,2.834101E4,9.4034015E2],"tree_param":{"num_deleted":"0","num_feature":"8","num_nodes":"31","size_leaf_vector":"1"}},{"base_weights":[-1.9329824E-1,8.647114E-2,-2.3867841E-1,6.574741E-1,-2.1027055E-2,-2.0325947E-1,-3.974173E-1,1.538941E0,5.706624E-1,4.0060547E-1,-8.641299E-2,-1.0139346E-1,-2.3232667E-1,-5.965491E-1,-2.7664384E-1,8.919769E-2,6.596449E-2,4.1309834E-2,1.6061626E-2,5.1926594E-2,9.719757E-3,2.7199185E-2,-5.2276445E-3,4.7338097E-3,-7.4279304E-3,-1.1042028E-2,-2.1745348E-2,1.4824149E-2,-3.375859E-2,-1.2865662E-2,-2.8055906E-2],"categories":[],"categories_nodes":[],"categories_segments":[],"categories_sizes":[],"default_left":[0,0,0,0,0,0,0,0,0,0,0,0,0,0,0,0,0,0,0,0,0,0,0,0,0,0,0,0,0,0,0],"id":4,"left_children":[1,3,5,7,9,11,13,15,17,19,21,23,25,27,29,-1,-1,-1,-1,-1,-1,-1,-1,-1,-1,-1,-1,-1,-1,-1,-1],"loss_changes":[3.775544E3,2.5476716E3,1.438544E3,5.0231934E2,9.6302026E2,6.194072E2,1.1223994E3,2.9343506E1,3.8139136E2,6.167307E2,3.4587732E2,4.2951373E2,3.786172E2,1.2374092E3,1.5964038E2,0E0,0E0,0E0,0E0,0E0,0E0,0E0,0E0,0E0,0E0,0E0,0E0,0E0,0E0,0E0,0E0],"parents":[2147483647,0,0,1,1,2,2,3,3,4,4,5,5,6,6,7,7,8,8,9,9,10,10,11,11,12,12,13,13,14,14],"right_children":[2,4,6,8,10,12,14,16,18,20,22,24,26,28,30,-1,-1,-1,-1,-1,-1,-1,-1,-1,-1,-1,-1,-1,-1,-1,-1],"split_conditions":[-8.7507196E-2,8.35E0,-5.952381E-3,-7.496823E-2,-3.0330881E-2,-3.4414224E-2,2.6737968E-3,-1.0828026E-1,-1.1741613E-1,5.826093E2,-5.8028694E-2,3.78E0,1.732127E5,-1.4870568E-3,6.1778408E-2,8.919769E-2,6.596449E-2,4.1309834E-2,1.6061626E-2,5.1926594E-2,9.719757E-3,2.7199185E-2,-5.2276445E-3,4.7338097E-3,-7.4279304E-3,-1.1042028E-2,-2.1745348E-2,1.4824149E-2,-3.375859E-2,-1.2865662E-2,-2.8055906E-2],"split_indices":[5,7,5,1,0,2,1,1,5,7,3,7,7,3,1,0,0,0,0,0,0,0,0,0,0,0,0,0,0,0,0],"split_type":[0,0,0,0,0,0,0,0,0,0,0,0,0,0,0,0,0,0,0,0,0,0,0,0,0,0,0,0,0,0,0],"sum_hessian":[2.9737838E5,4.150411E4,2.5587428E5,6.5748843E3,3.4929223E4,2.0919867E5,4.6675605E4,5.8797644E2,5.986908E3,4.688826E3,3.0240398E4,4.6443168E4,1.6275552E5,1.76199E4,2.9055705E4,2.745758E2,3.1340067E2,2.956124E3,3.030784E3,1.144426E3,3.5444001E3,8.4502856E2,2.939537E4,9.005501E3,3.7437664E4,1.5402453E5,8.730976E3,1.4255125E3,1.6194387E4,2.720872E4,1.846984E3],"tree_param":{"num_deleted":"0","num_feature":"8","num_nodes":"31","size_leaf_vector":"1"}},{"base_weights":[-1.8446383E-1,8.25663E-2,-2.2815499E-1,6.515692E-1,-1.4403996E-2,-5.0633365E-1,-2.034869E-1,7.87315E-1,1.1718308E-1,4.9997565E-1,-6.637386E-2,-2.9981872E-1,-9.7146046E-1,-1.3280451E-1,-2.3750092E-1,2.782034E-2,6.0760815E-2,1.0214626E-1,5.1882965E-3,6.7761615E-2,1.4814085E-2,3.4248014E-3,-6.46693E-3,-2.7417967E-3,-2.5908897E-2,-2.4286883E-2,-5.2678294E-2,-5.7333574E-4,-9.66501E-3,-1.1482899E-2,-2.6662529E-2],"categories":[],"categories_nodes":[],"categories_segments":[],"categories_sizes":[],"default_left":[0,0,0,0,0,0,0,0,0,0,0,0,0,0,0,0,0,0,0,0,0,0,0,0,0,0,0,0,0,0,0],"id":5,"left_children":[1,3,5,7,9,11,13,15,17,19,21,23,25,27,29,-1,-1,-1,-1,-1,-1,-1,-1,-1,-1,-1,-1,-1,-1,-1,-1],"loss_changes":[3.4481602E3,2.2930652E3,1.7428281E3,4.3886987E2,9.492525E2,1.9869116E3,5.608799E2,4.7609155E2,3.1489967E1,5.6725867E2,2.738853E2,7.664568E2,2.5315479E2,5.5639465E2,3.652246E2,0E0,0E0,0E0,0E0,0E0,0E0,0E0,0E0,0E0,0E0,0E0,0E0,0E0,0E0,0E0,0E0],"parents":[2147483647,0,0,1,1,2,2,3,3,4,4,5,5,6,6,7,7,8,8,9,9,10,10,11,11,12,12,13,13,14,14],"right_children":[2,4,6,8,10,12,14,16,18,20,22,24,26,28,30,-1,-1,-1,-1,-1,-1,-1,-1,-1,-1,-1,-1,-1,-1,-1,-1],"split_conditions":[-8.7507196E-2,3.03E0,2.5029886E-3,8.237232E-4,-3.9020482E-2,1.1039E2,-4.1898526E-2,-4E-4,-5.1940117E-2,2.4443E2,6.3612E2,0E0,-8.96861E-3,1.4989E2,3.3333335E-2,2.782034E-2,6.0760815E-2,1.0214626E-1,5.1882965E-3,6.7761615E-2,1.4814085E-2,3.4248014E-3,-6.46693E-3,-2.7417967E-3,-2.5908897E-2,-2.4286883E-2,-5.2678294E-2,-5.7333574E-4,-9.66501E-3,-1.1482899E-2,-2.6662529E-2],"split_indices":[5,7,6,1,0,7,5,1,0,7,7,4,5,7,0,0,0,0,0,0,0,0,0,0,0,0,0,0,0,0,0],"split_type":[0,0,0,0,0,0,0,0,0,0,0,0,0,0,0,0,0,0,0,0,0,0,0,0,0,0,0,0,0,0,0],"sum_hessian":[2.955492E5,4.1557656E4,2.5399155E5,6.0502495E3,3.5507406E4,2.068704E4,2.333045E5,4.824298E3,1.2259513E3,3.2574712E3,3.2249936E4,1.4327372E4,6.3596665E3,7.5798125E4,1.5750638E5,3.1349087E3,1.6893893E3,7.4358397E0,1.2185155E3,6.2550195E2,2.6319692E3,1.0264144E4,2.1985791E4,6.75265E3,7.5747217E3,9.2057947E2,5.439087E3,2.52183E4,5.0579824E4,1.5343911E5,4.06726E3],"tree_param":{"num_deleted":"0","num_feature":"8","num_nodes":"31","size_leaf_vector":"1"}},{"base_weights":[-1.7558265E-1,7.952102E-2,-2.176941E-1,5.270465E-1,-2.6652569E-2,-5.1182044E-1,-1.9635196E-1,1.3746017E0,4.435324E-1,4.3360206E-1,-5.55582E-2,-2.5800392E-1,-9.228936E-1,-1.0663389E-1,-2.2306801E-1,7.973555E-2,5.9609678E-2,3.5740092E-2,1.3030699E-2,4.350818E-2,1.2069372E-2,-3.1361456E-3,5.1894795E-2,2.9259538E-3,-2.6655886E-2,-1.7533284E-2,-5.1164627E-2,2.9570665E-3,-7.3129735E-3,-1.0703852E-2,-2.1637522E-2],"categories":[],"categories_nodes":[],"categories_segments":[],"categories_sizes":[],"default_left":[0,0,0,0,0,0,0,0,0,0,0,0,0,0,0,0,0,0,0,0,0,0,0,0,0,0,0,0,0,0,0],"id":6,"left_children":[1,3,5,7,9,11,13,15,17,19,21,23,25,27,29,-1,-1,-1,-1,-1,-1,-1,-1,-1,-1,-1,-1,-1,-1,-1,-1],"loss_changes":[3.1579307E3,1.9790532E3,1.5837031E3,5.6470874E2,4.478993E2,1.7806426E3,5.638262E2,2.6842163E1,3.606399E2,1.6673154E2,2.482269E2,9.1908295E2,3.7395752E2,3.5458777E2,3.416328E2,0E0,0E0,0E0,0E0,0E0,0E0,0E0,0E0,0E0,0E0,0E0,0E0,0E0,0E0,0E0,0E0],"parents":[2147483647,0,0,1,1,2,2,3,3,4,4,5,5,6,6,7,7,8,8,9,9,10,10,11,11,12,12,13,13,14,14],"right_children":[2,4,6,8,10,12,14,16,18,20,22,24,26,28,30,-1,-1,-1,-1,-1,-1,-1,-1,-1,-1,-1,-1,-1,-1,-1,-1],"split_conditions":[-8.7507196E-2,2.339E1,2.0757022E-3,-7.496823E-2,-8.605201E-2,5.23E0,-2.9409878E-2,-1.0828026E-1,-1.2541386E-1,1.41397E3,1.7166374E7,0E0,-8.96861E-3,4.655E0,2.8716403E5,7.973555E-2,5.9609678E-2,3.5740092E-2,1.3030699E-2,4.350818E-2,1.2069372E-2,-3.1361456E-3,5.1894795E-2,2.9259538E-3,-2.6655886E-2,-1.7533284E-2,-5.1164627E-2,2.9570665E-3,-7.3129735E-3,-1.0703852E-2,-2.1637522E-2],"split_indices":[5,7,6,1,1,7,2,1,5,7,7,3,5,7,7,0,0,0,0,0,0,0,0,0,0,0,0,0,0,0,0],"split_type":[0,0,0,0,0,0,0,0,0,0,0,0,0,0,0,0,0,0,0,0,0,0,0,0,0,0,0,0,0,0,0],"sum_hessian":[2.9395566E5,4.1649496E4,2.5230616E5,7.9856665E3,3.366383E4,1.7067514E4,2.3523864E5,7.1490314E2,7.270763E3,1.9884475E3,3.167538E4,1.0553127E4,6.514386E3,5.3977152E4,1.8126148E5,3.204628E2,3.944403E2,2.9270374E3,4.3437256E3,6.0678314E2,1.3816643E3,3.1470121E4,2.0526115E2,4.9076187E3,5.6455083E3,9.730336E2,5.5413525E3,1.0413088E4,4.3564066E4,1.7381067E5,7.4508086E3],"tree_param":{"num_deleted":"0","num_feature":"8","num_nodes":"31","size_leaf_vector":"1"}},{"base_weights":[-1.6812895E-1,4.2968187E-2,-2.1420865E-1,5.0353503E-1,-3.7918605E-2,-4.979738E-1,-1.9296847E-1,7.839382E-1,2.8725365E-1,2.7978772E-1,-1.0252363E-1,-2.518504E-1,-8.961525E-1,-2.0757401E-2,-2.0632361E-1,4.654022E-2,2.5349218E-2,6.51043E-2,1.3082594E-2,3.6340635E-2,5.3067836E-3,2.4264129E-2,-5.7886275E-3,2.9527082E-3,-2.609351E-2,-1.5785545E-2,-5.005111E-2,1.2396897E-2,-3.1539153E-3,-9.981446E-3,-2.6552264E-2],"categories":[],"categories_nodes":[],"categories_segments":[],"categories_sizes":[],"default_left":[0,0,0,0,0,0,0,0,0,0,0,0,0,0,0,0,0,0,0,0,0,0,0,0,0,0,0,0,0,0,0],"id":7,"left_children":[1,3,5,7,9,11,13,15,17,19,21,23,25,27,29,-1,-1,-1,-1,-1,-1,-1,-1,-1,-1,-1,-1,-1,-1,-1,-1],"loss_changes":[2.8436182E3,1.9513585E3,1.4461631E3,4.7432812E2,9.14553E2,1.6373223E3,5.1343945E2,1.3810034E2,1.1447592E2,5.8441583E2,2.8841602E2,8.6705804E2,3.8819922E2,1.8273235E2,4.5028223E2,0E0,0E0,0E0,0E0,0E0,0E0,0E0,0E0,0E0,0E0,0E0,0E0,0E0,0E0,0E0,0E0],"parents":[2147483647,0,0,1,1,2,2,3,3,4,4,5,5,6,6,7,7,8,8,9,9,10,10,11,11,12,12,13,13,14,14],"right_children":[2,4,6,8,10,12,14,16,18,20,22,24,26,28,30,-1,-1,-1,-1,-1,-1,-1,-1,-1,-1,-1,-1,-1,-1,-1,-1],"split_conditions":[-7.713053E-2,3.03E0,2.0757022E-3,-1.15E-1,-2.4328433E-2,3.78E0,-1.4659686E-2,-5.474564E-3,1.013389E-3,6.3612E2,-5.8028694E-2,0E0,-8.96861E-3,-3.2608695E-2,3.6363635E-2,4.654022E-2,2.5349218E-2,6.51043E-2,1.3082594E-2,3.6340635E-2,5.3067836E-3,2.4264129E-2,-5.7886275E-3,2.9527082E-3,-2.609351E-2,-1.5785545E-2,-5.005111E-2,1.2396897E-2,-3.1539153E-3,-9.981446E-3,-2.6552264E-2],"split_indices":[5,7,6,5,0,7,0,3,6,7,3,4,5,0,0,0,0,0,0,0,0,0,0,0,0,0,0,0,0,0,0],"split_type":[0,0,0,0,0,0,0,0,0,0,0,0,0,0,0,0,0,0,0,0,0,0,0,0,0,0,0,0,0,0,0],"sum_hessian":[2.9233203E5,5.237865E4,2.3995339E5,7.8239727E3,4.4554676E4,1.6708484E4,2.232449E5,3.4058066E3,4.418166E3,7.5285254E3,3.702615E4,1.0326852E4,6.3816313E3,1.6067051E4,2.0717786E5,2.2240518E3,1.181755E3,1.0749014E2,4.310676E3,2.105428E3,5.4230977E3,8.153733E2,3.6210777E4,4.8003936E3,5.5264585E3,9.771624E2,5.404469E3,2.1856301E3,1.3881421E4,2.0299439E5,4.1834604E3],"tree_param":{"num_deleted":"0","num_feature":"8","num_nodes":"31","size_leaf_vector":"1"}},{"base_weights":[-1.6129512E-1,-5.517569E-2,-2.2307625E-1,1.4683844E-1,-1.0987216E-1,-5.242657E-1,-1.9217166E-1,7.9163826E-1,9.437038E-2,1.9703928E-1,-1.466221E-1,-3.3578512E-1,-9.9726176E-1,9.7386904E-2,-2.0409256E-1,6.0421914E-2,2.8153915E-2,3.891295E-2,3.1370823E-3,4.5234967E-2,6.875234E-3,1.1713776E-2,-7.730628E-3,4.373889E-2,-1.8987423E-2,-5.184541E-2,-1.447503E-2,2.043062E-2,-1.8032083E-4,-9.565771E-3,-2.172718E-2],"categories":[],"categories_nodes":[],"categories_segments":[],"categories_sizes":[],"default_left":[0,0,0,0,0,0,0,0,0,0,0,0,0,0,0,0,0,0,0,0,0,0,0,0,0,0,0,0,0,0,0],"id":8,"left_children":[1,3,5,7,9,11,13,15,17,19,21,23,25,27,29,-1,-1,-1,-1,-1,-1,-1,-1,-1,-1,-1,-1,-1,-1,-1,-1],"loss_changes":[1.9069072E3,1.1826E3,1.711043E3,7.714227E2,9.4998035E2,1.5247534E3,5.755288E2,1.6277649E2,4.5612503E2,3.7934113E2,2.2896362E2,6.514291E2,1.3646338E2,2.0723978E2,4.7143506E2,0E0,0E0,0E0,0E0,0E0,0E0,0E0,0E0,0E0,0E0,0E0,0E0,0E0,0E0,0E0,0E0],"parents":[2147483647,0,0,1,1,2,2,3,3,4,4,5,5,6,6,7,7,8,8,9,9,10,10,11,11,12,12,13,13,14,14],"right_children":[2,4,6,8,10,12,14,16,18,20,22,24,26,28,30,-1,-1,-1,-1,-1,-1,-1,-1,-1,-1,-1,-1,-1,-1,-1,-1],"split_conditions":[-1.6704766E-2,8.35E0,2.5029886E-3,-3.8280725E-2,-2.1331945E-2,3.2074E2,-2.2222223E-2,-6.754772E-2,-1.1619959E-1,-6.792453E-2,-4.6629753E-2,-6.253502E-3,1.2468828E-2,2.8092E2,2.5705105E-2,6.0421914E-2,2.8153915E-2,3.891295E-2,3.1370823E-3,4.5234967E-2,6.875234E-3,1.1713776E-2,-7.730628E-3,4.373889E-2,-1.8987423E-2,-5.184541E-2,-1.447503E-2,2.043062E-2,-1.8032083E-4,-9.565771E-3,-2.172718E-2],"split_indices":[2,7,6,1,0,7,0,1,2,0,3,3,2,7,0,0,0,0,0,0,0,0,0,0,0,0,0,0,0,0,0],"split_type":[0,0,0,0,0,0,0,0,0,0,0,0,0,0,0,0,0,0,0,0,0,0,0,0,0,0,0,0,0,0,0],"sum_hessian":[2.908575E5,1.0702539E5,1.8383211E5,2.2803186E4,8.422221E4,1.7105883E4,1.6672623E5,1.7148354E3,2.108835E4,9.005959E3,7.521625E4,1.2232971E4,4.872913E3,6.59229E3,1.6013394E5,6.058058E2,1.1090297E3,9.3114624E2,2.0157203E4,6.977643E2,8.308195E3,1.5448823E3,7.367137E4,4.2802728E2,1.1804943E4,4.613988E3,2.589253E2,1.6143602E3,4.9779297E3,1.517236E5,8.410346E3],"tree_param":{"num_deleted":"0","num_feature":"8","num_nodes":"31","size_leaf_vector":"1"}},{"base_weights":[-1.5346298E-1,1.07711546E-1,-1.8677372E-1,4.6071E-1,-2.6472751E-2,-4.6158403E-1,-1.6809116E-1,1.1133139E0,3.760002E-1,-3.8067948E-2,1.2945927E0,-2.2480382E-1,-8.7053037E-1,-9.7387105E-2,-2.0161349E-1,7.135821E-2,4.4854973E-2,2.3584314E-2,-5.8587138E-3,8.606573E-3,-5.19775E-3,1.9190371E-1,-1.341216E-2,3.2311417E-3,-2.4525214E-2,-1.5402759E-2,-4.877336E-2,1.0608899E-3,-7.944538E-3,-9.772493E-3,-2.5248265E-2],"categories":[],"categories_nodes":[],"categories_segments":[],"categories_sizes":[],"default_left":[0,0,0,0,0,0,0,0,0,0,0,0,0,0,0,0,0,0,0,0,0,0,0,0,0,0,0,0,0,0,0],"id":9,"left_children":[1,3,5,7,9,11,13,15,17,19,21,23,25,27,29,-1,-1,-1,-1,-1,-1,-1,-1,-1,-1,-1,-1,-1,-1,-1,-1],"loss_changes":[2.5180386E3,1.5507827E3,1.3178184E3,4.9808533E2,3.6343994E2,1.5819521E3,5.696572E2,6.898816E1,3.7677136E2,3.257237E2,8.216303E2,7.958984E2,3.533208E2,5.63928E2,3.0475977E2,0E0,0E0,0E0,0E0,0E0,0E0,0E0,0E0,0E0,0E0,0E0,0E0,0E0,0E0,0E0,0E0],"parents":[2147483647,0,0,1,1,2,2,3,3,4,4,5,5,6,6,7,7,8,8,9,9,10,10,11,11,12,12,13,13,14,14],"right_children":[2,4,6,8,10,12,14,16,18,20,22,24,26,28,30,-1,-1,-1,-1,-1,-1,-1,-1,-1,-1,-1,-1,-1,-1,-1,-1],"split_conditions":[-9.821428E-2,1.3145E2,2.0757022E-3,-6.754772E-2,1.7166374E7,5.23E0,-4.4303797E-2,-1.0828026E-1,1.3315579E-3,-2.1331945E-2,-3.0410317E-1,0E0,-8.96861E-3,1.6815E2,1.1444389E6,7.135821E-2,4.4854973E-2,2.3584314E-2,-5.8587138E-3,8.606573E-3,-5.19775E-3,1.9190371E-1,-1.341216E-2,3.2311417E-3,-2.4525214E-2,-1.5402759E-2,-4.877336E-2,1.0608899E-3,-7.944538E-3,-9.772493E-3,-2.5248265E-2],"split_indices":[5,7,6,1,7,7,5,1,0,0,5,3,5,7,7,0,0,0,0,0,0,0,0,0,0,0,0,0,0,0,0],"split_type":[0,0,0,0,0,0,0,0,0,0,0,0,0,0,0,0,0,0,0,0,0,0,0,0,0,0,0,0,0,0,0],"sum_hessian":[2.8942925E5,3.2738578E4,2.5669069E5,9.016486E3,2.3722092E4,1.6338369E4,2.4035231E5,1.0345066E3,7.98198E3,2.3516652E4,2.0543814E2,1.0348266E4,5.9901035E3,7.7305766E4,1.6304655E5,4.196928E2,6.148138E2,6.684996E3,1.296984E3,5.6117812E3,1.7904873E4,7.763425E1,1.27803894E2,4.9533516E3,5.394914E3,9.424398E2,5.0476636E3,2.6398674E4,5.090709E4,1.5980128E5,3.245274E3],"tree_param":{"num_deleted":"0","num_feature":"8","num_nodes":"31","size_leaf_vector":"1"}},{"base_weights":[-1.4635217E-1,-3.397604E-2,-2.1617033E-1,2.2929901E-1,-8.516609E-2,-4.447426E-1,-1.8950972E-1,6.526953E-1,1.1431666E-1,2.735332E-1,-1.1790126E-1,-2.7690622E-1,-9.6682936E-1,-1.8167198E-1,-4.5261225E-1,3.8802158E-2,5.8812737E-3,9.157202E-3,-8.948105E-3,3.0851996E-2,3.4247753E-3,1.9490343E-3,-6.9600963E-3,-4.720959E-3,-2.1952804E-2,-2.3804704E-2,-5.1172998E-2,-2.060107E-2,-8.655923E-3,-3.3623274E-2,-1.4947235E-2],"categories":[],"categories_nodes":[],"categories_segments":[],"categories_sizes":[],"default_left":[0,0,0,0,0,0,0,0,0,0,0,0,0,0,0,0,0,0,0,0,0,0,0,0,0,0,0,0,0,0,0],"id":10,"left_children":[1,3,5,7,9,11,13,15,17,19,21,23,25,27,29,-1,-1,-1,-1,-1,-1,-1,-1,-1,-1,-1,-1,-1,-1,-1,-1],"loss_changes":[2.2594834E3,1.4873302E3,1.0823477E3,8.74515E2,1.0849387E3,1.6254756E3,3.2794775E2,2.5312244E2,2.8524255E2,5.441953E2,2.8294153E2,4.154452E2,1.24933105E2,3.042881E2,1.5524097E2,0E0,0E0,0E0,0E0,0E0,0E0,0E0,0E0,0E0,0E0,0E0,0E0,0E0,0E0,0E0,0E0],"parents":[2147483647,0,0,1,1,2,2,3,3,4,4,5,5,6,6,7,7,8,8,9,9,10,10,11,11,12,12,13,13,14,14],"right_children":[2,4,6,8,10,12,14,16,18,20,22,24,26,28,30,-1,-1,-1,-1,-1,-1,-1,-1,-1,-1,-1,-1,-1,-1,-1,-1],"split_conditions":[-4.4303797E-2,3.03E0,2.5029886E-3,-1.1055746E-1,-3.0330881E-2,4.3113E2,3.0927835E-2,8.237232E-4,5.1282053E-3,1.04171E3,-1.3561644E-1,0E0,-9.727626E-3,-7.077199E-2,1.04171E3,3.8802158E-2,5.8812737E-3,9.157202E-3,-8.948105E-3,3.0851996E-2,3.4247753E-3,1.9490343E-3,-6.9600963E-3,-4.720959E-3,-2.1952804E-2,-2.3804704E-2,-5.1172998E-2,-2.060107E-2,-8.655923E-3,-3.3623274E-2,-1.4947235E-2],"split_indices":[5,7,6,5,0,7,0,1,1,7,5,4,5,4,7,0,0,0,0,0,0,0,0,0,0,0,0,0,0,0,0],"split_type":[0,0,0,0,0,0,0,0,0,0,0,0,0,0,0,0,0,0,0,0,0,0,0,0,0,0,0,0,0,0,0],"sum_hessian":[2.8798288E5,1.1035767E5,1.7762522E5,1.7963953E4,9.239372E4,1.8552385E4,1.5907283E5,3.8355906E3,1.4128363E4,7.726156E3,8.466756E4,1.4040337E4,4.5120474E3,1.5447283E5,4.6000093E3,3.116666E3,7.189247E2,1.1443217E4,2.6851465E3,2.8871704E3,4.8389854E3,1.0121402E4,7.4546164E4,6.606649E3,7.4336875E3,4.677902E2,4.044257E3,5.5289434E3,1.4894388E5,1.8910684E3,2.7089412E3],"tree_param":{"num_deleted":"0","num_feature":"8","num_nodes":"31","size_leaf_vector":"1"}},{"base_weights":[-1.399906E-1,3.964786E-2,-1.8109144E-1,2.9144618E-1,-6.5933526E-2,-4.4880506E-1,-1.6305137E-1,9.603889E-1,2.2864966E-1,1.2345557E-1,-1.1520994E-1,-2.2202572E-1,-8.623284E-1,-1.5714388E-1,-4.8158377E-1,6.2396575E-2,4.1088294E-2,1.5175636E-2,-8.431271E-3,1.5250682E-2,9.463134E-5,9.839642E-3,-7.0068813E-3,3.060759E-3,-2.3894675E-2,-1.3145074E-2,-4.811278E-2,-6.629158E-3,-1.211144E-2,-3.6675576E-2,-1.4954579E-2],"categories":[],"categories_nodes":[],"categories_segments":[],"categories_sizes":[],"default_left":[0,0,0,0,0,0,0,0,0,0,0,0,0,0,0,0,0,0,0,0,0,0,0,0,0,0,0,0,0,0,0],"id":11,"left_children":[1,3,5,7,9,11,13,15,17,19,21,23,25,27,29,-1,-1,-1,-1,-1,-1,-1,-1,-1,-1,-1,-1,-1,-1,-1,-1],"loss_changes":[2.1162495E3,1.4188588E3,1.12646E3,6.6211926E2,3.5094348E2,1.380728E3,4.1114404E2,5.2897095E1,4.28784E2,1.7136307E2,2.3210815E2,6.893362E2,3.121211E2,4.4833447E2,1.8269696E2,0E0,0E0,0E0,0E0,0E0,0E0,0E0,0E0,0E0,0E0,0E0,0E0,0E0,0E0,0E0,0E0],"parents":[2147483647,0,0,1,1,2,2,3,3,4,4,5,5,6,6,7,7,8,8,9,9,10,10,11,11,12,12,13,13,14,14],"right_children":[2,4,6,8,10,12,14,16,18,20,22,24,26,28,30,-1,-1,-1,-1,-1,-1,-1,-1,-1,-1,-1,-1,-1,-1,-1,-1],"split_conditions":[-7.6271184E-2,1.4359E2,1.920456E-3,-6.754772E-2,-2.1331945E-2,5.23E0,3.6363635E-2,-1.0828026E-1,2.2522523E-3,3.0395E3,-4.0930945E-2,0E0,-8.96861E-3,7.58994E3,1.23012E3,6.2396575E-2,4.1088294E-2,1.5175636E-2,-8.431271E-3,1.5250682E-2,9.463134E-5,9.839642E-3,-7.0068813E-3,3.060759E-3,-2.3894675E-2,-1.3145074E-2,-4.811278E-2,-6.629158E-3,-1.211144E-2,-3.6675576E-2,-1.4954579E-2],"split_indices":[5,7,6,1,0,7,0,1,0,7,3,3,5,7,7,0,0,0,0,0,0,0,0,0,0,0,0,0,0,0,0],"split_type":[0,0,0,0,0,0,0,0,0,0,0,0,0,0,0,0,0,0,0,0,0,0,0,0,0,0,0,0,0,0,0],"sum_hessian":[2.8662475E5,5.3368492E4,2.3325627E5,1.5766237E4,3.7602258E4,1.4724326E4,2.1853194E5,1.3518031E3,1.4414435E4,7.7632925E3,2.9838963E4,9.510327E3,5.213999E3,2.1455431E5,3.9776206E3,4.3711102E2,9.1469214E2,1.2129055E4,2.2853801E3,3.1127676E3,4.650525E3,2.2071155E3,2.7631848E4,4.5140825E3,4.996245E3,7.4552106E2,4.468478E3,1.6649592E5,4.8058387E4,1.6696604E3,2.3079602E3],"tree_param":{"num_deleted":"0","num_feature":"8","num_nodes":"31","size_leaf_vector":"1"}},{"base_weights":[-1.3365266E-1,-2.8850408E-2,-1.9943793E-1,3.0856214E-2,-1.6520518E-1,-4.595369E-1,-1.7832166E-1,2.7082303E-1,-1.8773705E-2,1.7438723E-1,-1.8538037E-1,1.7376252E-1,-6.0138446E-1,-4.0170506E-1,-1.7014802E-1,8.307664E-3,2.7691161E-2,2.5497777E-2,-1.4302997E-3,6.2775253E-3,4.6568807E-2,-8.516717E-3,-2.8677661E-2,-4.0931315E-3,4.357565E-2,-3.522404E-2,-5.9753954E-3,-1.7323999E-2,-3.0917961E-2,-8.068358E-3,-1.8728098E-2],"categories":[],"categories_nodes":[],"categories_segments":[],"categories_sizes":[],"default_left":[0,0,0,0,0,0,0,0,0,0,0,0,0,0,0,0,0,0,0,0,0,0,0,0,0,0,0,0,0,0,0],"id":12,"left_children":[1,3,5,7,9,11,13,15,17,19,21,23,25,27,29,-1,-1,-1,-1,-1,-1,-1,-1,-1,-1,-1,-1,-1,-1,-1,-1],"loss_changes":[1.9677197E3,8.960795E2,9.629585E2,9.1165704E2,2.2967853E2,1.1828096E3,2.960459E2,3.8850037E2,3.2976566E2,6.939099E1,1.8469019E2,4.2993134E2,5.343064E2,6.827112E1,2.8076514E2,0E0,0E0,0E0,0E0,0E0,0E0,0E0,0E0,0E0,0E0,0E0,0E0,0E0,0E0,0E0,0E0],"parents":[2147483647,0,0,1,1,2,2,3,3,4,4,5,5,6,6,7,7,8,8,9,9,10,10,11,11,12,12,13,13,14,14],"right_children":[2,4,6,8,10,12,14,16,18,20,22,24,26,28,30,-1,-1,-1,-1,-1,-1,-1,-1,-1,-1,-1,-1,-1,-1,-1,-1],"split_conditions":[-4.4303797E-2,4.3975373E-4,1.7546864E-3,-1.2541386E-1,-3.703487E-2,-2.1878048E-3,-7.077199E-2,-1.0001E-4,-5.1940117E-2,-8.9955024E-2,4.644714E-2,-1.305483E-3,9.041592E-3,-1.509434E-2,2.5705105E-2,8.307664E-3,2.7691161E-2,2.5497777E-2,-1.4302997E-3,6.2775253E-3,4.6568807E-2,-8.516717E-3,-2.8677661E-2,-4.0931315E-3,4.357565E-2,-3.522404E-2,-5.9753954E-3,-1.7323999E-2,-3.0917961E-2,-8.068358E-3,-1.8728098E-2],"split_indices":[5,0,6,5,3,3,4,0,0,5,0,5,2,5,0,0,0,0,0,0,0,0,0,0,0,0,0,0,0,0,0],"split_type":[0,0,0,0,0,0,0,0,0,0,0,0,0,0,0,0,0,0,0,0,0,0,0,0,0,0,0,0,0,0,0],"sum_hessian":[2.854064E5,1.1006451E5,1.753419E5,7.654708E4,3.3517434E4,1.3164754E4,1.6217714E5,1.3117564E4,6.342951E4,1.8791754E3,3.1638258E4,2.4090347E3,1.075572E4,5.7229243E3,1.5645422E5,9.577019E3,3.5405461E3,1.1570769E3,6.2272434E4,1.7663839E3,1.12791435E2,3.0459068E4,1.1791902E3,1.763755E3,6.452797E2,8.859738E3,1.8959816E3,4.5625337E3,1.1603904E3,1.5001205E5,6.4421733E3],"tree_param":{"num_deleted":"0","num_feature":"8","num_nodes":"31","size_leaf_vector":"1"}},{"base_weights":[-1.2759128E-1,8.844709E-2,-1.5587538E-1,3.797747E-1,-2.568959E-2,-4.0370825E-1,-1.3974778E-1,1.0290384E0,3.2339996E-1,-3.6231346E-2,1.1695998E0,-1.8042195E-1,-8.087541E-1,-1.0982617E-1,-2.058218E-1,5.7229966E-2,4.2728644E-2,2.0696137E-2,8.723318E-4,7.0649497E-3,-4.368408E-3,1.647284E-1,-1.33107975E-2,3.2790404E-2,-1.3051885E-2,-1.3009272E-2,-4.6133514E-2,-5.0050216E-3,-2.1720268E-2,-3.5845462E-2,-9.6049635E-3],"categories":[],"categories_nodes":[],"categories_segments":[],"categories_sizes":[],"default_left":[0,0,0,0,0,0,0,0,0,0,0,0,0,0,0,0,0,0,0,0,0,0,0,0,0,0,0,0,0,0,0],"id":13,"left_children":[1,3,5,7,9,11,13,15,17,19,21,23,25,27,29,-1,-1,-1,-1,-1,-1,-1,-1,-1,-1,-1,-1,-1,-1,-1,-1],"loss_changes":[1.7365483E3,1.0939773E3,1.00434326E3,3.3865076E2,2.979144E2,1.3884004E3,4.6644043E2,1.3930115E1,2.3604034E2,2.1275502E2,6.3152136E2,6.6745605E2,3.4068652E2,5.1261694E2,5.1563354E2,0E0,0E0,0E0,0E0,0E0,0E0,0E0,0E0,0E0,0E0,0E0,0E0,0E0,0E0,0E0,0E0],"parents":[2147483647,0,0,1,1,2,2,3,3,4,4,5,5,6,6,7,7,8,8,9,9,10,10,11,11,12,12,13,13,14,14],"right_children":[2,4,6,8,10,12,14,16,18,20,22,24,26,28,30,-1,-1,-1,-1,-1,-1,-1,-1,-1,-1,-1,-1,-1,-1,-1,-1],"split_conditions":[-9.821428E-2,1.3145E2,2.0757022E-3,-8.605201E-2,1.7166374E7,3.78E0,3.2315E3,-1.0828026E-1,2.4752475E-3,-5.1282052E-2,-3.0410317E-1,-7.8372145E-3,-8.96861E-3,4.7803618E-2,4.1879946E-3,5.7229966E-2,4.2728644E-2,2.0696137E-2,8.723318E-4,7.0649497E-3,-4.368408E-3,1.647284E-1,-1.33107975E-2,3.2790404E-2,-1.3051885E-2,-1.3009272E-2,-4.6133514E-2,-5.0050216E-3,-2.1720268E-2,-3.5845462E-2,-9.6049635E-3],"split_indices":[5,7,6,1,7,7,7,1,1,1,5,3,5,1,6,0,0,0,0,0,0,0,0,0,0,0,0,0,0,0,0],"split_type":[0,0,0,0,0,0,0,0,0,0,0,0,0,0,0,0,0,0,0,0,0,0,0,0,0,0,0,0,0,0,0],"sum_hessian":[2.841899E5,3.2899125E4,2.5129078E5,9.260325E3,2.3638799E4,1.5352031E4,2.3593875E5,7.384458E2,8.52188E3,2.3433104E4,2.0569661E2,9.897412E3,5.454619E3,1.6239903E5,7.353972E4,4.4086746E2,2.9757834E2,6.575906E3,1.9459739E3,5.239948E3,1.8193154E4,8.242108E1,1.2327553E2,8.6962524E2,9.027786E3,9.385027E2,4.5161167E3,1.5767572E5,4.723314E3,1.9215483E3,7.161817E4],"tree_param":{"num_deleted":"0","num_feature":"8","num_nodes":"31","size_leaf_vector":"1"}},{"base_weights":[-1.206991E-1,-2.3884226E-2,-1.8198688E-1,1.23622455E-1,-9.389958E-2,-4.2872807E-1,-1.624014E-1,7.67706E-1,8.908085E-2,1.1107874E-1,-1.23662904E-1,-2.0127623E-1,-8.6697274E-1,-1.5643643E-1,-4.594021E-1,4.833716E-2,2.9258838E-2,1.8886562E-2,1.7774359E-3,1.2807651E-2,-1.3488388E-3,1.8502345E-2,-6.4164475E-3,5.0103148E-3,-2.2999253E-2,-1.218638E-2,-4.778294E-2,-7.621795E-3,-2.5946364E-2,-3.9155688E-2,-1.6869817E-2],"categories":[],"categories_nodes":[],"categories_segments":[],"categories_sizes":[],"default_left":[0,0,0,0,0,0,0,0,0,0,0,0,0,0,0,0,0,0,0,0,0,0,0,0,0,0,0,0,0,0,0],"id":14,"left_children":[1,3,5,7,9,11,13,15,17,19,21,23,25,27,29,-1,-1,-1,-1,-1,-1,-1,-1,-1,-1,-1,-1,-1,-1,-1,-1],"loss_changes":[1.679646E3,1.1333171E3,8.376172E2,7.857501E2,4.5400055E2,1.2704309E3,2.8444092E2,6.4744995E1,5.1801184E2,1.8898598E2,1.4973877E2,6.5466077E2,2.4048169E2,2.2822803E2,1.2459436E2,0E0,0E0,0E0,0E0,0E0,0E0,0E0,0E0,0E0,0E0,0E0,0E0,0E0,0E0,0E0,0E0],"parents":[2147483647,0,0,1,1,2,2,3,3,4,4,5,5,6,6,7,7,8,8,9,9,10,10,11,11,12,12,13,13,14,14],"right_children":[2,4,6,8,10,12,14,16,18,20,22,24,26,28,30,-1,-1,-1,-1,-1,-1,-1,-1,-1,-1,-1,-1,-1,-1,-1,-1],"split_conditions":[-4.4303797E-2,1.4359E2,1.7546864E-3,-6.2142707E-2,-2.4328433E-2,4.655E0,1.1444389E6,-8.605201E-2,-1.1741613E-1,4.5889E3,-3.0410317E-1,0E0,-8.96861E-3,4.644714E-2,6.693307E-3,4.833716E-2,2.9258838E-2,1.8886562E-2,1.7774359E-3,1.2807651E-2,-1.3488388E-3,1.8502345E-2,-6.4164475E-3,5.0103148E-3,-2.2999253E-2,-1.218638E-2,-4.778294E-2,-7.621795E-3,-2.5946364E-2,-3.9155688E-2,-1.6869817E-2],"split_indices":[5,7,6,1,0,7,7,1,5,7,5,4,5,0,6,0,0,0,0,0,0,0,0,0,0,0,0,0,0,0,0],"split_type":[0,0,0,0,0,0,0,0,0,0,0,0,0,0,0,0,0,0,0,0,0,0,0,0,0,0,0,0,0,0,0],"sum_hessian":[2.8307484E5,1.0973323E5,1.7334161E5,3.5320363E4,7.441287E4,1.2745901E4,1.6059572E5,1.7967047E3,3.3523656E4,9.434599E3,6.497827E4,8.391906E3,4.353995E3,1.5743531E5,3.160402E3,8.5743097E2,9.3927374E2,5.243601E3,2.8280057E4,4.5999404E3,4.834658E3,6.076274E2,6.437064E4,3.8758518E3,4.516054E3,5.428491E2,3.811146E3,1.5571819E5,1.7171198E3,8.636105E2,2.2967917E3],"tree_param":{"num_deleted":"0","num_feature":"8","num_nodes":"31","size_leaf_vector":"1"}},{"base_weights":[-1.1519189E-1,-2.5302935E-2,-1.7590135E-1,1.6517854E-1,-7.8876466E-2,-4.1452238E-1,-1.5667744E-1,5.4081315E-1,1.0023055E-1,2.031684E-1,-1.0456676E-1,-1.9391304E-1,-8.4592724E-1,-1.4850107E-1,-3.70368E-1,3.248259E-2,4.9553527E-3,2.4569593E-2,3.2013014E-3,2.0218944E-2,-1.731808E-4,-8.3814654E-4,-6.3754357E-3,5.032945E-3,-2.256888E-2,-4.5856446E-2,3.3263178E-3,-7.1169543E-3,-2.0593477E-2,-3.7550826E-2,-1.4092363E-2],"categories":[],"categories_nodes":[],"categories_segments":[],"categories_sizes":[],"default_left":[0,0,0,0,0,0,0,0,0,0,0,0,0,0,0,0,0,0,0,0,0,0,0,0,0,0,0,0,0,0,0],"id":15,"left_children":[1,3,5,7,9,11,13,15,17,19,21,23,25,27,29,-1,-1,-1,-1,-1,-1,-1,-1,-1,-1,-1,-1,-1,-1,-1,-1],"loss_changes":[1.5385999E3,1.1598787E3,7.719048E2,6.08647E2,6.427983E2,1.1938811E3,2.7205884E2,1.7674316E2,3.0123785E2,3.079179E2,1.6377814E2,6.2972046E2,2.7583228E2,2.4337817E2,1.9315906E2,0E0,0E0,0E0,0E0,0E0,0E0,0E0,0E0,0E0,0E0,0E0,0E0,0E0,0E0,0E0,0E0],"parents":[2147483647,0,0,1,1,2,2,3,3,4,4,5,5,6,6,7,7,8,8,9,9,10,10,11,11,12,12,13,13,14,14],"right_children":[2,4,6,8,10,12,14,16,18,20,22,24,26,28,30,-1,-1,-1,-1,-1,-1,-1,-1,-1,-1,-1,-1,-1,-1,-1,-1],"split_conditions":[-4.2682927E-2,2.339E1,1.7546864E-3,-1.2541386E-1,-3.0330881E-2,3.78E0,3.3378856E5,8.237232E-4,-4.2735044E-2,3.55159E3,-1.2345679E-2,0E0,1E-2,3.3333335E-2,6.302521E-3,3.248259E-2,4.9553527E-3,2.4569593E-2,3.2013014E-3,2.0218944E-2,-1.731808E-4,-8.3814654E-4,-6.3754357E-3,5.032945E-3,-2.256888E-2,-4.5856446E-2,3.3263178E-3,-7.1169543E-3,-2.0593477E-2,-3.7550826E-2,-1.4092363E-2],"split_indices":[5,7,6,5,0,7,7,1,1,7,0,4,2,0,6,0,0,0,0,0,0,0,0,0,0,0,0,0,0,0,0],"split_type":[0,0,0,0,0,0,0,0,0,0,0,0,0,0,0,0,0,0,0,0,0,0,0,0,0,0,0,0,0,0,0],"sum_hessian":[2.819439E5,1.1365823E5,1.6828569E5,2.4949133E4,8.870909E4,1.2545188E4,1.557405E5,3.6767683E3,2.1272365E4,7.4050215E3,8.130408E4,8.301477E3,4.243712E3,1.5000269E5,5.737809E3,2.9495205E3,7.272477E2,1.8010345E3,1.947133E4,3.7512446E3,3.653777E3,1.6843209E4,6.4460867E4,3.8720134E3,4.4294634E3,3.936527E3,3.0718472E2,1.4657484E5,3.4278464E3,1.0811718E3,4.656637E3],"tree_param":{"num_deleted":"0","num_feature":"8","num_nodes":"31","size_leaf_vector":"1"}},{"base_weights":[-1.1135359E-1,3.7247814E-2,-1.4541438E-1,2.1531764E-1,-6.6741966E-2,-3.4798017E-1,-1.284065E-1,2.9152828E-1,-1.4155571E-1,2.8962672E-1,-8.823278E-2,-1.949759E-1,-8.927267E-1,4.6365213E-2,-1.3801746E-1,3.934309E-2,1.189152E-2,-3.9488995E-3,-2.1762026E-2,9.219495E-3,1.3439666E-1,1.9795766E-2,-5.0265337E-3,9.302672E-3,-1.5308388E-2,-1.931226E-2,-4.8137944E-2,2.0492338E-2,1.0560481E-3,-6.6966726E-3,-2.5324661E-2],"categories":[],"categories_nodes":[],"categories_segments":[],"categories_sizes":[],"default_left":[0,0,0,0,0,0,0,0,0,0,0,0,0,0,0,0,0,0,0,0,0,0,0,0,0,0,0,0,0,0,0],"id":16,"left_children":[1,3,5,7,9,11,13,15,17,19,21,23,25,27,29,-1,-1,-1,-1,-1,-1,-1,-1,-1,-1,-1,-1,-1,-1,-1,-1],"loss_changes":[1.420915E3,9.693683E2,7.867837E2,5.24953E2,2.5313792E2,1.4742324E3,3.5391455E2,4.2283435E2,6.239476E1,4.739756E2,1.8562762E2,5.8523083E2,1.3720728E2,1.0077119E2,3.0046973E2,0E0,0E0,0E0,0E0,0E0,0E0,0E0,0E0,0E0,0E0,0E0,0E0,0E0,0E0,0E0,0E0],"parents":[2147483647,0,0,1,1,2,2,3,3,4,4,5,5,6,6,7,7,8,8,9,9,10,10,11,11,12,12,13,13,14,14],"right_children":[2,4,6,8,10,12,14,16,18,20,22,24,26,28,30,-1,-1,-1,-1,-1,-1,-1,-1,-1,-1,-1,-1,-1,-1,-1,-1],"split_conditions":[-7.713053E-2,3.3189E2,2.5029886E-3,2.2522523E-3,-4.6629753E-2,4.3113E2,-1.775148E-2,-6.754772E-2,2.4390243E-2,5.7841375E6,-6.792453E-2,-3.2540383E-3,-9.727626E-3,-4.4E-2,4.644714E-2,3.934309E-2,1.189152E-2,-3.9488995E-3,-2.1762026E-2,9.219495E-3,1.3439666E-1,1.9795766E-2,-5.0265337E-3,9.302672E-3,-1.5308388E-2,-1.931226E-2,-4.8137944E-2,2.0492338E-2,1.0560481E-3,-6.6966726E-3,-2.5324661E-2],"split_indices":[5,7,6,0,3,7,0,1,0,7,0,3,5,0,0,0,0,0,0,0,0,0,0,0,0,0,0,0,0,0,0],"split_type":[0,0,0,0,0,0,0,0,0,0,0,0,0,0,0,0,0,0,0,0,0,0,0,0,0,0,0,0,0,0,0],"sum_hessian":[2.8072897E5,5.234716E4,2.2838181E5,1.9298965E4,3.3048195E4,1.7688648E4,2.1069317E5,1.5903039E4,3.3959258E3,1.8789115E3,3.1169283E4,1.3810904E4,3.8777441E3,1.09822E4,1.9971097E5,1.5540576E3,1.4348981E4,2.8004756E3,5.954503E2,1.8009628E3,7.794872E1,7.7134814E2,3.0397936E4,3.1197056E3,1.0691199E4,4.7184186E2,3.4059023E3,7.1220593E2,1.0269994E4,1.9752308E5,2.1878828E3],"tree_param":{"num_deleted":"0","num_feature":"8","num_nodes":"31","size_leaf_vector":"1"}},{"base_weights":[-1.05093375E-1,-2.96247E-2,-1.6636936E-1,1.63658E-1,-6.905795E-2,-1.4300436E-1,-2.679693E-1,4.749545E-1,8.988278E-2,1.4519973E-1,-1.0180141E-1,-1.544883E-1,5.040121E-2,-4.3438306E-1,-1.608436E-1,2.8025562E-2,-5.2976824E-4,7.329495E-3,-1.05471015E-2,2.1366037E-2,2.447674E-3,1.9622197E-2,-5.3232065E-3,-7.132946E-3,-1.8742321E-2,7.571856E-3,-3.0116232E-3,2.1087259E-2,-2.680823E-2,-6.7643533E-3,-2.3852022E-2],"categories":[],"categories_nodes":[],"categories_segments":[],"categories_sizes":[],"default_left":[0,0,0,0,0,0,0,0,0,0,0,0,0,0,0,0,0,0,0,0,0,0,0,0,0,0,0,0,0,0,0],"id":17,"left_children":[1,3,5,7,9,11,13,15,17,19,21,23,25,27,29,-1,-1,-1,-1,-1,-1,-1,-1,-1,-1,-1,-1,-1,-1,-1,-1],"loss_changes":[1.2935845E3,9.5539777E2,3.6644482E2,4.877674E2,7.304041E2,2.78792E2,5.144929E2,1.6904932E2,2.929726E2,3.747375E2,2.0816272E2,3.087976E2,7.86573E1,9.8517676E2,1.4184882E2,0E0,0E0,0E0,0E0,0E0,0E0,0E0,0E0,0E0,0E0,0E0,0E0,0E0,0E0,0E0,0E0],"parents":[2147483647,0,0,1,1,2,2,3,3,4,4,5,5,6,6,7,7,8,8,9,9,10,10,11,11,12,12,13,13,14,14],"right_children":[2,4,6,8,10,12,14,16,18,20,22,24,26,28,30,-1,-1,-1,-1,-1,-1,-1,-1,-1,-1,-1,-1,-1,-1,-1,-1],"split_conditions":[-3.816794E-2,3.03E0,-2.762431E-3,-1.1055746E-1,-2.2222223E-2,1.7960722E-2,4.07332E-3,4.7046524E-3,7.8125E-3,3.4314E2,-5.8028694E-2,1.732127E5,1.1360399E-1,-1.0054754E-3,6.1778408E-2,2.8025562E-2,-5.2976824E-4,7.329495E-3,-1.05471015E-2,2.1366037E-2,2.447674E-3,1.9622197E-2,-5.3232065E-3,-7.132946E-3,-1.8742321E-2,7.571856E-3,-3.0116232E-3,2.1087259E-2,-2.680823E-2,-6.7643533E-3,-2.3852022E-2],"split_indices":[5,7,5,5,0,3,1,1,1,7,3,7,2,3,1,0,0,0,0,0,0,0,0,0,0,0,0,0,0,0,0],"split_type":[0,0,0,0,0,0,0,0,0,0,0,0,0,0,0,0,0,0,0,0,0,0,0,0,0,0,0,0,0,0,0],"sum_hessian":[2.7972925E5,1.2534879E5,1.5438048E5,2.1239564E4,1.0410922E5,1.2551755E5,2.886293E4,4.0682087E3,1.7171355E4,1.3800683E4,9.030854E4,1.18482555E5,7.034996E3,1.1302336E4,1.7560594E4,3.4586243E3,6.095845E2,1.4448288E4,2.7230686E3,3.50964E3,1.0291043E4,8.4323267E2,8.9465305E4,1.1244772E5,6.034831E3,3.6768E3,3.3581963E3,1.2005818E3,1.0101754E4,1.6248724E4,1.3118708E3],"tree_param":{"num_deleted":"0","num_feature":"8","num_nodes":"31","size_leaf_vector":"1"}},{"base_weights":[-1.0176757E-1,-2.065776E-2,-1.5037659E-1,7.400715E-2,-8.707035E-2,-3.611768E-1,-1.2615259E-1,6.728639E-1,5.308137E-2,7.758532E-2,-1.10288285E-1,-2.0604229E-1,-8.2883704E-1,-1.12017095E-1,-3.0556002E-1,2.4456438E-2,4.7755074E-2,2.747573E-2,2.0269384E-3,3.4005955E-2,2.2542975E-3,-8.995958E-3,-3.6121905E-3,3.5688236E-2,-1.2008861E-2,-4.4718977E-2,-8.746459E-3,2.6207552E-3,-6.1957003E-3,-2.4313241E-2,-1.067049E-2],"categories":[],"categories_nodes":[],"categories_segments":[],"categories_sizes":[],"default_left":[0,0,0,0,0,0,0,0,0,0,0,0,0,0,0,0,0,0,0,0,0,0,0,0,0,0,0,0,0,0,0],"id":18,"left_children":[1,3,5,7,9,11,13,15,17,19,21,23,25,27,29,-1,-1,-1,-1,-1,-1,-1,-1,-1,-1,-1,-1,-1,-1,-1,-1],"loss_changes":[1.098594E3,6.5646344E2,8.896367E2,5.3946545E2,2.346066E2,1.3026279E3,3.962732E2,7.490515E1,2.5899652E2,1.4848486E2,1.4245972E2,4.2358276E2,1.9153809E2,2.833866E2,1.8994214E2,0E0,0E0,0E0,0E0,0E0,0E0,0E0,0E0,0E0,0E0,0E0,0E0,0E0,0E0,0E0,0E0],"parents":[2147483647,0,0,1,1,2,2,3,3,4,4,5,5,6,6,7,7,8,8,9,9,10,10,11,11,12,12,13,13,14,14],"right_children":[2,4,6,8,10,12,14,16,18,20,22,24,26,28,30,-1,-1,-1,-1,-1,-1,-1,-1,-1,-1,-1,-1,-1,-1,-1,-1],"split_conditions":[-1.6704766E-2,2.4443E2,3.0395137E-3,-6.2142707E-2,-2.0522388E-2,3.4314E2,2.0408163E-2,-2.1622906E-4,-1.388889E-1,-1.0828026E-1,1.2773998E-2,-6.52642E-3,1.2468828E-2,-1.775148E-2,6.5577E2,2.4456438E-2,4.7755074E-2,2.747573E-2,2.0269384E-3,3.4005955E-2,2.2542975E-3,-8.995958E-3,-3.6121905E-3,3.5688236E-2,-1.2008861E-2,-4.4718977E-2,-8.746459E-3,2.6207552E-3,-6.1957003E-3,-2.4313241E-2,-1.067049E-2],"split_indices":[2,7,6,1,0,7,0,4,2,1,6,3,2,0,7,0,0,0,0,0,0,0,0,0,0,0,0,0,0,0,0],"split_type":[0,0,0,0,0,0,0,0,0,0,0,0,0,0,0,0,0,0,0,0,0,0,0,0,0,0,0,0,0,0,0],"sum_hessian":[2.7864197E5,1.0441493E5,1.7422705E5,4.305045E4,6.136448E4,1.7956191E4,1.5627086E5,1.452465E3,4.1597984E4,7.5833E3,5.3781184E4,1.3484491E4,4.4716997E3,1.4485906E5,1.1411804E4,8.8140686E2,5.710581E2,1.024037E3,4.0573945E4,3.8707404E2,7.196226E3,1.900096E4,3.478022E4,4.8180338E2,1.30026875E4,4.06399E3,4.0770963E2,9.773394E3,1.3508566E5,3.852619E3,7.5591846E3],"tree_param":{"num_deleted":"0","num_feature":"8","num_nodes":"31","size_leaf_vector":"1"}},{"base_weights":[-9.608365E-2,1.1649149E-1,-1.1530397E-1,3.5632312E-1,1.633475E-2,-4.7284946E-2,-1.52102E-1,4.1359597E-1,-2.4284516E-1,2.2248079E-3,1.2950839E0,5.037382E-2,-9.409023E-2,-3.500117E-1,-1.2844954E-1,5.862694E-2,1.8764444E-2,-1.26431035E-2,9.220614E-2,7.955909E-3,-2.3630445E-3,1.3321471E-1,-1.1964762E-2,2.4116674E-2,2.029075E-3,7.424792E-4,-5.762113E-3,-1.0756335E-2,-4.3259885E-2,-5.861496E-3,-1.4399602E-2],"categories":[],"categories_nodes":[],"categories_segments":[],"categories_sizes":[],"default_left":[0,0,0,0,0,0,0,0,0,0,0,0,0,0,0,0,0,0,0,0,0,0,0,0,0,0,0,0,0,0,0],"id":19,"left_children":[1,3,5,7,9,11,13,15,17,19,21,23,25,27,29,-1,-1,-1,-1,-1,-1,-1,-1,-1,-1,-1,-1,-1,-1,-1,-1],"loss_changes":[1.135241E3,5.534227E2,6.377759E2,2.330091E2,2.9325916E2,4.0891098E2,7.739868E2,1.7967725E2,1.2858635E1,1.2482943E2,3.733021E2,1.2258064E2,1.3935278E2,1.2264319E3,2.6435693E2,0E0,0E0,0E0,0E0,0E0,0E0,0E0,0E0,0E0,0E0,0E0,0E0,0E0,0E0,0E0,0E0],"parents":[2147483647,0,0,1,1,2,2,3,3,4,4,5,5,6,6,7,7,8,8,9,9,10,10,11,11,12,12,13,13,14,14],"right_children":[2,4,6,8,10,12,14,16,18,20,22,24,26,28,30,-1,-1,-1,-1,-1,-1,-1,-1,-1,-1,-1,-1,-1,-1,-1,-1],"split_conditions":[-1.15E-1,1.4989E2,-1.6704766E-2,7.894737E-3,1.7166374E7,6.522E1,3.0395137E-3,-5.1940117E-2,5.6019418E-2,-2.4328433E-2,-3.0410317E-1,-2.6950354E-2,-1.4240506E-2,8.8089E2,2.1276595E-2,5.862694E-2,1.8764444E-2,-1.26431035E-2,9.220614E-2,7.955909E-3,-2.3630445E-3,1.3321471E-1,-1.1964762E-2,2.4116674E-2,2.029075E-3,7.424792E-4,-5.762113E-3,-1.0756335E-2,-4.3259885E-2,-5.861496E-3,-1.4399602E-2],"split_indices":[5,7,2,0,7,7,6,0,3,0,5,0,0,7,0,0,0,0,0,0,0,0,0,0,0,0,0,0,0,0,0],"split_type":[0,0,0,0,0,0,0,0,0,0,0,0,0,0,0,0,0,0,0,0,0,0,0,0,0,0,0,0,0,0,0],"sum_hessian":[2.7784856E5,2.30386E4,2.5480995E5,6.786158E3,1.6252441E4,8.945669E4,1.6535327E5,6.194365E3,5.917927E2,1.6076057E4,1.763843E2,2.8983281E4,6.0473406E4,1.76505E4,1.4770277E5,2.9621082E2,5.898155E3,5.8984045E2,1.9522474E0,3.8541956E3,1.2221861E4,9.281975E1,8.3564545E1,6.4140283E2,2.8341879E4,9.8326045E3,5.06408E4,1.3989272E4,3.6612273E3,1.3799983E5,9.702933E3],"tree_param":{"num_deleted":"0","num_feature":"8","num_nodes":"31","size_leaf_vector":"1"}},{"base_weights":[-9.160919E-2,-2.3572166E-2,-1.4904222E-1,1.5839888E-1,-5.873741E-2,-3.637372E-1,-1.3098793E-1,4.4374302E-1,9.089565E-2,3.4262195E-1,-7.3990405E-2,-1.601541E-1,-7.9804844E-1,-1.4262483E-1,4.602678E-2,5.7870578E-2,2.0514451E-2,5.8460515E-3,-6.605468E-3,3.5057105E-2,4.35662E-3,9.4661966E-4,-5.0799763E-3,5.1827906E-3,-1.9895488E-2,-4.381312E-2,4.544061E-3,-6.366994E-3,-1.2717229E-2,1.8137524E-2,-5.3167026E-3],"categories":[],"categories_nodes":[],"categories_segments":[],"categories_sizes":[],"default_left":[0,0,0,0,0,0,0,0,0,0,0,0,0,0,0,0,0,0,0,0,0,0,0,0,0,0,0,0,0,0,0],"id":20,"left_children":[1,3,5,7,9,11,13,15,17,19,21,23,25,27,29,-1,-1,-1,-1,-1,-1,-1,-1,-1,-1,-1,-1,-1,-1,-1,-1],"loss_changes":[1.0819595E3,8.1105835E2,5.819387E2,3.953369E2,6.502936E2,1.029604E3,2.8530225E2,9.327521E1,9.636388E1,3.561714E2,2.625348E2,4.9746234E2,2.5848218E2,2.2188501E2,4.1234265E2,0E0,0E0,0E0,0E0,0E0,0E0,0E0,0E0,0E0,0E0,0E0,0E0,0E0,0E0,0E0,0E0],"parents":[2147483647,0,0,1,1,2,2,3,3,4,4,5,5,6,6,7,7,8,8,9,9,10,10,11,11,12,12,13,13,14,14],"right_children":[2,4,6,8,10,12,14,16,18,20,22,24,26,28,30,-1,-1,-1,-1,-1,-1,-1,-1,-1,-1,-1,-1,-1,-1,-1,-1],"split_conditions":[-3.7445992E-2,1.25E0,1.7546864E-3,-1.1055746E-1,-4.4E-2,4.655E0,1.7960722E-2,3.5E-4,2.5261324E-2,1.07013E3,-1.2690355E-2,0E0,9.52381E-3,2.71485E4,1.4821313E-2,5.7870578E-2,2.0514451E-2,5.8460515E-3,-6.605468E-3,3.5057105E-2,4.35662E-3,9.4661966E-4,-5.0799763E-3,5.1827906E-3,-1.9895488E-2,-4.381312E-2,4.544061E-3,-6.366994E-3,-1.2717229E-2,1.8137524E-2,-5.3167026E-3],"split_indices":[5,7,6,5,0,7,3,6,2,7,0,3,2,7,6,0,0,0,0,0,0,0,0,0,0,0,0,0,0,0,0],"split_type":[0,0,0,0,0,0,0,0,0,0,0,0,0,0,0,0,0,0,0,0,0,0,0,0,0,0,0,0,0,0,0],"sum_hessian":[2.7688784E5,1.267441E5,1.5014375E5,2.0525652E4,1.06218445E5,1.1645123E4,1.3849862E5,3.9256963E3,1.6599957E4,3.8880793E3,1.0233037E5,7.9295303E3,3.715593E3,1.2995557E5,8.543049E3,1.7427698E2,3.7514192E3,1.4865574E4,1.7343827E3,1.6171047E3,2.2709746E3,2.3439936E4,7.889043E4,3.7590793E3,4.170451E3,3.415122E3,3.004709E2,1.1431738E5,1.563819E4,2.7743735E3,5.768676E3],"tree_param":{"num_deleted":"0","num_feature":"8","num_nodes":"31","size_leaf_vector":"1"}},{"base_weights":[-8.702309E-2,1.19042836E-1,-1.0484141E-1,3.0907166E-1,1.3905809E-2,-4.0801514E-2,-1.3993621E-1,3.8232282E-1,-8.893703E-2,-2.3397263E-3,1.268967E0,3.553763E-2,-9.799433E-2,-3.2632077E-1,-1.1806686E-1,4.9168933E-2,1.7239982E-2,-2.39077E-3,-2.9003043E-2,1.3990196E-3,-9.617188E-3,1.2057096E-1,-8.75084E-3,2.605846E-2,1.2803761E-3,-7.993164E-3,-2.9570404E-3,-9.909474E-3,-4.2324822E-2,-5.6602894E-3,-2.3053812E-2],"categories":[],"categories_nodes":[],"categories_segments":[],"categories_sizes":[],"default_left":[0,0,0,0,0,0,0,0,0,0,0,0,0,0,0,0,0,0,0,0,0,0,0,0,0,0,0,0,0,0,0],"id":21,"left_children":[1,3,5,7,9,11,13,15,17,19,21,23,25,27,29,-1,-1,-1,-1,-1,-1,-1,-1,-1,-1,-1,-1,-1,-1,-1,-1],"loss_changes":[1.0134934E3,4.3890048E2,5.709729E2,2.281676E2,2.883926E2,3.9268362E2,6.689153E2,1.4871405E2,2.455256E1,8.045426E1,2.9859558E2,1.8575668E2,1.235903E2,1.1484717E3,2.4485925E2,0E0,0E0,0E0,0E0,0E0,0E0,0E0,0E0,0E0,0E0,0E0,0E0,0E0,0E0,0E0,0E0],"parents":[2147483647,0,0,1,1,2,2,3,3,4,4,5,5,6,6,7,7,8,8,9,9,10,10,11,11,12,12,13,13,14,14],"right_children":[2,4,6,8,10,12,14,16,18,20,22,24,26,28,30,-1,-1,-1,-1,-1,-1,-1,-1,-1,-1,-1,-1,-1,-1,-1,-1],"split_conditions":[-1.1741613E-1,3.3189E2,-1.6704766E-2,2.5445293E-3,1.7166374E7,2.4443E2,3.0395137E-3,-5.1940117E-2,4.644714E-2,1.0344828E-1,-3.0410317E-1,-3.2608695E-2,1.2773998E-2,9.9071E2,4.644714E-2,4.9168933E-2,1.7239982E-2,-2.39077E-3,-2.9003043E-2,1.3990196E-3,-9.617188E-3,1.2057096E-1,-8.75084E-3,2.605846E-2,1.2803761E-3,-7.993164E-3,-2.9570404E-3,-9.909474E-3,-4.2324822E-2,-5.6602894E-3,-2.3053812E-2],"split_indices":[5,7,2,0,7,7,6,0,0,2,5,0,6,7,0,0,0,0,0,0,0,0,0,0,0,0,0,0,0,0,0],"split_type":[0,0,0,0,0,0,0,0,0,0,0,0,0,0,0,0,0,0,0,0,0,0,0,0,0,0,0,0,0,0,0],"sum_hessian":[2.7602038E5,2.1967234E4,2.5405314E5,7.82396E3,1.4143275E4,8.993845E4,1.6411469E5,6.6078613E3,1.2160986E3,1.3963529E4,1.7974603E2,3.8521523E4,5.141693E4,1.7232703E4,1.4688198E5,3.8679962E2,6.2210615E3,1.1231547E3,9.2943985E1,1.204266E4,1.9208689E3,9.997655E1,7.976949E1,7.708661E2,3.775066E4,1.9832793E4,3.1584137E4,1.3827942E4,3.4047612E3,1.448308E5,2.051186E3],"tree_param":{"num_deleted":"0","num_feature":"8","num_nodes":"31","size_leaf_vector":"1"}},{"base_weights":[-8.359733E-2,-1.09333955E-2,-1.3093945E-1,1.6599639E-1,-4.4753894E-2,-1.1176114E-1,-2.2682896E-1,2.4744944E-1,-1.02458626E-1,3.993278E-1,-5.8244422E-2,-9.340363E-2,-2.0507735E-1,-3.8772872E-1,-1.335591E-1,7.061276E-3,2.3194311E-2,-1.0273846E-4,-1.3341777E-2,3.3834714E-2,2.9914023E-4,1.4385602E-2,-3.3262537E-3,-5.0885794E-3,5.2740755E-3,-1.3685025E-2,-4.588354E-3,2.3226857E-3,-2.9791195E-2,-5.651434E-3,-2.152962E-2],"categories":[],"categories_nodes":[],"categories_segments":[],"categories_sizes":[],"default_left":[0,0,0,0,0,0,0,0,0,0,0,0,0,0,0,0,0,0,0,0,0,0,0,0,0,0,0,0,0,0,0],"id":22,"left_children":[1,3,5,7,9,11,13,15,17,19,21,23,25,27,29,-1,-1,-1,-1,-1,-1,-1,-1,-1,-1,-1,-1,-1,-1,-1,-1],"loss_changes":[9.4690686E2,6.497946E2,3.0647998E2,3.8107907E2,5.461816E2,2.3791174E2,4.1681262E2,3.07323E2,6.696132E1,2.9325015E2,2.5348535E2,1.9316974E2,1.7750287E2,9.209596E2,1.071947E2,0E0,0E0,0E0,0E0,0E0,0E0,0E0,0E0,0E0,0E0,0E0,0E0,0E0,0E0,0E0,0E0],"parents":[2147483647,0,0,1,1,2,2,3,3,4,4,5,5,6,6,7,7,8,8,9,9,10,10,11,11,12,12,13,13,14,14],"right_children":[2,4,6,8,10,12,14,16,18,20,22,24,26,28,30,-1,-1,-1,-1,-1,-1,-1,-1,-1,-1,-1,-1,-1,-1,-1,-1],"split_conditions":[-4.4303797E-2,1.25E0,-2.762431E-3,4.3252597E-4,-5.1940117E-2,1.636718E4,8.553655E-3,-4E-4,1.5831135E-2,4.44057E3,-4.6629753E-2,1.8560752E-2,9.55414E-3,-2.1978267E-4,6.1778408E-2,7.061276E-3,2.3194311E-2,-1.0273846E-4,-1.3341777E-2,3.3834714E-2,2.9914023E-4,1.4385602E-2,-3.3262537E-3,-5.0885794E-3,5.2740755E-3,-1.3685025E-2,-4.588354E-3,2.3226857E-3,-2.9791195E-2,-5.651434E-3,-2.152962E-2],"split_indices":[5,7,5,1,0,7,2,1,1,7,3,3,1,3,1,0,0,0,0,0,0,0,0,0,0,0,0,0,0,0,0],"split_type":[0,0,0,0,0,0,0,0,0,0,0,0,0,0,0,0,0,0,0,0,0,0,0,0,0,0,0,0,0,0,0],"sum_hessian":[2.7525784E5,1.08589086E5,1.6666875E5,1.7425385E4,9.11637E4,1.3889194E5,2.7776812E4,1.3369091E4,4.0562932E3,2.6869214E3,8.847678E4,1.1606183E5,2.2830111E4,1.0191797E4,1.7585016E4,8.968928E3,4.4001636E3,2.518791E3,1.5375023E3,1.5753477E3,1.1115737E3,2.0674453E3,8.6409336E4,1.11376234E5,4.6855903E3,1.4217981E4,8.612131E3,3.3023494E3,6.8894473E3,1.644944E4,1.1355754E3],"tree_param":{"num_deleted":"0","num_feature":"8","num_nodes":"31","size_leaf_vector":"1"}},{"base_weights":[-7.837983E-2,1.0689045E-1,-9.542355E-2,2.8416878E-1,9.782761E-3,-6.667174E-2,-1.6200325E-1,3.3606407E-1,-1.4727332E-1,-4.3402505E-3,1.1428182E0,-5.760342E-2,-3.8572317E-1,-8.0972266E-1,-1.3461483E-1,5.2822717E-2,1.5516566E-2,5.5575516E-2,-8.246734E-3,1.2317882E-3,-1.0064269E-2,1.0957869E-1,-7.3322863E-3,4.7453274E-3,-3.7166064E-3,-1.4840542E-2,-3.2533098E-2,-5.196779E-3,-4.3897938E-2,-6.2901177E-3,-1.8342149E-2],"categories":[],"categories_nodes":[],"categories_segments":[],"categories_sizes":[],"default_left":[0,0,0,0,0,0,0,0,0,0,0,0,0,0,0,0,0,0,0,0,0,0,0,0,0,0,0,0,0,0,0],"id":23,"left_children":[1,3,5,7,9,11,13,15,17,19,21,23,25,27,29,-1,-1,-1,-1,-1,-1,-1,-1,-1,-1,-1,-1,-1,-1,-1,-1],"loss_changes":[8.668086E2,3.981084E2,4.812002E2,1.8329584E2,2.3911057E2,5.0793298E2,1.344845E3,1.3510657E2,1.9734894E1,8.423214E1,2.491013E2,4.3554895E2,1.14101135E2,1.4802637E2,1.4881702E2,0E0,0E0,0E0,0E0,0E0,0E0,0E0,0E0,0E0,0E0,0E0,0E0,0E0,0E0,0E0,0E0],"parents":[2147483647,0,0,1,1,2,2,3,3,4,4,5,5,6,6,7,7,8,8,9,9,10,10,11,11,12,12,13,13,14,14],"right_children":[2,4,6,8,10,12,14,16,18,20,22,24,26,28,30,-1,-1,-1,-1,-1,-1,-1,-1,-1,-1,-1,-1,-1,-1,-1,-1],"split_conditions":[-1.15E-1,3.106E2,3.2315E3,7.246377E-3,1.7166374E7,2.5705105E-2,3.6443148E-3,-2.0214953E-1,7.820137E-3,1.0815939E-1,-3.0410317E-1,-1.2345679E-2,4.644714E-2,-1.509434E-2,2.1410442E6,5.2822717E-2,1.5516566E-2,5.5575516E-2,-8.246734E-3,1.2317882E-3,-1.0064269E-2,1.0957869E-1,-7.3322863E-3,4.7453274E-3,-3.7166064E-3,-1.4840542E-2,-3.2533098E-2,-5.196779E-3,-4.3897938E-2,-6.2901177E-3,-1.8342149E-2],"split_indices":[5,7,7,0,7,0,6,2,6,2,5,0,0,5,7,0,0,0,0,0,0,0,0,0,0,0,0,0,0,0,0],"split_type":[0,0,0,0,0,0,0,0,0,0,0,0,0,0,0,0,0,0,0,0,0,0,0,0,0,0,0,0,0,0,0],"sum_hessian":[2.7450247E5,2.3124715E4,2.5137775E5,8.1833633E3,1.4941352E4,1.7556406E5,7.5813695E4,7.304924E3,8.784394E2,1.4758389E4,1.8296356E2,1.7071311E5,4.8509536E3,3.074524E3,7.273917E4,2.505553E2,7.0543687E3,1.1297471E1,8.671419E2,1.2866281E4,1.8921068E3,1.0051357E2,8.245E1,1.6873988E4,1.5383912E5,3.63364E3,1.2173137E3,2.712655E2,2.8032585E3,7.0081305E4,2.657868E3],"tree_param":{"num_deleted":"0","num_feature":"8","num_nodes":"31","size_leaf_vector":"1"}},{"base_weights":[-7.6513186E-2,1.01176426E-1,-9.2061356E-2,1.5496528E-1,-1.368922E-1,-7.347728E-2,-1.9206043E-1,5.85061E-1,1.2420041E-1,4.644882E-2,-2.2627065E-1,3.64564E-2,-8.635355E-2,-3.4599736E-1,-1.0577318E-1,5.5378716E-2,2.4120163E-2,-1.3501163E-3,9.280094E-3,3.5699594E-3,-2.3588302E-2,-6.7033037E-3,-2.037012E-2,2.9257623E-2,1.3131505E-3,-1.4968031E-3,-5.272496E-3,2.9930866E-3,-2.510053E-2,-3.3843238E-3,-1.5695494E-2],"categories":[],"categories_nodes":[],"categories_segments":[],"categories_sizes":[],"default_left":[0,0,0,0,0,0,0,0,0,0,0,0,0,0,0,0,0,0,0,0,0,0,0,0,0,0,0,0,0,0,0],"id":24,"left_children":[1,3,5,7,9,11,13,15,17,19,21,23,25,27,29,-1,-1,-1,-1,-1,-1,-1,-1,-1,-1,-1,-1,-1,-1,-1,-1],"loss_changes":[7.562036E2,2.820434E2,4.6772095E2,2.3763962E2,6.6531624E1,3.004447E2,5.238815E2,6.378015E1,1.556726E2,1.7246082E1,4.552646E1,1.2445326E2,2.0468933E2,8.9710144E2,2.0035532E2,0E0,0E0,0E0,0E0,0E0,0E0,0E0,0E0,0E0,0E0,0E0,0E0,0E0,0E0,0E0,0E0],"parents":[2147483647,0,0,1,1,2,2,3,3,4,4,5,5,6,6,7,7,8,8,9,9,10,10,11,11,12,12,13,13,14,14],"right_children":[2,4,6,8,10,12,14,16,18,20,22,24,26,28,30,-1,-1,-1,-1,-1,-1,-1,-1,-1,-1,-1,-1,-1,-1,-1,-1],"split_conditions":[-1.1741613E-1,7.246377E-3,-5.952381E-3,-1.0828026E-1,-3.2028526E-2,-1.4659686E-2,9.041592E-3,-5.8028694E-2,-3.9516455E-3,7.816712E-2,2.5705105E-2,-6.792453E-2,-3.4414224E-2,-1.0054754E-3,1.5037594E-2,5.5378716E-2,2.4120163E-2,-1.3501163E-3,9.280094E-3,3.5699594E-3,-2.3588302E-2,-6.7033037E-3,-2.037012E-2,2.9257623E-2,1.3131505E-3,-1.4968031E-3,-5.272496E-3,2.9930866E-3,-2.510053E-2,-3.3843238E-3,-1.5695494E-2],"split_indices":[5,0,5,1,3,0,2,3,4,0,0,0,2,3,6,0,0,0,0,0,0,0,0,0,0,0,0,0,0,0,0],"split_type":[0,0,0,0,0,0,0,0,0,0,0,0,0,0,0,0,0,0,0,0,0,0,0,0,0,0,0,0,0,0,0],"sum_hessian":[2.7370988E5,2.2022621E4,2.5168725E5,1.7964172E4,4.0584487E3,2.1224488E5,3.944237E4,1.1980005E3,1.6766172E4,1.3302343E3,2.7282144E3,2.2253068E4,1.8999181E5,1.4166407E4,2.5275965E4,1.9511325E2,1.0028872E3,4.8423403E3,1.1923831E4,1.2699524E3,6.0281887E1,1.8090587E3,9.191557E2,4.0483722E2,2.1848232E4,4.8046855E4,1.4194495E5,3.93371E3,1.0232697E4,2.1367309E4,3.9086553E3],"tree_param":{"num_deleted":"0","num_feature":"8","num_nodes":"31","size_leaf_vector":"1"}},{"base_weights":[-7.1337E-2,3.4621824E-2,-9.579108E-2,1.4808142E-1,-6.29259E-2,-2.9527476E-1,-8.646976E-2,5.368299E-1,1.10618696E-1,3.5629562E-1,-7.7918135E-2,-9.178323E-2,-8.063483E-1,-7.96125E-2,-2.7910239E-1,2.8031642E-2,-1.0088425E-2,7.770914E-3,-8.770025E-3,9.4503565E-3,1.0281211E-1,1.2824385E-2,-4.3537994E-3,8.885096E-3,-1.7754251E-2,-4.4398885E-2,9.022134E-3,-3.764616E-3,-1.7131671E-2,-3.437252E-2,-1.047115E-2],"categories":[],"categories_nodes":[],"categories_segments":[],"categories_sizes":[],"default_left":[0,0,0,0,0,0,0,0,0,0,0,0,0,0,0,0,0,0,0,0,0,0,0,0,0,0,0,0,0,0,0],"id":25,"left_children":[1,3,5,7,9,11,13,15,17,19,21,23,25,27,29,-1,-1,-1,-1,-1,-1,-1,-1,-1,-1,-1,-1,-1,-1,-1,-1],"loss_changes":[7.0729004E2,5.665126E2,4.1236548E2,3.445581E2,1.7301295E2,1.0295349E3,2.7985913E2,3.667505E1,2.7659885E2,2.699108E2,8.140274E1,5.0256992E2,2.2725061E2,2.3246094E2,2.0707703E2,0E0,0E0,0E0,0E0,0E0,0E0,0E0,0E0,0E0,0E0,0E0,0E0,0E0,0E0,0E0,0E0],"parents":[2147483647,0,0,1,1,2,2,3,3,4,4,5,5,6,6,7,7,8,8,9,9,10,10,11,11,12,12,13,13,14,14],"right_children":[2,4,6,8,10,12,14,16,18,20,22,24,26,28,30,-1,-1,-1,-1,-1,-1,-1,-1,-1,-1,-1,-1,-1,-1,-1,-1],"split_conditions":[-7.809111E-2,7.8226E2,1.4030612E-3,-6.754772E-2,-5.8028694E-2,3.78E0,3.3378856E5,1.8867925E-2,7.246377E-3,5.7841375E6,-6.792453E-2,0E0,8.064516E-3,3.6363635E-2,6.302521E-3,2.8031642E-2,-1.0088425E-2,7.770914E-3,-8.770025E-3,9.4503565E-3,1.0281211E-1,1.2824385E-2,-4.3537994E-3,8.885096E-3,-1.7754251E-2,-4.4398885E-2,9.022134E-3,-3.764616E-3,-1.7131671E-2,-3.437252E-2,-1.047115E-2],"split_indices":[5,7,6,1,3,7,7,0,0,7,0,3,2,0,6,0,0,0,0,0,0,0,0,0,0,0,0,0,0,0,0],"split_type":[0,0,0,0,0,0,0,0,0,0,0,0,0,0,0,0,0,0,0,0,0,0,0,0,0,0,0,0,0,0,0],"sum_hessian":[2.729641E5,5.1184164E4,2.2177994E5,2.3661967E4,2.75222E4,9.899167E3,2.1188077E5,2.0786462E3,2.158332E4,9.4948175E2,2.6572717E4,7.080958E3,2.8182092E3,2.0459895E5,7.281814E3,2.0139822E3,6.4664085E1,1.8660896E4,2.922425E3,8.6542786E2,8.405392E1,7.075884E2,2.5865129E4,3.49955E3,3.5814082E3,2.602985E3,2.1522406E2,2.0129394E5,3.305019E3,1.0601373E3,6.221677E3],"tree_param":{"num_deleted":"0","num_feature":"8","num_nodes":"31","size_leaf_vector":"1"}},{"base_weights":[-6.829201E-2,-1.9236332E-2,-1.19803816E-1,1.7969443E-2,-1.1094131E-1,-2.5791106E-1,-9.777226E-2,2.414383E-1,-1.0168336E-3,1.5417495E-1,-1.23645656E-1,1.20578244E-1,-3.35611E-1,-1.10817105E-1,6.878073E-2,8.450828E-3,2.1237468E-2,2.597338E-2,-2.609596E-4,5.23167E-3,4.2723678E-2,-5.604938E-3,-2.3305854E-2,-2.5324086E-3,3.767715E-2,-2.3165498E-2,-4.6127624E-4,-1.7607728E-2,-5.1680543E-3,1.074566E-2,-1.0979567E-2],"categories":[],"categories_nodes":[],"categories_segments":[],"categories_sizes":[],"default_left":[0,0,0,0,0,0,0,0,0,0,0,0,0,0,0,0,0,0,0,0,0,0,0,0,0,0,0,0,0,0,0],"id":26,"left_children":[1,3,5,7,9,11,13,15,17,19,21,23,25,27,29,-1,-1,-1,-1,-1,-1,-1,-1,-1,-1,-1,-1,-1,-1,-1,-1],"loss_changes":[6.8836816E2,4.760845E2,4.0428857E2,4.2115662E2,1.3565988E2,5.3764844E2,2.4899341E2,1.03121796E2,2.0011687E2,6.3817417E1,1.5192169E2,3.3757394E2,6.3215344E2,1.9119873E2,3.5084192E2,0E0,0E0,0E0,0E0,0E0,0E0,0E0,0E0,0E0,0E0,0E0,0E0,0E0,0E0,0E0,0E0],"parents":[2147483647,0,0,1,1,2,2,3,3,4,4,5,5,6,6,7,7,8,8,9,9,10,10,11,11,12,12,13,13,14,14],"right_children":[2,4,6,8,10,12,14,16,18,20,22,24,26,28,30,-1,-1,-1,-1,-1,-1,-1,-1,-1,-1,-1,-1,-1,-1,-1,-1],"split_conditions":[-3.267974E-2,1.059322E-3,3.0395137E-3,-1.5502249E-1,-3.703487E-2,-3.1459676E-3,1.7381297E-2,-2.3823704E-4,-6.792453E-2,-9.119746E-2,4.644714E-2,-3.717472E-3,9.041592E-3,-7.077199E-2,2.1531262E-2,8.450828E-3,2.1237468E-2,2.597338E-2,-2.609596E-4,5.23167E-3,4.2723678E-2,-5.604938E-3,-2.3305854E-2,-2.5324086E-3,3.767715E-2,-2.3165498E-2,-4.6127624E-4,-1.7607728E-2,-5.1680543E-3,1.074566E-2,-1.0979567E-2],"split_indices":[5,0,6,5,3,3,3,0,0,5,0,5,2,4,6,0,0,0,0,0,0,0,0,0,0,0,0,0,0,0,0],"split_type":[0,0,0,0,0,0,0,0,0,0,0,0,0,0,0,0,0,0,0,0,0,0,0,0,0,0,0,0,0,0,0],"sum_hessian":[2.7241094E5,1.3953267E5,1.3287827E5,9.9261805E4,4.0270863E4,1.8279635E4,1.1459863E5,7.7721167E3,9.148969E4,1.84102E3,3.842984E4,3.1133655E3,1.5166269E4,1.0627523E5,8.323403E3,5.572485E3,2.1996318E3,7.317836E2,9.075791E4,1.7204583E3,1.20561775E2,3.717767E4,1.2521683E3,2.4511995E3,6.6216614E2,1.0900864E4,4.2654043E3,3.1835464E3,1.0309168E5,5.524247E3,2.7991562E3],"tree_param":{"num_deleted":"0","num_feature":"8","num_nodes":"31","size_leaf_vector":"1"}},{"base_weights":[-6.583633E-2,1.9209057E-1,-7.452923E-2,4.067323E-1,3.7635982E-2,-4.6886533E-2,-1.3968465E-1,8.081893E-1,3.6097994E-1,4.0815386E-1,-1.0268761E-2,2.5272133E-2,-8.362087E-2,-7.8744227E-1,-1.1577957E-1,3.8123634E-2,6.1194785E-2,3.3922132E-2,1.52942315E-2,2.4818523E-2,-2.1054596E-2,4.165806E-3,-6.0361545E-3,4.0437665E-2,7.310433E-4,2.220653E-3,-5.482023E-3,3.6807593E-2,-4.038253E-2,-9.322615E-3,-4.6138E-3],"categories":[],"categories_nodes":[],"categories_segments":[],"categories_sizes":[],"default_left":[0,0,0,0,0,0,0,0,0,0,0,0,0,0,0,0,0,0,0,0,0,0,0,0,0,0,0,0,0,0,0],"id":27,"left_children":[1,3,5,7,9,11,13,15,17,19,21,23,25,27,29,-1,-1,-1,-1,-1,-1,-1,-1,-1,-1,-1,-1,-1,-1,-1,-1],"loss_changes":[6.0926843E2,2.9370786E2,4.7344336E2,6.780475E1,9.14741E1,4.8923843E2,1.2124154E3,6.259796E0,5.8035492E1,4.337142E1,4.7190914E1,5.195838E2,4.074535E2,8.639575E1,1.2542255E2,0E0,0E0,0E0,0E0,0E0,0E0,0E0,0E0,0E0,0E0,0E0,0E0,0E0,0E0,0E0,0E0],"parents":[2147483647,0,0,1,1,2,2,3,3,4,4,5,5,6,6,7,7,8,8,9,9,10,10,11,11,12,12,13,13,14,14],"right_children":[2,4,6,8,10,12,14,16,18,20,22,24,26,28,30,-1,-1,-1,-1,-1,-1,-1,-1,-1,-1,-1,-1,-1,-1,-1,-1],"split_conditions":[-5.4173578E-2,8.0526E2,3.4415452E3,-6.792453E-2,-4.6629753E-2,-5.106462E-3,3.6443148E-3,-6.754772E-2,-1.0828026E-1,2.891089E-2,1.180286E4,2.0716357E-4,-6.7114094E-3,-3.7109375E-2,-3.3275925E-3,3.8123634E-2,6.1194785E-2,3.3922132E-2,1.52942315E-2,2.4818523E-2,-2.1054596E-2,4.165806E-3,-6.0361545E-3,4.0437665E-2,7.310433E-4,2.220653E-3,-5.482023E-3,3.6807593E-2,-4.038253E-2,-9.322615E-3,-4.6138E-3],"split_indices":[1,7,7,0,3,3,6,1,1,0,7,6,0,2,4,0,0,0,0,0,0,0,0,0,0,0,0,0,0,0,0],"split_type":[0,0,0,0,0,0,0,0,0,0,0,0,0,0,0,0,0,0,0,0,0,0,0,0,0,0,0,0,0,0,0],"sum_hessian":[2.7172903E5,8.858786E3,2.6287025E5,3.7064248E3,5.152361E3,1.8456767E5,7.830256E4,3.774858E2,3.3289392E3,5.890271E2,4.5633335E3,6.2262797E4,1.2230488E5,2.7857207E3,7.551684E4,3.426389E2,3.4846947E1,4.9062335E2,2.8383157E3,5.327533E2,5.6273808E1,2.4704424E3,2.0928914E3,8.3409216E2,6.1428707E4,2.0657137E4,1.0164774E5,3.6001278E1,2.7497195E3,1.8845E4,5.667184E4],"tree_param":{"num_deleted":"0","num_feature":"8","num_nodes":"31","size_leaf_vector":"1"}},{"base_weights":[-6.2375985E-2,7.983524E-2,-7.654755E-2,2.2229148E-1,1.4185308E-2,-6.329387E-3,-1.0318723E-1,6.5691847E-1,1.608882E-1,4.7377327E-1,1.5460373E-3,2.0746475E-1,-6.381618E-2,-3.3992794E-1,-9.0736255E-2,3.875145E-2,2.4579441E-2,1.4629535E-2,6.2313764E-3,3.3969034E-2,1.2463046E-2,3.1283312E-3,-3.8260182E-3,1.5425227E-2,-3.721526E-3,9.012727E-3,-3.5686505E-3,-7.4902247E-3,-4.033714E-2,-4.22023E-3,-1.4056789E-2],"categories":[],"categories_nodes":[],"categories_segments":[],"categories_sizes":[],"default_left":[0,0,0,0,0,0,0,0,0,0,0,0,0,0,0,0,0,0,0,0,0,0,0,0,0,0,0,0,0,0,0],"id":28,"left_children":[1,3,5,7,9,11,13,15,17,19,21,23,25,27,29,-1,-1,-1,-1,-1,-1,-1,-1,-1,-1,-1,-1,-1,-1,-1,-1],"loss_changes":[5.463546E2,2.2975519E2,4.611494E2,2.0672229E2,9.769378E1,8.333659E2,5.267804E2,1.8346375E1,3.2399277E1,2.0609734E1,7.798139E1,4.0928467E2,9.857327E1,7.9240063E2,2.046698E2,0E0,0E0,0E0,0E0,0E0,0E0,0E0,0E0,0E0,0E0,0E0,0E0,0E0,0E0,0E0,0E0],"parents":[2147483647,0,0,1,1,2,2,3,3,4,4,5,5,6,6,7,7,8,8,9,9,10,10,11,11,12,12,13,13,14,14],"right_children":[2,4,6,8,10,12,14,16,18,20,22,24,26,28,30,-1,-1,-1,-1,-1,-1,-1,-1,-1,-1,-1,-1,-1,-1,-1,-1],"split_conditions":[-1.6597511E-2,4.4566E2,-7.0913807E-3,-5.1940117E-2,-2.0214953E-1,1.25E0,1.4030612E-3,-6.792453E-2,-3.2608695E-2,-8.605201E-2,8.45039E3,6.385696E-4,-4.6629753E-2,3.78E0,2.891089E-2,3.875145E-2,2.4579441E-2,1.4629535E-2,6.2313764E-3,3.3969034E-2,1.2463046E-2,3.1283312E-3,-3.8260182E-3,1.5425227E-2,-3.721526E-3,9.012727E-3,-3.5686505E-3,-7.4902247E-3,-4.033714E-2,-4.22023E-3,-1.4056789E-2],"split_indices":[0,7,3,0,2,7,6,0,0,1,7,1,3,7,0,0,0,0,0,0,0,0,0,0,0,0,0,0,0,0,0],"split_type":[0,0,0,0,0,0,0,0,0,0,0,0,0,0,0,0,0,0,0,0,0,0,0,0,0,0,0,0,0,0,0],"sum_hessian":[2.710918E5,2.4566188E4,2.4652561E5,7.748987E3,1.6817201E4,6.78045E4,1.7872111E5,9.58042E2,6.790945E3,4.491397E2,1.6368062E4,1.43678125E4,5.343669E4,8.928573E3,1.6979253E5,5.566715E2,4.0137048E2,1.4645344E3,5.3264106E3,2.3338281E2,2.1575691E2,9.187137E3,7.180925E3,1.0576707E4,3.7911057E3,1.6041124E3,5.183258E4,6.3455083E3,2.5830652E3,1.6432928E5,5.4632563E3],"tree_param":{"num_deleted":"0","num_feature":"8","num_nodes":"31","size_leaf_vector":"1"}},{"base_weights":[-5.8436003E-2,1.20775804E-1,-7.0009984E-2,3.505628E-1,5.282533E-2,-4.7850743E-2,-1.4810465E-1,4.1911498E-1,-1.0130681E-2,3.7784908E-2,1.2268524E0,4.2397087E-3,-8.1876814E-2,-7.9239887E-1,-1.20922334E-1,1.33019565E-2,3.4699593E-2,-3.5888348E-2,1.3535449E-3,6.0532633E-3,-2.0940036E-3,9.819468E-2,-9.388815E-3,8.113468E-3,-4.7826307E-4,-3.7077523E-3,-1.8822148E-2,2.3126166E-2,-4.1373305E-2,-2.8906936E-2,-5.784677E-3],"categories":[],"categories_nodes":[],"categories_segments":[],"categories_sizes":[],"default_left":[0,0,0,0,0,0,0,0,0,0,0,0,0,0,0,0,0,0,0,0,0,0,0,0,0,0,0,0,0,0,0],"id":29,"left_children":[1,3,5,7,9,11,13,15,17,19,21,23,25,27,29,-1,-1,-1,-1,-1,-1,-1,-1,-1,-1,-1,-1,-1,-1,-1,-1],"loss_changes":[5.6118164E2,2.5625992E2,4.3978308E2,9.262152E1,2.2365292E2,3.5088358E2,9.83666E2,1.3225342E2,1.5792904E1,8.299852E1,1.674117E2,1.70648E2,2.723449E2,1.0044226E2,1.2878925E2,0E0,0E0,0E0,0E0,0E0,0E0,0E0,0E0,0E0,0E0,0E0,0E0,0E0,0E0,0E0,0E0],"parents":[2147483647,0,0,1,1,2,2,3,3,4,4,5,5,6,6,7,7,8,8,9,9,10,10,11,11,12,12,13,13,14,14],"right_children":[2,4,6,8,10,12,14,16,18,20,22,24,26,28,30,-1,-1,-1,-1,-1,-1,-1,-1,-1,-1,-1,-1,-1,-1,-1,-1],"split_conditions":[-1.3204166E-1,4.742E1,7.58994E3,5.982054E-3,1.7166374E7,-1.369863E-2,3.8714285E-3,-4E-4,-3.0410317E-1,3.4415452E3,-3.0410317E-1,-3.8280725E-2,5.721831E-2,-3.1088082E-2,-1.3212056E1,1.33019565E-2,3.4699593E-2,-3.5888348E-2,1.3535449E-3,6.0532633E-3,-2.0940036E-3,9.819468E-2,-9.388815E-3,8.113468E-3,-4.7826307E-4,-3.7077523E-3,-1.8822148E-2,2.3126166E-2,-4.1373305E-2,-2.8906936E-2,-5.784677E-3],"split_indices":[5,7,7,1,7,2,6,1,5,7,5,1,1,5,4,0,0,0,0,0,0,0,0,0,0,0,0,0,0,0,0],"split_type":[0,0,0,0,0,0,0,0,0,0,0,0,0,0,0,0,0,0,0,0,0,0,0,0,0,0,0,0,0,0,0],"sum_hessian":[2.7054906E5,1.641223E4,2.5413684E5,3.7446953E3,1.2667535E4,1.9796594E5,5.617091E4,3.1465173E3,5.9817804E2,1.2508323E4,1.5921156E2,7.821997E4,1.1974596E5,2.2727383E3,5.389817E4,2.022293E3,1.1242244E3,2.8962816E1,5.692152E2,6.115142E3,6.393181E3,1.0441935E2,5.4792217E1,6.283227E3,7.193674E4,1.16688336E5,3.0576191E3,6.145096E1,2.2112874E3,6.0817865E2,5.3289992E4],"tree_param":{"num_deleted":"0","num_feature":"8","num_nodes":"31","size_leaf_vector":"1"}},{"base_weights":[-5.6167215E-2,-4.80457E-3,-9.029845E-2,1.4617623E-1,-3.4104105E-2,-2.7003288E-1,-7.9507194E-2,2.0620598E-1,-1.3953054E-1,1.8004243E-1,-5.2636687E-2,-8.313998E-2,-7.8073585E-1,-9.2045024E-2,3.3290226E-2,6.1095427E-3,1.72658E-2,-1.4486014E-3,-1.2486073E-2,1.6835874E-2,-7.492918E-4,-1.5224909E-3,-6.5625417E-3,8.166778E-3,-1.5984144E-2,-4.3149527E-2,1.4578635E-2,-4.2714565E-3,-1.6994415E-2,1.0271127E-2,-3.7600223E-3],"categories":[],"categories_nodes":[],"categories_segments":[],"categories_sizes":[],"default_left":[0,0,0,0,0,0,0,0,0,0,0,0,0,0,0,0,0,0,0,0,0,0,0,0,0,0,0,0,0,0,0],"id":30,"left_children":[1,3,5,7,9,11,13,15,17,19,21,23,25,27,29,-1,-1,-1,-1,-1,-1,-1,-1,-1,-1,-1,-1,-1,-1,-1,-1],"loss_changes":[4.7323676E2,4.7674673E2,3.1453235E2,3.0043213E2,3.582089E2,8.766362E2,2.1637213E2,1.6912695E2,3.704907E1,2.1967339E2,1.4488399E2,3.921649E2,2.1729114E2,2.257406E2,2.8583923E2,0E0,0E0,0E0,0E0,0E0,0E0,0E0,0E0,0E0,0E0,0E0,0E0,0E0,0E0,0E0,0E0],"parents":[2147483647,0,0,1,1,2,2,3,3,4,4,5,5,6,6,7,7,8,8,9,9,10,10,11,11,12,12,13,13,14,14],"right_children":[2,4,6,8,10,12,14,16,18,20,22,24,26,28,30,-1,-1,-1,-1,-1,-1,-1,-1,-1,-1,-1,-1,-1,-1,-1,-1],"split_conditions":[-4.4303797E-2,1.25E0,1.4030612E-3,5.1282053E-3,-3.2608695E-2,5.23E0,1.4252948E-2,-4E-4,1.5831135E-2,3.55159E3,7.0422534E-3,0E0,1E-2,5.635966E5,1.4405762E-2,6.1095427E-3,1.72658E-2,-1.4486014E-3,-1.2486073E-2,1.6835874E-2,-7.492918E-4,-1.5224909E-3,-6.5625417E-3,8.166778E-3,-1.5984144E-2,-4.3149527E-2,1.4578635E-2,-4.2714565E-3,-1.6994415E-2,1.0271127E-2,-3.7600223E-3],"split_indices":[5,7,6,1,0,7,3,1,1,7,0,3,2,7,6,0,0,0,0,0,0,0,0,0,0,0,0,0,0,0,0],"split_type":[0,0,0,0,0,0,0,0,0,0,0,0,0,0,0,0,0,0,0,0,0,0,0,0,0,0,0,0,0,0,0],"sum_hessian":[2.699466E5,1.07769695E5,1.621769E5,1.7514307E4,9.025538E4,9.184237E3,1.5299266E5,1.4473552E4,3.040755E3,7.188026E3,8.306736E4,6.72454E3,2.4596978E3,1.376883E5,1.530436E4,9.024878E3,5.448674E3,1.518476E3,1.5222788E3,3.9855369E3,3.202489E3,6.478485E4,1.828251E4,3.293281E3,3.431259E3,2.2846423E3,1.7505527E2,1.3410975E5,3.5785613E3,5.9164194E3,9.38794E3],"tree_param":{"num_deleted":"0","num_feature":"8","num_nodes":"31","size_leaf_vector":"1"}},{"base_weights":[-5.4064352E-2,-3.6414536E-3,-8.735517E-2,3.809933E-1,-1.0955742E-2,-2.3598523E-1,-7.157217E-2,4.3325084E-1,-4.4106048E-1,-5.7158303E-2,4.2081654E-2,1.843183E-1,-3.041769E-1,-5.9937794E-2,-2.220298E-1,3.5688072E-2,1.7896978E-2,-2.5046904E-2,1.1246272E-2,8.3728945E-3,-3.3320175E-3,3.3232064E-3,-7.7901236E-3,3.3309724E-2,-1.9132126E-4,-2.3831626E-2,-1.0287444E-3,-3.7204828E-3,1.6942493E-3,-1.7386582E-2,-4.8758574E-3],"categories":[],"categories_nodes":[],"categories_segments":[],"categories_sizes":[],"default_left":[0,0,0,0,0,0,0,0,0,0,0,0,0,0,0,0,0,0,0,0,0,0,0,0,0,0,0,0,0,0,0],"id":31,"left_children":[1,3,5,7,9,11,13,15,17,19,21,23,25,27,29,-1,-1,-1,-1,-1,-1,-1,-1,-1,-1,-1,-1,-1,-1,-1,-1],"loss_changes":[4.522337E2,3.014183E2,3.8064392E2,8.608075E1,2.576429E2,4.465108E2,2.567741E2,3.9468353E1,4.8978825E0,1.1968738E2,2.3618822E2,1.9720209E2,6.555082E2,1.8488953E2,1.6475873E2,0E0,0E0,0E0,0E0,0E0,0E0,0E0,0E0,0E0,0E0,0E0,0E0,0E0,0E0,0E0,0E0],"parents":[2147483647,0,0,1,1,2,2,3,3,4,4,5,5,6,6,7,7,8,8,9,9,10,10,11,11,12,12,13,13,14,14],"right_children":[2,4,6,8,10,12,14,16,18,20,22,24,26,28,30,-1,-1,-1,-1,-1,-1,-1,-1,-1,-1,-1,-1,-1,-1,-1,-1],"split_conditions":[-1.4705882E-2,-8.605201E-2,3.0395137E-3,1.5318146E-2,-1.0948601E-3,-2.1878048E-3,2.0408163E-2,-4.6629753E-2,-5.704698E-2,-4.0930945E-2,9.615385E-3,2.0716357E-4,5.291005E-3,1.5882647E-2,2.5435066E-4,3.5688072E-2,1.7896978E-2,-2.5046904E-2,1.1246272E-2,8.3728945E-3,-3.3320175E-3,3.3232064E-3,-7.7901236E-3,3.3309724E-2,-1.9132126E-4,-2.3831626E-2,-1.0287444E-3,-3.7204828E-3,1.6942493E-3,-1.7386582E-2,-4.8758574E-3],"split_indices":[2,1,6,0,4,3,0,3,2,3,0,6,2,3,4,0,0,0,0,0,0,0,0,0,0,0,0,0,0,0,0],"split_type":[0,0,0,0,0,0,0,0,0,0,0,0,0,0,0,0,0,0,0,0,0,0,0,0,0,0,0,0,0,0,0],"sum_hessian":[2.6940725E5,1.0713686E5,1.6227038E5,1.9983624E3,1.051385E5,1.5575974E4,1.466944E5,1.879365E3,1.18997345E2,5.6189746E4,4.894875E4,2.174096E3,1.3401878E4,1.3616652E5,1.0527892E4,3.9598166E2,1.4833834E3,1.09408455E2,9.588887E0,2.2752656E3,5.391448E4,4.3579703E4,5.3690493E3,6.09782E2,1.564314E3,8.33361E3,5.068267E3,1.17970195E5,1.819632E4,5.2380366E3,5.289855E3],"tree_param":{"num_deleted":"0","num_feature":"8","num_nodes":"31","size_leaf_vector":"1"}},{"base_weights":[-5.186585E-2,-2.9351478E-3,-8.451497E-2,8.182805E-2,-4.981498E-2,-2.635189E-1,-7.4849315E-2,4.0838978E-1,5.734703E-2,1.5787093E-1,-5.914406E-2,-7.8861E-2,-8.081815E-1,-2.6498142E-1,-6.8126194E-2,2.88914E-2,1.5720254E-2,4.1499906E-3,-1.145169E-2,5.3653116E-3,8.248477E-2,-1.0596538E-3,-5.1967236E-3,9.769928E-3,-1.6869036E-2,-4.38016E-2,9.192247E-3,7.4989386E-3,-1.60117E-2,-2.928521E-3,-1.0747207E-2],"categories":[],"categories_nodes":[],"categories_segments":[],"categories_sizes":[],"default_left":[0,0,0,0,0,0,0,0,0,0,0,0,0,0,0,0,0,0,0,0,0,0,0,0,0,0,0,0,0,0,0],"id":32,"left_children":[1,3,5,7,9,11,13,15,17,19,21,23,25,27,29,-1,-1,-1,-1,-1,-1,-1,-1,-1,-1,-1,-1,-1,-1,-1,-1],"loss_changes":[4.2934747E2,4.274121E2,2.7888037E2,3.061987E2,1.3419576E2,8.304729E2,1.9548157E2,4.2354004E1,2.6180084E2,2.2442657E2,1.1266377E2,4.3739258E2,1.408844E2,1.1979755E2,2.0722919E2,0E0,0E0,0E0,0E0,0E0,0E0,0E0,0E0,0E0,0E0,0E0,0E0,0E0,0E0,0E0,0E0],"parents":[2147483647,0,0,1,1,2,2,3,3,4,4,5,5,6,6,7,7,8,8,9,9,10,10,11,11,12,12,13,13,14,14],"right_children":[2,4,6,8,10,12,14,16,18,20,22,24,26,28,30,-1,-1,-1,-1,-1,-1,-1,-1,-1,-1,-1,-1,-1,-1,-1,-1],"split_conditions":[-4.4303797E-2,1.974E2,1.2160778E-3,-5.4173578E-2,-4.0930945E-2,5.23E0,-7.077199E-2,-8.605201E-2,9.615385E-3,5.7841375E6,4.74498E3,0E0,1.8288037E-3,9.541E0,2.367618E-2,2.88914E-2,1.5720254E-2,4.1499906E-3,-1.145169E-2,5.3653116E-3,8.248477E-2,-1.0596538E-3,-5.1967236E-3,9.769928E-3,-1.6869036E-2,-4.38016E-2,9.192247E-3,7.4989386E-3,-1.60117E-2,-2.928521E-3,-1.0747207E-2],"split_indices":[5,7,6,1,3,7,4,1,0,7,7,4,3,7,6,0,0,0,0,0,0,0,0,0,0,0,0,0,0,0,0],"split_type":[0,0,0,0,0,0,0,0,0,0,0,0,0,0,0,0,0,0,0,0,0,0,0,0,0,0,0,0,0,0,0],"sum_hessian":[2.6875388E5,1.0755862E5,1.6119527E5,3.8302785E4,6.9255836E4,8.25678E3,1.5293848E5,2.6700667E3,3.563272E4,2.9764983E3,6.6279336E4,6.167087E3,2.089693E3,5.2219355E3,1.4771655E5,9.507963E2,1.7192703E3,3.270395E4,2.928771E3,2.8799553E3,9.654285E1,3.58798E4,3.0399535E4,2.9925652E3,3.1745217E3,1.9560261E3,1.3366695E2,6.1340485E2,4.608531E3,1.3869111E5,9.025437E3],"tree_param":{"num_deleted":"0","num_feature":"8","num_nodes":"31","size_leaf_vector":"1"}},{"base_weights":[-4.938532E-2,1.0532956E-1,-5.9502132E-2,1.4865018E-1,-9.539726E-2,3.3453908E-2,-7.1889915E-2,4.4845495E-1,1.21232636E-1,-6.500713E-2,-5.6417733E-1,2.1958004E-1,1.8337322E-2,-3.0701753E-2,-9.80248E-2,2.7916646E-2,6.842216E-3,3.255148E-2,5.4635047E-3,4.5478265E-3,-7.609108E-3,-5.6667454E-3,-3.0429352E-2,2.0426162E-2,7.7753565E-3,-1.836035E-3,2.0881225E-3,-4.2942087E-3,-3.7337475E-5,-8.986498E-3,-3.5760433E-3],"categories":[],"categories_nodes":[],"categories_segments":[],"categories_sizes":[],"default_left":[0,0,0,0,0,0,0,0,0,0,0,0,0,0,0,0,0,0,0,0,0,0,0,0,0,0,0,0,0,0,0],"id":33,"left_children":[1,3,5,7,9,11,13,15,17,19,21,23,25,27,29,-1,-1,-1,-1,-1,-1,-1,-1,-1,-1,-1,-1,-1,-1,-1,-1],"loss_changes":[4.200592E2,1.4324649E2,2.9006512E2,1.113114E2,4.162661E1,8.334033E1,2.3926404E2,3.8778976E1,7.860828E1,3.737037E1,3.493248E0,2.6872688E1,3.533793E1,1.4263428E2,2.9446802E2,0E0,0E0,0E0,0E0,0E0,0E0,0E0,0E0,0E0,0E0,0E0,0E0,0E0,0E0,0E0,0E0],"parents":[2147483647,0,0,1,1,2,2,3,3,4,4,5,5,6,6,7,7,8,8,9,9,10,10,11,11,12,12,13,13,14,14],"right_children":[2,4,6,8,10,12,14,16,18,20,22,24,26,28,30,-1,-1,-1,-1,-1,-1,-1,-1,-1,-1,-1,-1,-1,-1,-1,-1],"split_conditions":[-1.3204166E-1,7.894737E-3,-1.2345679E-2,-1.0828026E-1,7.816712E-2,-4.4E-2,-1.1741683E-2,1.3897854E-2,5.7351408E-3,-3.2028526E-2,-1.0828026E-1,-6.792453E-2,-9.4059465E-4,-3.7259536E-3,1.7905103E-3,2.7916646E-2,6.842216E-3,3.255148E-2,5.4635047E-3,4.5478265E-3,-7.609108E-3,-5.6667454E-3,-3.0429352E-2,2.0426162E-2,7.7753565E-3,-1.836035E-3,2.0881225E-3,-4.2942087E-3,-3.7337475E-5,-8.986498E-3,-3.5760433E-3],"split_indices":[5,0,0,1,0,0,2,3,6,3,1,0,4,4,2,0,0,0,0,0,0,0,0,0,0,0,0,0,0,0,0],"split_type":[0,0,0,0,0,0,0,0,0,0,0,0,0,0,0,0,0,0,0,0,0,0,0,0,0,0,0,0,0,0,0],"sum_hessian":[2.6836547E5,1.6470791E4,2.5189467E5,1.354729E4,2.9235015E3,2.9621057E4,2.2227362E5,1.133824E3,1.2413466E4,2.7465842E3,1.769172E2,2.2240046E3,2.7397053E4,8.628771E4,1.359859E5,8.376618E2,2.9616223E2,2.7292114E2,1.2140545E4,9.847457E2,1.7618385E3,1.618284E1,1.6073436E2,5.618377E2,1.6621669E3,8.1771196E3,1.9219932E4,3.0359068E4,5.5928645E4,3.3305965E4,1.0267994E5],"tree_param":{"num_deleted":"0","num_feature":"8","num_nodes":"31","size_leaf_vector":"1"}},{"base_weights":[-4.5737334E-2,-2.0295948E-2,-1.0508798E-1,1.8984611E-1,-3.318047E-2,-7.1646166E-1,-8.55621E-2,3.9764562E-1,1.3461186E-1,-2.4818145E-2,-3.1590226E-1,-1.3868351E-1,-7.894085E-1,-4.953568E-1,-8.2103E-2,2.239648E-2,6.248873E-3,2.5554633E-2,4.343049E-3,1.5534686E-3,-2.7748805E-3,2.222158E-2,-1.7191095E-2,-2.2088591E-2,3.1106332E-2,-4.0952086E-2,5.270289E-3,-3.2233145E-2,8.980447E-3,-3.7746695E-3,-1.4131198E-2],"categories":[],"categories_nodes":[],"categories_segments":[],"categories_sizes":[],"default_left":[0,0,0,0,0,0,0,0,0,0,0,0,0,0,0,0,0,0,0,0,0,0,0,0,0,0,0,0,0,0,0],"id":34,"left_children":[1,3,5,7,9,11,13,15,17,19,21,23,25,27,29,-1,-1,-1,-1,-1,-1,-1,-1,-1,-1,-1,-1,-1,-1,-1,-1],"loss_changes":[4.0462042E2,5.078598E2,9.597494E2,1.2432004E2,4.1782446E2,1.04763306E2,1.1040552E2,3.113562E1,1.5388045E2,2.9432297E2,1.0793097E2,6.487505E1,5.8663696E1,6.582022E1,1.02381775E2,0E0,0E0,0E0,0E0,0E0,0E0,0E0,0E0,0E0,0E0,0E0,0E0,0E0,0E0,0E0,0E0],"parents":[2147483647,0,0,1,1,2,2,3,3,4,4,5,5,6,6,7,7,8,8,9,9,10,10,11,11,12,12,13,13,14,14],"right_children":[2,4,6,8,10,12,14,16,18,20,22,24,26,28,30,-1,-1,-1,-1,-1,-1,-1,-1,-1,-1,-1,-1,-1,-1,-1,-1],"split_conditions":[3.4415452E3,-3.8280725E-2,3.6443148E-3,1.25E0,2.5705105E-2,-7.918316E-3,-1.3212056E1,1.3486177E-2,-5.1940117E-2,-4.499968E-3,-1.2219372E-1,-2.4928275E-4,2.4630541E-2,1.6666668E-2,1.1475556E0,2.239648E-2,6.248873E-3,2.5554633E-2,4.343049E-3,1.5534686E-3,-2.7748805E-3,2.222158E-2,-1.7191095E-2,-2.2088591E-2,3.1106332E-2,-4.0952086E-2,5.270289E-3,-3.2233145E-2,8.980447E-3,-3.7746695E-3,-1.4131198E-2],"split_indices":[7,1,6,7,0,2,4,2,0,3,2,4,2,6,4,0,0,0,0,0,0,0,0,0,0,0,0,0,0,0,0],"split_type":[0,0,0,0,0,0,0,0,0,0,0,0,0,0,0,0,0,0,0,0,0,0,0,0,0,0,0,0,0,0,0],"sum_hessian":[2.6796753E5,1.8756628E5,8.040125E4,1.08351455E4,1.7673114E5,2.4872554E3,7.791399E4,2.2739617E3,8.561184E3,1.7165502E5,5.0761143E3,2.7914862E2,2.2081067E3,6.5098175E2,7.7263016E4,1.9193608E3,3.5460083E2,9.6254175E2,7.5986416E3,6.083479E4,1.10820234E5,1.7926547E2,4.8968486E3,1.9992336E2,7.9225266E1,2.1374075E3,7.0699135E1,5.331017E2,1.17880066E2,7.479885E4,2.4641597E3],"tree_param":{"num_deleted":"0","num_feature":"8","num_nodes":"31","size_leaf_vector":"1"}},{"base_weights":[-4.4492748E-2,-2.4599766E-2,-1.1318877E-1,2.9750887E-1,-3.1388067E-2,-6.9930303E-1,-8.9490406E-2,5.832912E-1,2.1450242E-1,-2.5393795E-2,-3.1726602E-1,-2.3538508E-1,-8.101307E-1,3.1092742E-1,-9.3627244E-2,3.7214596E-2,2.286925E-2,1.874551E-2,7.6094638E-3,2.8182424E-3,-2.1129504E-3,2.0686094E-2,-1.768545E-2,2.9727349E-2,-1.8807149E-2,-5.0534714E-2,-3.614868E-2,-2.9510937E-3,8.345824E-2,-4.3620984E-3,-1.7267188E-2],"categories":[],"categories_nodes":[],"categories_segments":[],"categories_sizes":[],"default_left":[0,0,0,0,0,0,0,0,0,0,0,0,0,0,0,0,0,0,0,0,0,0,0,0,0,0,0,0,0,0,0],"id":35,"left_children":[1,3,5,7,9,11,13,15,17,19,21,23,25,27,29,-1,-1,-1,-1,-1,-1,-1,-1,-1,-1,-1,-1,-1,-1,-1,-1],"loss_changes":[3.6535205E2,4.5332556E2,8.338147E2,1.0138187E2,3.4792792E2,1.1975525E2,9.561154E1,1.9171326E1,3.310324E1,2.7422174E2,1.1122769E2,5.2939682E1,3.2178833E1,2.9670154E2,9.1767E1,0E0,0E0,0E0,0E0,0E0,0E0,0E0,0E0,0E0,0E0,0E0,0E0,0E0,0E0,0E0,0E0],"parents":[2147483647,0,0,1,1,2,2,3,3,4,4,5,5,6,6,7,7,8,8,9,9,10,10,11,11,12,12,13,13,14,14],"right_children":[2,4,6,8,10,12,14,16,18,20,22,24,26,28,30,-1,-1,-1,-1,-1,-1,-1,-1,-1,-1,-1,-1,-1,-1,-1,-1],"split_conditions":[7.58994E3,-3.5369776E-2,4.385965E-3,-6.792453E-2,3.0927835E-2,-1.0738255E-2,-3.0410317E-1,1.6139E2,1.3145E2,-7.713053E-2,-1.2975699E-1,-3.5643563E-2,1.2160778E-3,5.7841375E6,5.7841375E6,3.7214596E-2,2.286925E-2,1.874551E-2,7.6094638E-3,2.8182424E-3,-2.1129504E-3,2.0686094E-2,-1.768545E-2,2.9727349E-2,-1.8807149E-2,-5.0534714E-2,-3.614868E-2,-2.9510937E-3,8.345824E-2,-4.3620984E-3,-1.7267188E-2],"split_indices":[7,0,6,0,0,5,5,7,7,5,2,5,6,7,7,0,0,0,0,0,0,0,0,0,0,0,0,0,0,0,0],"split_type":[0,0,0,0,0,0,0,0,0,0,0,0,0,0,0,0,0,0,0,0,0,0,0,0,0,0,0,0,0,0,0],"sum_hessian":[2.67351E5,2.0731744E5,6.003358E4,4.2780645E3,2.0303936E5,2.3319E3,5.770168E4,9.6154395E2,3.3165203E3,1.9887055E5,4.1688154E3,4.5026068E2,1.8816393E3,5.8927954E2,5.71124E4,4.1980835E2,5.4173553E2,9.264971E2,2.3900232E3,3.4007535E4,1.6486302E5,1.9747302E2,3.9713425E3,6.482395E1,3.8543674E2,5.667817E2,1.3148577E3,4.638855E2,1.2539406E2,5.570079E4,1.4116112E3],"tree_param":{"num_deleted":"0","num_feature":"8","num_nodes":"31","size_leaf_vector":"1"}},{"base_weights":[-4.3205056E-2,7.429791E-2,-5.393924E-2,1.4830078E-1,-2.9946938E-2,3.559149E-3,-7.3081724E-2,4.5844972E-1,1.05230875E-1,3.235326E-1,-4.366175E-2,1.9219872E-1,-4.646089E-2,-2.0592016E-1,-5.9100393E-2,2.9120723E-2,1.5593111E-2,5.949384E-3,-6.7590536E-3,1.4163089E-2,8.761429E-2,3.8274527E-2,-2.3268869E-3,1.3766833E-2,-2.0866815E-3,-5.3640413E-3,-8.700802E-4,-5.8454773E-3,-3.6053512E-2,-2.7169927E-3,-1.3510763E-2],"categories":[],"categories_nodes":[],"categories_segments":[],"categories_sizes":[],"default_left":[0,0,0,0,0,0,0,0,0,0,0,0,0,0,0,0,0,0,0,0,0,0,0,0,0,0,0,0,0,0,0],"id":36,"left_children":[1,3,5,7,9,11,13,15,17,19,21,23,25,27,29,-1,-1,-1,-1,-1,-1,-1,-1,-1,-1,-1,-1,-1,-1,-1,-1],"loss_changes":[3.3683902E2,1.724555E2,2.6933307E2,1.7459149E2,4.5010796E1,5.767181E2,3.4094757E2,2.8781342E1,3.7986732E1,1.9457043E1,2.0830404E1,2.4915012E2,8.5381256E1,8.015203E2,1.6692072E2,0E0,0E0,0E0,0E0,0E0,0E0,0E0,0E0,0E0,0E0,0E0,0E0,0E0,0E0,0E0,0E0],"parents":[2147483647,0,0,1,1,2,2,3,3,4,4,5,5,6,6,7,7,8,8,9,9,10,10,11,11,12,12,13,13,14,14],"right_children":[2,4,6,8,10,12,14,16,18,20,22,24,26,28,30,-1,-1,-1,-1,-1,-1,-1,-1,-1,-1,-1,-1,-1,-1,-1,-1],"split_conditions":[-1.775148E-2,3.4415452E3,-8.148442E-3,-5.1940117E-2,-2.0214953E-1,1.25E0,3.0395137E-3,-6.792453E-2,8.8709675E-2,5.6019418E-2,4.1879946E-3,2.0006002E-4,1.2773998E-2,1.07013E3,6.741573E-2,2.9120723E-2,1.5593111E-2,5.949384E-3,-6.7590536E-3,1.4163089E-2,8.761429E-2,3.8274527E-2,-2.3268869E-3,1.3766833E-2,-2.0866815E-3,-5.3640413E-3,-8.700802E-4,-5.8454773E-3,-3.6053512E-2,-2.7169927E-3,-1.3510763E-2],"split_indices":[0,7,3,0,2,7,6,0,2,3,6,1,6,7,1,0,0,0,0,0,0,0,0,0,0,0,0,0,0,0,0],"split_type":[0,0,0,0,0,0,0,0,0,0,0,0,0,0,0,0,0,0,0,0,0,0,0,0,0,0,0,0,0,0,0],"sum_hessian":[2.670532E5,2.2353383E4,2.446998E5,1.307271E4,9.280672E3,6.1118527E4,1.8358127E5,1.5928512E3,1.1479859E4,3.4579196E2,8.93488E3,1.2809074E4,4.830945E4,1.748074E4,1.6610053E5,8.6140955E2,7.3144165E2,1.0858993E4,6.208659E2,3.3747806E2,8.313895E0,3.07058E1,8.904175E3,9.45032E3,3.3587546E3,1.5618291E4,3.269116E4,1.490636E4,2.5743809E3,1.6243888E5,3.6616606E3],"tree_param":{"num_deleted":"0","num_feature":"8","num_nodes":"31","size_leaf_vector":"1"}},{"base_weights":[-4.0483378E-2,1.3048224E-1,-4.7635607E-2,1.1152E-1,1.1509533E0,-3.262552E-2,-1.2521504E-1,3.0819386E-1,1.5361588E-2,1.5944312E0,3.33648E-1,6.3904144E-2,-4.5204062E-2,-1.664307E-1,-3.1360712E-2,7.253789E-2,1.4433426E-2,2.9783652E-3,-9.859125E-3,8.35945E-2,-4.4073757E-2,4.1324884E-2,-1.7430117E-2,1.6189884E-2,2.4197525E-3,-2.0961806E-3,-2.1364551E-2,-7.120602E-3,-3.1708624E-2,-9.3569997E-4,-2.137753E-2],"categories":[],"categories_nodes":[],"categories_segments":[],"categories_sizes":[],"default_left":[0,0,0,0,0,0,0,0,0,0,0,0,0,0,0,0,0,0,0,0,0,0,0,0,0,0,0,0,0,0,0],"id":37,"left_children":[1,3,5,7,9,11,13,15,17,19,21,23,25,27,29,-1,-1,-1,-1,-1,-1,-1,-1,-1,-1,-1,-1,-1,-1,-1,-1],"loss_changes":[3.260174E2,2.0703716E2,2.979948E2,1.9879277E2,7.021988E1,2.6035638E2,1.6047418E2,7.658603E1,6.635502E1,2.5690826E1,2.3800554E1,9.962451E1,2.3776074E2,3.237636E2,6.3427048E1,0E0,0E0,0E0,0E0,0E0,0E0,0E0,0E0,0E0,0E0,0E0,0E0,0E0,0E0,0E0,0E0],"parents":[2147483647,0,0,1,1,2,2,3,3,4,4,5,5,6,6,7,7,8,8,9,9,10,10,11,11,12,12,13,13,14,14],"right_children":[2,4,6,8,10,12,14,16,18,20,22,24,26,28,30,-1,-1,-1,-1,-1,-1,-1,-1,-1,-1,-1,-1,-1,-1,-1,-1],"split_conditions":[-1.5502249E-1,5.7841375E6,1.56743E4,2.9123E2,-3.0410317E-1,-1.2345679E-2,1.0862186E-2,-5.0265175E-1,1.0344828E-1,4.7803618E-2,-1.3032701E-4,-5.1940117E-2,4.644714E-2,-3.963012E-3,5.7841375E6,7.253789E-2,1.4433426E-2,2.9783652E-3,-9.859125E-3,8.35945E-2,-4.4073757E-2,4.1324884E-2,-1.7430117E-2,1.6189884E-2,2.4197525E-3,-2.0961806E-3,-2.1364551E-2,-7.120602E-3,-3.1708624E-2,-9.3569997E-4,-2.137753E-2],"split_indices":[5,7,7,7,5,0,1,4,2,1,3,0,0,5,7,0,0,0,0,0,0,0,0,0,0,0,0,0,0,0,0],"split_type":[0,0,0,0,0,0,0,0,0,0,0,0,0,0,0,0,0,0,0,0,0,0,0,0,0,0,0,0,0,0,0],"sum_hessian":[2.666126E5,1.0704997E4,2.5590761E5,1.0510796E4,1.942008E2,2.144225E5,4.14851E4,3.4507446E3,7.060052E3,1.2527469E2,6.892612E1,2.471923E4,1.8970327E5,2.8825676E4,1.2659425E4,5.6747593E1,3.393997E3,5.845088E3,1.2149635E3,1.2178924E2,3.4854488E0,3.9895E1,2.9031113E1,1.3909259E3,2.3328305E4,1.8808952E5,1.6137543E3,2.7419008E4,1.4066681E3,1.226884E4,3.905844E2],"tree_param":{"num_deleted":"0","num_feature":"8","num_nodes":"31","size_leaf_vector":"1"}},{"base_weights":[-3.8386963E-2,9.274663E-2,-4.7056645E-2,1.247487E-1,-1.05559066E-1,-3.714875E-2,-1.3333468E-1,3.9889872E-1,1.0064791E-1,1.0535861E-1,-2.2845188E-1,3.4752194E-2,-4.687983E-2,-2.3786058E-1,-1.8102976E-2,2.6700554E-2,7.915392E-3,-1.2277021E-3,7.4790316E-3,-1.7749723E-2,8.77629E-3,6.7063354E-2,-1.17755635E-2,6.9796555E-3,7.901935E-4,-2.1918816E-3,-1.3508623E-2,1.3259183E-2,-1.5479015E-2,1.4301379E-4,-2.223844E-2],"categories":[],"categories_nodes":[],"categories_segments":[],"categories_sizes":[],"default_left":[0,0,0,0,0,0,0,0,0,0,0,0,0,0,0,0,0,0,0,0,0,0,0,0,0,0,0,0,0,0,0],"id":38,"left_children":[1,3,5,7,9,11,13,15,17,19,21,23,25,27,29,-1,-1,-1,-1,-1,-1,-1,-1,-1,-1,-1,-1,-1,-1,-1,-1],"loss_changes":[3.027222E2,1.0480534E2,2.1349628E2,9.3905304E1,5.951175E1,1.5675095E2,3.0986447E2,3.725357E1,8.008252E1,2.7376656E1,1.6388405E1,5.3052204E1,1.3403204E2,4.867718E2,1.0945912E2,0E0,0E0,0E0,0E0,0E0,0E0,0E0,0E0,0E0,0E0,0E0,0E0,0E0,0E0,0E0,0E0],"parents":[2147483647,0,0,1,1,2,2,3,3,4,4,5,5,6,6,7,7,8,8,9,9,10,10,11,11,12,12,13,13,14,14],"right_children":[2,4,6,8,10,12,14,16,18,20,22,24,26,28,30,-1,-1,-1,-1,-1,-1,-1,-1,-1,-1,-1,-1,-1,-1,-1,-1],"split_conditions":[-1.3204166E-1,1.2027492E-2,-2.762431E-3,-1.0828026E-1,-3.2028526E-2,-1.3432836E-2,1.3315579E-3,3.1864364E-4,-3.9516455E-3,-7.496823E-2,6.844974E-3,-3.5369776E-2,1.1475556E0,-9.234973E-4,2.367618E-2,2.6700554E-2,7.915392E-3,-1.2277021E-3,7.4790316E-3,-1.7749723E-2,8.77629E-3,6.7063354E-2,-1.17755635E-2,6.9796555E-3,7.901935E-4,-2.1918816E-3,-1.3508623E-2,1.3259183E-2,-1.5479015E-2,1.4301379E-4,-2.223844E-2],"split_indices":[5,0,5,1,3,0,0,3,4,1,6,0,4,3,6,0,0,0,0,0,0,0,0,0,0,0,0,0,0,0,0],"split_type":[0,0,0,0,0,0,0,0,0,0,0,0,0,0,0,0,0,0,0,0,0,0,0,0,0,0,0,0,0,0,0],"sum_hessian":[2.6626816E5,1.6511605E4,2.4975656E5,1.421758E4,2.294026E3,2.2403098E5,2.5725576E4,1.1476249E3,1.3069955E4,8.446014E2,1.4494244E3,2.6705676E4,1.9732531E5,1.3488859E4,1.2236717E4,7.3412915E2,4.1349576E2,3.672863E3,9.397092E3,1.1117103E2,7.3343036E2,5.6430545E0,1.4437814E3,4.0868433E3,2.2618832E4,1.946742E5,2.651098E3,1.6828188E3,1.180604E4,1.1664598E4,5.7212006E2],"tree_param":{"num_deleted":"0","num_feature":"8","num_nodes":"31","size_leaf_vector":"1"}},{"base_weights":[-3.515367E-2,-1.3494318E-2,-8.534197E-2,1.7195018E-1,-2.5011906E-2,-6.641531E-1,-6.849446E-2,3.666309E-1,1.19622335E-1,-1.4893412E-2,-2.1091662E-1,-1.2390791E-1,-7.752741E-1,-9.239031E-2,-1.330473E-2,1.3413118E-2,2.359545E-2,2.6623784E-2,4.5520696E-3,1.8381578E-3,-2.0344334E-3,-8.212626E-3,-2.5436983E-2,-2.10605E-2,1.2048469E-2,-4.061018E-2,-7.2437576E-3,1.9161938E-2,-4.8645814E-3,4.00398E-4,-1.0911285E-2],"categories":[],"categories_nodes":[],"categories_segments":[],"categories_sizes":[],"default_left":[0,0,0,0,0,0,0,0,0,0,0,0,0,0,0,0,0,0,0,0,0,0,0,0,0,0,0,0,0,0,0],"id":39,"left_children":[1,3,5,7,9,11,13,15,17,19,21,23,25,27,29,-1,-1,-1,-1,-1,-1,-1,-1,-1,-1,-1,-1,-1,-1,-1,-1],"loss_changes":[2.891193E2,3.968293E2,7.818259E2,1.1063464E2,3.2904794E2,1.3603766E2,1.0275052E2,2.3703796E1,1.0100848E2,2.2106049E2,1.2540469E2,4.2196327E1,4.3663696E1,1.2678766E2,1.0282226E2,0E0,0E0,0E0,0E0,0E0,0E0,0E0,0E0,0E0,0E0,0E0,0E0,0E0,0E0,0E0,0E0],"parents":[2147483647,0,0,1,1,2,2,3,3,4,4,5,5,6,6,7,7,8,8,9,9,10,10,11,11,12,12,13,13,14,14],"right_children":[2,4,6,8,10,12,14,16,18,20,22,24,26,28,30,-1,-1,-1,-1,-1,-1,-1,-1,-1,-1,-1,-1,-1,-1,-1,-1],"split_conditions":[3.33418E3,-3.8280725E-2,3.6443148E-3,1.25E0,1.8867925E-2,-1.0738255E-2,1.0862186E-2,-2.6766464E-4,-6.792453E-2,-5.106462E-3,4.644714E-2,-2.860877E-4,6.194081E-3,-3.0410317E-1,4.4461004E-2,1.3413118E-2,2.359545E-2,2.6623784E-2,4.5520696E-3,1.8381578E-3,-2.0344334E-3,-8.212626E-3,-2.5436983E-2,-2.10605E-2,1.2048469E-2,-4.061018E-2,-7.2437576E-3,1.9161938E-2,-4.8645814E-3,4.00398E-4,-1.0911285E-2],"split_indices":[7,1,6,7,0,5,1,4,0,3,0,4,1,5,6,0,0,0,0,0,0,0,0,0,0,0,0,0,0,0,0],"split_type":[0,0,0,0,0,0,0,0,0,0,0,0,0,0,0,0,0,0,0,0,0,0,0,0,0,0,0,0,0,0,0],"sum_hessian":[2.659679E5,1.8578953E5,8.017839E4,1.0863444E4,1.7492608E5,2.2666653E3,7.791173E4,2.3001077E3,8.563337E3,1.6589762E5,9.02846E3,3.8704666E2,1.8796188E3,5.437009E4,2.3541637E4,1.1909083E3,1.1091993E3,5.532973E2,8.0100396E3,5.5251906E4,1.1064572E5,7.8068096E3,1.2216505E3,2.1318726E2,1.738594E2,1.7753296E3,1.04289185E2,5.5377734E2,5.3816312E4,2.132473E4,2.2169058E3],"tree_param":{"num_deleted":"0","num_feature":"8","num_nodes":"31","size_leaf_vector":"1"}},{"base_weights":[-3.4108102E-2,-1.6768573E-2,-9.4496615E-2,1.6670796E-1,-2.5518548E-2,-6.475797E-1,-7.3839426E-2,3.1477383E-1,9.060485E-2,-1.7245265E-2,-1.9262283E-1,-1.8274751E-1,-7.677189E-1,-4.4512245E-1,-7.017918E-2,2.5378127E-2,1.2469164E-2,1.5968448E-2,2.8714738E-3,-7.076863E-4,-1.8338678E-2,-1.596455E-2,-3.7017965E-3,2.9424762E-2,-1.6365318E-2,-4.941873E-2,-3.385442E-2,-3.1610217E-2,7.784893E-3,1.3117507E-2,-3.6828748E-3],"categories":[],"categories_nodes":[],"categories_segments":[],"categories_sizes":[],"default_left":[0,0,0,0,0,0,0,0,0,0,0,0,0,0,0,0,0,0,0,0,0,0,0,0,0,0,0,0,0,0,0],"id":40,"left_children":[1,3,5,7,9,11,13,15,17,19,21,23,25,27,29,-1,-1,-1,-1,-1,-1,-1,-1,-1,-1,-1,-1,-1,-1,-1,-1],"loss_changes":[2.780463E2,3.3120752E2,6.767323E2,1.0579065E2,2.722304E2,1.1895557E2,7.757297E1,4.005945E1,4.706729E1,2.0273947E2,1.3951035E2,4.9170597E1,3.321411E1,6.2737434E1,6.542523E1,0E0,0E0,0E0,0E0,0E0,0E0,0E0,0E0,0E0,0E0,0E0,0E0,0E0,0E0,0E0,0E0],"parents":[2147483647,0,0,1,1,2,2,3,3,4,4,5,5,6,6,7,7,8,8,9,9,10,10,11,11,12,12,13,13,14,14],"right_children":[2,4,6,8,10,12,14,16,18,20,22,24,26,28,30,-1,-1,-1,-1,-1,-1,-1,-1,-1,-1,-1,-1,-1,-1,-1,-1],"split_conditions":[7.58994E3,-4.4559587E-2,4.385965E-3,6.89E1,2.0408163E-2,-1.0738255E-2,-1.3212056E1,-8.605201E-2,-5.1940117E-2,6.741573E-2,5.172138E2,-3.5643563E-2,1.2160778E-3,1.5257899E-2,-3.0410317E-1,2.5378127E-2,1.2469164E-2,1.5968448E-2,2.8714738E-3,-7.076863E-4,-1.8338678E-2,-1.596455E-2,-3.7017965E-3,2.9424762E-2,-1.6365318E-2,-4.941873E-2,-3.385442E-2,-3.1610217E-2,7.784893E-3,1.3117507E-2,-3.6828748E-3],"split_indices":[7,1,6,7,0,5,4,1,0,1,7,5,6,6,5,0,0,0,0,0,0,0,0,0,0,0,0,0,0,0,0],"split_type":[0,0,0,0,0,0,0,0,0,0,0,0,0,0,0,0,0,0,0,0,0,0,0,0,0,0,0,0,0,0,0],"sum_hessian":[2.655378E5,2.063028E5,5.923504E4,9.389893E3,1.9691289E5,2.1316306E3,5.7103406E4,3.1867097E3,6.203183E3,1.8762475E5,9.288144E3,4.3830392E2,1.6933267E3,5.562737E2,5.6547133E4,8.0540375E2,2.381306E3,7.8455817E2,5.418625E3,1.8598081E5,1.643939E3,4.490229E3,4.7979146E3,6.870132E1,3.696026E2,4.901255E2,1.2032012E3,4.2415054E2,1.3212315E2,5.8459937E2,5.5962535E4],"tree_param":{"num_deleted":"0","num_feature":"8","num_nodes":"31","size_leaf_vector":"1"}},{"base_weights":[-3.2389347E-2,8.972523E-2,-4.04954E-2,2.6807275E-1,3.6510676E-2,-3.3549733E-2,-1.8141069E-1,3.4973654E-1,3.452304E-2,2.184705E-2,8.181017E-1,-2.4185881E-2,-1.14263214E-1,-7.59846E-1,-1.4238901E-1,4.100052E-3,2.1876166E-2,2.9362986E-2,-1.4149724E-3,3.34041E-3,-4.4822237E-3,7.358285E-2,1.5461029E-3,-2.9331332E-3,-2.2721959E-4,-1.2402519E-2,-2.054215E-3,-1.4873321E-2,-4.2844884E-2,-9.176582E-3,-8.3187195E-5],"categories":[],"categories_nodes":[],"categories_segments":[],"categories_sizes":[],"default_left":[0,0,0,0,0,0,0,0,0,0,0,0,0,0,0,0,0,0,0,0,0,0,0,0,0,0,0,0,0,0,0],"id":41,"left_children":[1,3,5,7,9,11,13,15,17,19,21,23,25,27,29,-1,-1,-1,-1,-1,-1,-1,-1,-1,-1,-1,-1,-1,-1,-1,-1],"loss_changes":[2.6247314E2,1.5664262E2,2.4336148E2,7.2330444E1,1.4569563E2,1.7909839E2,2.6352692E2,6.601477E1,3.4177803E1,6.256955E1,1.2039523E2,1.4379083E2,2.4116483E2,3.2858826E1,6.3358017E1,0E0,0E0,0E0,0E0,0E0,0E0,0E0,0E0,0E0,0E0,0E0,0E0,0E0,0E0,0E0,0E0],"parents":[2147483647,0,0,1,1,2,2,3,3,4,4,5,5,6,6,7,7,8,8,9,9,10,10,11,11,12,12,13,13,14,14],"right_children":[2,4,6,8,10,12,14,16,18,20,22,24,26,28,30,-1,-1,-1,-1,-1,-1,-1,-1,-1,-1,-1,-1,-1,-1,-1,-1],"split_conditions":[-1.3204166E-1,4.742E1,1.732127E5,3.1864364E-4,5.7841375E6,-2.762431E-3,4.485687E-3,-5.0232415E-3,-2.4328433E-2,1.441503E4,-3.0410317E-1,-4.954002E-4,1.1486959E-4,-7.941474E-3,1.0531127E-2,4.100052E-3,2.1876166E-2,2.9362986E-2,-1.4149724E-3,3.34041E-3,-4.4822237E-3,7.358285E-2,1.5461029E-3,-2.9331332E-3,-2.2721959E-4,-1.2402519E-2,-2.054215E-3,-1.4873321E-2,-4.2844884E-2,-9.176582E-3,-8.3187195E-5],"split_indices":[5,7,7,3,7,5,6,4,0,7,5,4,4,4,3,0,0,0,0,0,0,0,0,0,0,0,0,0,0,0,0],"split_type":[0,0,0,0,0,0,0,0,0,0,0,0,0,0,0,0,0,0,0,0,0,0,0,0,0,0,0,0,0,0,0],"sum_hessian":[2.6515525E5,1.6504918E4,2.4865031E5,3.7920156E3,1.2712902E4,2.3697133E5,1.1678996E4,2.8092322E3,9.8278345E2,1.2479794E4,2.331086E2,2.1233848E5,2.4632828E4,7.369147E2,1.0942082E4,6.9414264E2,2.1150896E3,9.944855E1,8.833349E2,8.893653E3,3.5861401E3,1.2688931E2,1.0621929E2,7.706463E4,1.3527386E5,8.7088125E3,1.5924016E4,1.2854715E2,6.083675E2,8.466501E3,2.475581E3],"tree_param":{"num_deleted":"0","num_feature":"8","num_nodes":"31","size_leaf_vector":"1"}},{"base_weights":[-3.1216659E-2,6.951718E-2,-4.0532514E-2,2.964281E-1,5.327136E-2,7.229996E-3,-5.904207E-2,3.598189E-1,-1.4419185E-1,4.6111652E-1,4.4772632E-2,7.405475E-1,-6.05727E-4,-2.448473E-1,-5.000452E-2,-4.215188E-3,2.0991674E-2,-1.5507102E-3,-2.52465E-2,6.3910395E-2,6.7456895E-3,3.2020458E-3,-4.663478E-3,2.7837342E-2,6.0804546E-2,8.7755425E-3,-5.5423996E-4,-1.3516537E-2,7.562908E-2,-5.986102E-3,-1.6456097E-3],"categories":[],"categories_nodes":[],"categories_segments":[],"categories_sizes":[],"default_left":[0,0,0,0,0,0,0,0,0,0,0,0,0,0,0,0,0,0,0,0,0,0,0,0,0,0,0,0,0,0,0],"id":42,"left_children":[1,3,5,7,9,11,13,15,17,19,21,23,25,27,29,-1,-1,-1,-1,-1,-1,-1,-1,-1,-1,-1,-1,-1,-1,-1,-1],"loss_changes":[2.4858304E2,8.264631E1,2.1435806E2,4.1891876E1,7.251526E1,3.8913358E2,2.934292E2,3.4947815E1,7.7055063E0,1.1365694E2,5.4534683E1,6.1903015E1,1.236652E2,3.6340408E2,1.985748E2,0E0,0E0,0E0,0E0,0E0,0E0,0E0,0E0,0E0,0E0,0E0,0E0,0E0,0E0,0E0,0E0],"parents":[2147483647,0,0,1,1,2,2,3,3,4,4,5,5,6,6,7,7,8,8,9,9,10,10,11,11,12,12,13,13,14,14],"right_children":[2,4,6,8,10,12,14,16,18,20,22,24,26,28,30,-1,-1,-1,-1,-1,-1,-1,-1,-1,-1,-1,-1,-1,-1,-1,-1],"split_conditions":[-1.775148E-2,-6.792453E-2,-7.0913807E-3,1.4449541E-1,-1.0828026E-1,3.5E-4,1.4030612E-3,-6.9214962E-3,1.3734567E-1,-4.6629753E-2,6.467458E-2,-1.3446745E-4,-1.61534E-1,2.133942E0,-4.160649E-4,-4.215188E-3,2.0991674E-2,-1.5507102E-3,-2.52465E-2,6.3910395E-2,6.7456895E-3,3.2020458E-3,-4.663478E-3,2.7837342E-2,6.0804546E-2,8.7755425E-3,-5.5423996E-4,-1.3516537E-2,7.562908E-2,-5.986102E-3,-1.6456097E-3],"split_indices":[0,0,3,2,1,6,6,4,1,3,2,4,5,4,4,0,0,0,0,0,0,0,0,0,0,0,0,0,0,0,0],"split_type":[0,0,0,0,0,0,0,0,0,0,0,0,0,0,0,0,0,0,0,0,0,0,0,0,0,0,0,0,0,0,0],"sum_hessian":[2.6489066E5,2.2422809E4,2.4246784E5,1.4969635E3,2.0925846E4,6.772058E4,1.7474727E5,1.3088467E3,1.8811685E2,4.2606717E2,2.0499777E4,7.149763E2,6.700561E4,8.104232E3,1.6664303E5,1.5576224E2,1.1530845E3,1.4401859E2,4.4098278E1,1.2073207E2,3.0533508E2,1.7989318E4,2.5104592E3,5.172331E2,1.9774321E2,3.7621E3,6.3243504E4,7.989231E3,1.1500086E2,3.2809812E4,1.3383322E5],"tree_param":{"num_deleted":"0","num_feature":"8","num_nodes":"31","size_leaf_vector":"1"}},{"base_weights":[-2.9469553E-2,-9.752246E-3,-7.471753E-2,-4.522201E-3,-3.4972432E-1,-6.3223934E-1,-5.9386518E-2,1.4598836E-1,-1.53093E-2,-5.246323E-1,-2.0486039E-1,-1.3855419E-1,-7.538201E-1,-4.505546E-1,-5.6289904E-2,1.620245E-2,5.1881443E-3,1.5475582E-3,-2.0405136E-3,-1.1648393E-2,-3.3618625E-2,1.5291992E-2,-1.3508796E-2,3.5992112E-2,-1.1395256E-2,-4.867501E-2,-3.1796012E-2,-2.9928816E-2,1.0110634E-2,-2.509802E-3,-1.2399822E-2],"categories":[],"categories_nodes":[],"categories_segments":[],"categories_sizes":[],"default_left":[0,0,0,0,0,0,0,0,0,0,0,0,0,0,0,0,0,0,0,0,0,0,0,0,0,0,0,0,0,0,0],"id":43,"left_children":[1,3,5,7,9,11,13,15,17,19,21,23,25,27,29,-1,-1,-1,-1,-1,-1,-1,-1,-1,-1,-1,-1,-1,-1,-1,-1],"loss_changes":[2.360944E2,3.2772333E2,6.8645935E2,2.9471887E2,7.064804E1,1.289068E2,9.4659546E1,9.124216E1,1.9982217E2,5.432782E1,5.1087143E1,3.2834328E1,4.4043884E1,5.94289E1,9.05905E1,0E0,0E0,0E0,0E0,0E0,0E0,0E0,0E0,0E0,0E0,0E0,0E0,0E0,0E0,0E0,0E0],"parents":[2147483647,0,0,1,1,2,2,3,3,4,4,5,5,6,6,7,7,8,8,9,9,10,10,11,11,12,12,13,13,14,14],"right_children":[2,4,6,8,10,12,14,16,18,20,22,24,26,28,30,-1,-1,-1,-1,-1,-1,-1,-1,-1,-1,-1,-1,-1,-1,-1,-1],"split_conditions":[3.2315E3,3.3333335E-2,3.6443148E-3,-3.5812672E-2,2.5272281E2,-9.98004E-3,-1.3212056E1,-7.496823E-2,-4.499968E-3,1.5151516E-2,-3.9516455E-3,-5.0955415E-2,1.2160778E-3,1.692631E-2,1.1475556E0,1.620245E-2,5.1881443E-3,1.5475582E-3,-2.0405136E-3,-1.1648393E-2,-3.3618625E-2,1.5291992E-2,-1.3508796E-2,3.5992112E-2,-1.1395256E-2,-4.867501E-2,-3.1796012E-2,-2.9928816E-2,1.0110634E-2,-2.509802E-3,-1.2399822E-2],"split_indices":[7,0,6,1,7,5,4,1,3,6,4,5,6,6,4,0,0,0,0,0,0,0,0,0,0,0,0,0,0,0,0],"split_type":[0,0,0,0,0,0,0,0,0,0,0,0,0,0,0,0,0,0,0,0,0,0,0,0,0,0,0,0,0,0,0],"sum_hessian":[2.6462972E5,1.8431405E5,8.031567E4,1.8152256E5,2.7914836E3,2.1483772E3,7.81673E4,1.2138841E4,1.6938372E5,1.263418E3,1.5280658E3,4.2495697E2,1.7234203E3,6.128022E2,7.755449E4,2.3255505E3,9.81329E3,6.019172E4,1.09192E5,4.2566306E2,8.3775494E2,1.7285268E2,1.3552131E3,3.9398495E1,3.8555847E2,5.9937054E2,1.1240497E3,4.9959656E2,1.1320565E2,7.516641E4,2.3880876E3],"tree_param":{"num_deleted":"0","num_feature":"8","num_nodes":"31","size_leaf_vector":"1"}},{"base_weights":[-2.8214037E-2,-1.4873091E-2,-9.6428536E-2,1.7521055E-1,-2.0954208E-2,-1.3107982E-1,-1.690318E-2,3.0493698E-1,8.9458145E-2,-1.3815466E-2,-1.501761E-1,-1.1450903E-1,-6.229288E-1,-7.317721E-3,-4.1379747E-1,9.815271E-3,2.0389454E-2,1.8483901E-2,3.0871404E-3,-5.565425E-4,-1.5547578E-2,-1.4312982E-2,-2.4144284E-3,1.63229E-2,-6.0098497E-3,-4.0764797E-2,-1.29584065E-2,4.155008E-5,-1.2976455E-2,-3.1612884E-2,-1.0532366E-2],"categories":[],"categories_nodes":[],"categories_segments":[],"categories_sizes":[],"default_left":[0,0,0,0,0,0,0,0,0,0,0,0,0,0,0,0,0,0,0,0,0,0,0,0,0,0,0,0,0,0,0],"id":44,"left_children":[1,3,5,7,9,11,13,15,17,19,21,23,25,27,29,-1,-1,-1,-1,-1,-1,-1,-1,-1,-1,-1,-1,-1,-1,-1,-1],"loss_changes":[2.4058484E2,2.5560417E2,1.1916708E2,7.622931E1,1.9765703E2,2.4542255E2,4.993223E1,3.0395218E1,3.203948E1,1.6197095E2,1.5551631E2,7.3128815E1,6.846921E1,2.6341938E1,1.3602734E1,0E0,0E0,0E0,0E0,0E0,0E0,0E0,0E0,0E0,0E0,0E0,0E0,0E0,0E0,0E0,0E0],"parents":[2147483647,0,0,1,1,2,2,3,3,4,4,5,5,6,6,7,7,8,8,9,9,10,10,11,